tree
version=v4
num_class=1
num_tree_per_iteration=1
label_index=0
max_feature_idx=76
objective=binary sigmoid:1
feature_names=Column_0 Column_1 Column_2 Column_3 Column_4 Column_5 Column_6 Column_7 Column_8 Column_9 Column_10 Column_11 Column_12 Column_13 Column_14 Column_15 Column_16 Column_17 Column_18 Column_19 Column_20 Column_21 Column_22 Column_23 Column_24 Column_25 Column_26 Column_27 Column_28 Column_29 Column_30 Column_31 Column_32 Column_33 Column_34 Column_35 Column_36 Column_37 Column_38 Column_39 Column_40 Column_41 Column_42 Column_43 Column_44 Column_45 Column_46 Column_47 Column_48 Column_49 Column_50 Column_51 Column_52 Column_53 Column_54 Column_55 Column_56 Column_57 Column_58 Column_59 Column_60 Column_61 Column_62 Column_63 Column_64 Column_65 Column_66 Column_67 Column_68 Column_69 Column_70 Column_71 Column_72 Column_73 Column_74 Column_75 Column_76
feature_infos=[-0.028380024360535883:0.017026924191911874] [15:1425] [0:23] [0:8] [0.23947001394701764:1] [0.33115557370358412:1] [0:0.0086685609611861589] [0:41] [-1:1] [0:1] [0:1] [0.00038881547971622728:0.16728517591553752] [0:1] [0.00062840289340547256:0.053469012238980665] [0:0.035675374976225575] [0.00024828158164081184:0.010042920110430944] [-0.028541018993012646:0.046876997425200351] [0:1.601604278074843] [0:45] [-0.07088265204491373:0.09164547699625003] [-0.026590336105191313:0.041598560529468614] [0.0013320013320013567:0.081097326382112617] [0:8] [1:98] [0.0031545741325608987:1] [-0.0035831711236479907:0.0060360237670581424] [-0.058153181738625159:0.075528686412128732] [3.4006434018058365e-06:0.029211761592355761] [-0.07100876545989554:0.072921296183243278] [0.22566248716355966:5.2478958836763052] [0:2.7798485730923472] [1:99] [-0.026073294053737893:0.037349628329777645] [0.00029995977066167844:0.027727411221959226] [-0.056455897014197697:0.12991478546867991] [0:1] [-0.020965860196853571:0.075436498085501666] [-0.140515503024737:-0.00040337322036361299] [0.010744564761183649:0.98142993824476077] [-0.051874259051354225:0.0020427803937330688] [0:6] [0:10] [10.570000000000292:711.17800000000022] [-2.3826845548033332e-05:0.076576169950275622] [-0.033376832184993405:0.030267938678045926] [0:0.007123705322194967] [-0.09342136419985235:0.049806927451932249] [0.00038881547971622728:0.084060609439906273] [-0.09342136419985235:-0.00040337322036361299] [0.00037038463221779284:0.015393574830036345] [-1:1] [-0.053074812307606509:0.06542920070255645] [0.00036156654972429816:0.035125987213238098] [9.6357142857146503:956.17142857142915] [0.125:1] [0.00038881547971622728:0.10392188289832203] [0:1] [0.00032883248963904002:0.01743571105624183] [-0.080049587007089834:-0.00018688794198998279] [0.35438765670202416:5.0151785078030207] [-0.049809870043040411:0.045014630757102742] [0.00018688794198998279:0.080049587007089834] [0:11] [-0.058153181738625159:0.075528686412128732] [0.00038881547971622728:0.084060609439906273] [0.25:0.8125] [-0.028541018993012646:0.046876997425200351] [0.00038881547971622728:0.10392188289832203] [9.5704929219932937e-05:0.058839387772171015] [0:1] [0:0.875] [-0.09342136419985235:-0.00040337322036361299] [0.3125:0.6875] [-0.028541018993012646:0.046876997425200351] [-1:1] [0.1875:0.75] [0:1]
tree_sizes=974 980 973 977 868 1080 1185 1301 1197 1207 1423 1322 1199 1203 1427 1308 1199 1309 1311 1302 1206 1190 1203 1203 1203 1192 1199 1194 1298 1193 1297 1192 1190 1191 1300 1109 1097 1084 1214 1202 1186 1202 1192 1295 1199 1317 1212 1319 1200 1099 1098 1196 1310 1221 1308 1194 1192 1188 1089 1199 1202 1199 1330 1207 1203 1202 1307 1401 1319 1301 1307 1299 1413 1412 1210 1202 1205 1086 1205 1311 1196 1630 1306 1304 1420 1089 1083 1092 1402 1292 1306 1305 1202 1205 1091 1212 1307 1295

Tree=0
num_leaves=8
num_cat=0
split_feature=0 1 1 4 8 6 0
split_gain=151.038 41.5212 42.7693 7.99104 4.21205 0.666757 7.10543e-15
threshold=1.4991258915575402e-05 457.50000000000006 1117.5000000000002 0.72234165510866288 0.27083333333333343 8.8959536193642533e-05 -0.00055834678092231405
decision_type=2 2 2 2 2 2 2
left_child=6 -2 3 -3 5 -5 -1
right_child=1 2 -4 4 -6 -7 -8
leaf_value=-0.79536789683513243 -0.73590946649689626 -0.64737931139043359 -0.72723776368118265 -0.58617588127856746 -0.60985759469131828 -0.56822578397244805 -0.79536789683513243
leaf_weight=14.968602657318117 8.647233843803404 6.9485217332839957 7.5466012954711905 8.3565007448196429 14.412056446075438 13.581390380859373 4.4025301933288565
leaf_count=68 34 21 29 20 38 30 20
internal_value=-0.674105 -0.634621 -0.617395 -0.59825 -0.588859 -0.575063 -0.795368
internal_weight=78.8634 59.4923 50.8451 43.2985 36.3499 21.9379 19.3711
internal_count=260 172 138 109 88 50 88
is_linear=0
shrinkage=1


Tree=1
num_leaves=8
num_cat=0
split_feature=0 1 1 3 39 14 0
split_gain=133.835 35.3665 35.9122 6.53003 2.71882 3.40411 7.10543e-15
threshold=1.4991258915575402e-05 457.50000000000006 1117.5000000000002 1.5000000000000002 -0.0047379886480034073 0.0020096733219102307 -0.00060027415682922791
decision_type=2 2 2 2 2 2 2
left_child=6 -2 3 -3 -5 -6 -1
right_child=1 2 -4 4 5 -7 -8
leaf_value=-0.072570755395968592 -0.014186070186949777 0.078963148221411428 -0.0058856458393691481 0.14076696644259254 0.12811473413329244 0.086585916308872343 -0.07257075539596862
leaf_weight=13.928558975458147 8.6025307774543744 11.184749722480772 7.5304285883903495 13.187579303979865 12.487486898899087 8.1583240777254087 4.9285670220851889
leaf_count=65 34 31 29 28 28 22 23
internal_value=0.0438824 0.079793 0.0951779 0.112083 0.123032 0.111704 -0.0725708
internal_weight=80.0082 61.1511 52.5486 45.0181 33.8334 20.6458 18.8571
internal_count=260 172 138 109 78 50 88
is_linear=0
shrinkage=0.05


Tree=2
num_leaves=8
num_cat=0
split_feature=0 1 1 4 8 8 0
split_gain=119.428 30.5326 30.6802 6.15361 3.18005 0.681737 7.10543e-15
threshold=1.4991258915575402e-05 457.50000000000006 1117.5000000000002 0.72234165510866288 0.27083333333333343 -0.64583333333333315 -0.0011668858599059859
decision_type=2 2 2 2 2 2 2
left_child=6 -2 3 -3 5 -5 -1
right_child=1 2 -4 4 -6 -7 -8
leaf_value=-0.070990805637598506 -0.013546657218257341 0.06127285108907593 -0.0056031848669509813 0.11189908252609347 0.093501505105418992 0.12937525978073314 -0.070990805637598534
leaf_weight=10.204481512308123 8.559280112385748 7.3311735093593589 7.5149456560611716 9.0223420709371513 15.381128937005995 14.627724498510366 8.1219342648982984
leaf_count=49 34 21 29 20 38 30 39
internal_value=0.0412361 0.074177 0.0881133 0.103304 0.111199 0.122708 -0.0709908
internal_weight=80.763 62.4366 53.8773 46.3624 39.0312 23.6501 18.3264
internal_count=260 172 138 109 88 50 88
is_linear=0
shrinkage=0.05


Tree=3
num_leaves=8
num_cat=0
split_feature=3 1 1 3 39 39 1
split_gain=102.562 47.6183 26.8242 5.34215 2.54708 2.21288 7.10543e-15
threshold=1.0000000180025095e-35 442.50000000000006 1117.5000000000002 1.5000000000000002 -0.0047379886480034073 -0.001695908329596859 997.50000000000011
decision_type=2 2 2 2 2 2 2
left_child=6 -2 3 -3 -5 -6 -1
right_child=1 2 -4 4 5 -7 -8
leaf_value=-0.069552312761322302 -0.057881414448815963 0.068551779548720396 -0.0053338208855941462 0.12224145644393292 0.080581462008042823 0.11209919119238561 -0.06955231276132233
leaf_weight=12.327494248747827 6.7190704196691504 13.003307893872259 7.5001297593116751 14.398849517107005 11.939895376563067 10.437549799680719 4.8501616716384879
leaf_count=61 30 35 29 29 30 22 24
internal_value=0.0389282 0.068045 0.0828165 0.0960978 0.105838 0.0952823 -0.0695523
internal_weight=81.1765 63.9988 57.2797 49.7796 36.7763 22.3774 17.1777
internal_count=260 175 145 116 81 52 85
is_linear=0
shrinkage=0.05


Tree=4
num_leaves=7
num_cat=0
split_feature=3 1 1 3 33 21
split_gain=92.5317 23.6845 22.6257 5.0665 2.30435 5.04565
threshold=1.0000000180025095e-35 457.50000000000006 1117.5000000000002 1.5000000000000002 0.0023614998409273984 0.0096004268427924925
decision_type=2 2 2 2 2 2
left_child=-1 -2 3 -3 5 -5
right_child=1 2 -4 4 -6 -7
leaf_value=-0.068238613005353652 -0.013141556568298522 0.060212131446665533 -0.005076972718139729 0.10487897566012863 0.11433953160799203 0.055815972281790041
leaf_weight=16.646403893828392 8.6320857256650907 12.05651171505451 7.485957443714141 15.382691428065302 13.147849708795546 7.9476185739040366
leaf_count=85 35 32 29 32 26 21
internal_value=0.0368863 0.0639532 0.0758325 0.088312 0.0975993 0.0881654
internal_weight=81.2991 64.6527 56.0206 48.5347 36.4782 23.3303
internal_count=260 175 140 111 79 53
is_linear=0
shrinkage=0.05


Tree=5
num_leaves=9
num_cat=0
split_feature=0 1 5 1 43 24 31 11
split_gain=87.9211 24.7355 13.8544 10.8169 6.20941 5.74225 0.879898 0.000616624
threshold=1.4991258915575402e-05 457.50000000000006 0.72063536349035739 907.50000000000011 0.0040164983098587449 0.63598301419340353 61.500000000000007 0.009139280647556711
decision_type=2 2 2 2 2 2 2 2
left_child=7 -2 3 -3 6 -6 -4 -1
right_child=1 2 4 -5 5 -7 -8 -9
leaf_value=-0.067751059832992455 -0.028911690183818339 0.069389256267121405 0.11559772580264185 -0.019850106879918644 0.041156785369082016 0.091744297512285522 0.09429025415212744 -0.067035553459510594
leaf_weight=3.8487012237310436 7.0826250761747351 7.0624697059392911 10.010289609432222 6.5403711199760437 11.127636447548868 11.312488809227942 9.3901834785938245 13.836897447705267
leaf_count=20 30 17 20 24 31 25 20 73
internal_value=0.0312367 0.0590772 0.0703174 0.0264821 0.0845687 0.0666589 0.105285 -0.0671913
internal_weight=80.2117 62.5261 55.4434 13.6028 41.8406 22.4401 19.4005 17.6856
internal_count=260 167 137 41 96 56 40 93
is_linear=0
shrinkage=0.05


Tree=6
num_leaves=10
num_cat=0
split_feature=0 1 5 1 43 24 24 43 11
split_gain=79.952 22.0706 12.2737 11.3974 5.3266 6.40377 0.88008 0.00052653 7.76899e-08
threshold=1.4991258915575402e-05 457.50000000000006 0.72897524620709719 907.50000000000011 0.0040164983098587449 0.63598301419340353 0.53728684405637661 0.0015265420597230987 0.014746925169733544
decision_type=2 2 2 2 2 2 2 2 2
left_child=7 -2 3 -3 6 -6 -4 -1 -9
right_child=1 2 4 -5 5 -7 -8 8 -10
leaf_value=-0.066600876528554356 -0.027782929857376539 0.068437715861962831 0.10939251777052711 -0.020847117136701315 0.035526830208086203 0.089665484632194814 0.088173560563343203 -0.06592245639991981 -0.065931000918079505
leaf_weight=3.7240707278251675 7.003900319337844 7.6155615895986539 10.109974443912508 6.7355411201715469 10.676510050892832 11.183701291680334 9.4584502875804883 3.6638974398374549 9.7120214998722059
leaf_count=20 30 18 20 25 30 24 20 20 53
internal_value=0.0297725 0.055878 0.0663827 0.0265328 0.0801869 0.0632242 0.0991363 -0.0660751 -0.0659287
internal_weight=79.8836 62.7836 55.7797 14.3511 41.4286 21.8602 19.5684 17.1 13.3759
internal_count=260 167 137 43 94 54 40 93 73
is_linear=0
shrinkage=0.05


Tree=7
num_leaves=11
num_cat=0
split_feature=0 5 10 12 7 8 4 53 11 43
split_gain=72.9309 15.0967 17.6428 7.53637 7.20843 9.58863 4.04441 0.000444533 5.82204e-08 1.0765e-08
threshold=1.4991258915575402e-05 0.72897524620709719 1.0000000180025095e-35 1.0000000180025095e-35 3.5000000000000004 -0.062499999999999993 0.83525822371820502 74.867857142857787 0.016096042419418893 0.0032870421316890403
decision_type=2 2 2 2 2 2 2 2 2 2
left_child=7 2 -2 4 6 -6 -3 -1 -9 -10
right_child=1 3 -4 -5 5 -7 -8 8 9 -11
leaf_value=-0.06553949082703385 -0.039937785794453284 0.045206776660385389 0.063117806036262644 0.097558993507642355 0.063759137097870108 -0.019486793279166761 0.094321960746859154 -0.064905684727599042 -0.064911035656223845 -0.064914530382320854
leaf_weight=3.5991521924734142 8.2181785702705383 6.83720031380654 8.395820826292038 14.510528430342672 7.9061314910650253 6.1499329805374128 10.83155609667301 3.5382331013679496 3.5389199852943403 5.8399580419063568
leaf_count=20 34 19 20 29 20 22 23 20 20 33
internal_value=0.0284503 0.0530209 0.012141 0.0677105 0.0540582 0.0273366 0.0753161 -0.0650481 -0.0649111 -0.0649132
internal_weight=79.3656 62.8493 16.614 46.2353 31.7248 14.0561 17.6688 16.5163 12.9171 9.37888
internal_count=260 167 54 113 84 42 42 93 73 53
is_linear=0
shrinkage=0.05


Tree=8
num_leaves=10
num_cat=0
split_feature=0 1 4 5 20 45 49 42 34
split_gain=66.6527 18.8063 10.4077 5.96935 3.09101 2.9166 0.000375068 4.94806e-08 9.92579e-09
threshold=1.4991258915575402e-05 457.50000000000006 0.73168384618313731 0.72897524620709719 0.0011161124225376564 0.00083679004172684834 0.0015424602484162533 107.26199999999987 0.01535959395740443
decision_type=2 2 2 2 2 2 2 2 2
left_child=6 -2 -3 -4 -5 -6 -1 -8 -9
right_child=1 2 3 4 5 -7 7 8 -10
leaf_value=-0.064560501091465494 -0.02718053341964994 0.01578792810480684 0.035472682147384277 0.094695783826701505 0.042410299606826594 0.083222733342547373 -0.063967930787454261 -0.063972868097455726 -0.063976284549291967
leaf_weight=3.4748517721891394 6.9491309970617285 10.734556689858435 9.5539320260286313 17.823339402675629 7.8321513831615475 9.9246973842382413 3.4135593026876441 3.414238899946211 5.6342698484659195
leaf_count=20 30 33 27 36 20 21 20 20 33
internal_value=0.0272218 0.0503905 0.060039 0.0705635 0.0799861 0.0652213 -0.0641011 -0.0639731 -0.063975
internal_weight=78.7547 62.8178 55.8687 45.1341 35.5802 17.7568 15.9369 12.4621 9.04851
internal_count=260 167 137 104 77 41 93 73 53
is_linear=0
shrinkage=0.05


Tree=9
num_leaves=10
num_cat=0
split_feature=3 1 1 12 11 17 49 47 58
split_gain=58.1455 17.3594 9.45995 4.65124 5.94503 3.89815 1.5991e-07 2.98837e-08 4.19045e-09
threshold=1.0000000180025095e-35 457.50000000000006 1072.5000000000002 1.0000000180025095e-35 0.023864709583553044 0.056858976768561866 0.0016212192400885835 0.0095756477297602484 -0.0092612961779202224
decision_type=2 2 2 2 2 2 2 2 2
left_child=6 -2 3 4 5 -3 -1 -8 -9
right_child=1 2 -4 -5 -6 -7 7 8 -10
leaf_value=-0.063094870688518545 -0.027032197161457928 0.056082141550389097 0.0062426037909311151 0.088390527881628045 0.07454924594591171 0.0067888271444015548 -0.063104156043390355 -0.063110576724430698 -0.063108142659758865
leaf_weight=3.2893720418214789 7.0439592897891989 8.3781273216009158 8.0996204763650876 14.43943867087364 17.595704793930054 7.6938849091529837 4.4424938857555372 3.6208468675613394 3.4558878242969522
leaf_count=20 31 20 28 29 39 23 27 22 21
internal_value=0.0260803 0.0469607 0.0562337 0.0646505 0.0544689 0.0324848 -0.0631046 -0.0631074 -0.0631094
internal_weight=78.0593 63.2507 56.2068 48.1072 33.6677 16.072 14.8086 11.5192 7.07673
internal_count=260 170 139 111 82 43 90 70 43
is_linear=0
shrinkage=0.05


Tree=10
num_leaves=12
num_cat=0
split_feature=0 10 35 4 66 24 0 24 42 47 61
split_gain=55.4442 20.6354 17.0231 9.72096 5.74088 5.01251 0.731289 0.000522441 1.24698e-07 1.97008e-08 4.49321e-09
threshold=1.4991258915575402e-05 1.0000000180025095e-35 1.0000000180025095e-35 0.8389300509641443 0.00035272227664928662 0.6877415466074589 0.0015202490490339173 0.23875097612100174 98.280000000000015 0.0080935085239916185 0.0099179841961303718
decision_type=2 2 2 2 2 2 2 2 2 2 2
left_child=7 2 5 -4 -3 -2 -6 -1 -9 -10 -11
right_child=1 4 3 -5 6 -7 -8 8 9 10 -12
leaf_value=-0.06301215967152686 -0.072586268517675023 0.038760337738485792 -0.0040681927753065368 0.07406973743072949 0.074160312292088595 -0.00083517951660848615 0.092930659416090716 -0.062295134796064272 -0.062302971865418499 -0.062306468503739103 -0.062309130548814345
leaf_weight=3.2483619749546078 5.7082636356353778 10.110728949308397 6.9020025134086636 9.4032445102930051 9.3217422217130679 4.2436718195676804 11.704271435737608 3.4851191192865363 3.169512212276457 3.170057401061058 3.1704727858304977
leaf_count=20 27 26 23 22 20 17 23 22 20 20 20
internal_value=0.0191083 0.0421894 0.00954144 0.040994 0.069721 -0.0419904 0.084609 -0.062445 -0.0623032 -0.0623062 -0.0623078
internal_weight=73.6374 57.3939 26.2572 16.3052 31.1367 9.95194 21.026 16.2435 12.9952 9.51004 6.34053
internal_count=260 158 89 45 69 44 43 102 82 60 40
is_linear=0
shrinkage=0.05


Tree=11
num_leaves=11
num_cat=0
split_feature=0 10 35 4 66 27 0 49 42 45
split_gain=51.1052 18.7791 15.4763 8.76944 5.33728 4.74865 0.66556 0.000434741 5.74216e-08 8.29358e-09
threshold=1.4991258915575402e-05 1.0000000180025095e-35 1.0000000180025095e-35 0.8389300509641443 0.00035272227664928662 0.0014326164664502452 0.0015202490490339173 0.0014420405147203448 104.78100000000047 0.00096803548314774882
decision_type=2 2 2 2 2 2 2 2 2 2
left_child=7 2 5 -4 -3 -2 -6 -1 -9 -10
right_child=1 4 3 -5 6 -7 -8 8 9 -11
leaf_value=-0.062219698277397456 -0.071028699838124168 0.036875330937746413 -0.0038665881066148027 0.070356436977825731 0.071156211190451554 -0.00074639272331210478 0.089149493552011155 -0.061555029210973805 -0.061563992384934679 -0.061560955008454814
leaf_weight=3.1278231590986243 5.5487278848886508 10.096535265445711 6.8988638371229198 9.4044227153062803 9.2317674458026904 4.2397471070289612 11.593340694904326 3.3545675575733176 5.1868432611227018 3.9657589942216873
leaf_count=20 27 26 23 22 20 17 23 22 34 26
internal_value=0.0183885 0.0403494 0.00911028 0.0389484 0.066709 -0.0405869 0.0811731 -0.0616925 -0.0615606 -0.0615627
internal_weight=72.6484 57.0134 26.0918 16.3033 30.9216 9.78847 20.8251 15.635 12.5072 9.1526
internal_count=260 158 89 45 69 44 43 102 82 60
is_linear=0
shrinkage=0.05


Tree=12
num_leaves=10
num_cat=0
split_feature=3 1 1 27 18 11 49 42 45
split_gain=44.9971 15.3166 17.0552 8.56996 5.1066 5.12291 2.0958e-07 3.67174e-08 6.20331e-09
threshold=1.0000000180025095e-35 1162.5000000000002 502.50000000000006 0.0017902360600642239 11.500000000000002 0.024762039387090793 0.0015838631760588522 107.26199999999987 0.00096803548314774882
decision_type=2 2 2 2 2 2 2 2 2
left_child=6 2 3 -2 5 -4 -1 -8 -9
right_child=1 -3 4 -5 -6 -7 7 8 -10
leaf_value=-0.060855895546144151 -0.053773972668753639 -0.032004961698753186 0.028454549420936965 0.039441157192897792 0.087717257049143543 0.071815044825806848 -0.060866073484691252 -0.060873601961685064 -0.060870838192807322
leaf_weight=3.0778645277023307 5.4112792015075666 6.9215741455554953 13.988823547959329 4.5298118591308594 12.933793395757673 13.277365475893019 3.2263735979795447 4.5482789278030378 3.6673677712678909
leaf_count=21 26 28 38 14 26 29 22 31 25
internal_value=0.0177199 0.0377169 0.0473415 -0.0112991 0.0618427 0.0495691 -0.0608675 -0.0608706 -0.0608724
internal_weight=71.5825 57.0626 50.1411 9.94109 40.2 27.2662 14.5199 11.442 8.21565
internal_count=260 161 133 40 93 67 99 78 56
is_linear=0
shrinkage=0.05


Tree=13
num_leaves=10
num_cat=0
split_feature=3 10 1 1 16 27 57 53 55
split_gain=41.5993 16.2267 14.8153 13.299 5.60311 0.604034 1.73904e-07 3.16935e-08 8.56473e-09
threshold=1.0000000180025095e-35 1.0000000180025095e-35 442.50000000000006 1162.5000000000002 0.00035272227664928662 0.0015200715403108961 0.0014538010518960068 97.625000000000412 0.010563084865916754
decision_type=2 2 2 2 2 2 2 2 2
left_child=6 2 -2 -4 -3 -6 -1 -8 -9
right_child=1 4 3 -5 5 -7 7 8 -10
leaf_value=-0.060214632854142448 -0.067344396505534809 0.030654933560240641 0.054429703889380898 -0.030726915139795731 0.066412679443100753 0.083764624626873813 -0.060224104692469672 -0.060227912104379791 -0.060231316476096752
leaf_weight=2.817205384373664 5.3108413219451931 10.197135463356974 13.86123436689377 6.8508267849683753 9.0074443221092242 11.316459774971007 2.9598778188228598 2.8196246325969678 5.3584649860858917
leaf_count=20 28 27 35 28 20 23 21 20 38
internal_value=0.0170862 0.036167 0.00715918 0.0262629 0.0608996 0.0760743 -0.0602257 -0.0602285 -0.0602301
internal_weight=70.4991 56.5439 26.0229 20.7121 30.521 20.3239 13.9552 11.138 8.17809
internal_count=260 161 91 63 70 43 99 79 58
is_linear=0
shrinkage=0.05


Tree=14
num_leaves=12
num_cat=0
split_feature=0 10 35 4 16 24 0 24 49 47 24
split_gain=40.621 14.6043 12.1636 7.78262 4.82502 4.54334 0.570675 0.000898089 1.35629e-07 1.13764e-08 2.01955e-09
threshold=1.4991258915575402e-05 1.0000000180025095e-35 1.0000000180025095e-35 0.8389300509641443 0.00035272227664928662 0.6877415466074589 0.0015202490490339173 0.23875097612100174 0.0016081793889105057 0.0079357579116431775 0.53728684405637661
decision_type=2 2 2 2 2 2 2 2 2 2 2
left_child=7 2 5 -4 -3 -2 -6 -1 -9 -10 -11
right_child=1 4 3 -5 6 -7 -8 8 9 10 -12
leaf_value=-0.060628029683471835 -0.068532976017653388 0.030960246208459847 -0.0062798909207448118 0.064125834087168085 0.064067535159263417 0.0017035116237339436 0.081072226859794636 -0.059619310096996392 -0.059629609563627617 -0.059634428853708191 -0.059632521291475983
leaf_weight=2.8214859813451758 5.221452474594118 9.9855459779500979 6.8274778127670315 9.2332501560449582 8.8736928254365939 4.1185706257820129 11.112781375646589 2.7062619924545279 2.8436361849307996 2.8445993959903717 2.7087789177894592
leaf_count=20 27 26 23 22 20 17 23 20 21 21 20
internal_value=0.0165065 0.0357034 0.00781034 0.0341961 0.0593423 -0.0375615 0.0735224 -0.0598315 -0.059629 -0.0596322 -0.0596335
internal_weight=69.2975 55.3728 25.4008 16.0607 29.972 9.34002 19.9865 13.9248 11.1033 8.39701 5.55338
internal_count=260 158 89 45 69 44 43 102 82 62 41
is_linear=0
shrinkage=0.05


Tree=15
num_leaves=11
num_cat=0
split_feature=0 4 13 37 7 70 49 18 0 49
split_gain=40.9441 12.0841 8.75141 8.49774 5.59475 5.18139 2.12813 0.000174364 1.42347e-07 2.33206e-08
threshold=1.4991258915575402e-05 0.80702983956818131 0.013550290385012065 -0.019236172119011043 4.5000000000000009 0.31250000000000006 0.0016212192400885835 2.5000000000000004 -0.00055834678092231405 0.0021404446096150672
decision_type=2 2 2 2 2 2 2 2 2 2
left_child=7 2 3 -2 6 -6 -3 -1 9 -9
right_child=1 4 -4 -5 5 -7 -8 8 -10 -11
leaf_value=-0.059527269149109767 0.021968964165665929 0.051908701961557661 0.065316784519734813 -0.050642254905289688 0.066824321717320501 0.0077175464263313613 0.085094198105738428 -0.059069304119175436 -0.059059022263902444 -0.059075207968674104
leaf_weight=2.6569334417581549 10.877447694540027 7.0221277177333858 5.9645007401704779 6.4002069234848031 6.938926622271536 7.9624274075031281 15.482959508895872 2.8591889292001715 2.5972187221050254 4.0306744426488876
leaf_count=20 34 17 15 26 16 27 34 22 20 31
internal_value=0.0246321 0.0414121 0.0130981 -0.0049286 0.0590048 0.0352411 0.0747395 -0.0591693 -0.059069 -0.0590728
internal_weight=72.7926 60.6486 23.2422 17.2777 37.4064 14.9014 22.5051 12.144 9.48708 6.88986
internal_count=262 169 75 60 94 43 51 93 73 53
is_linear=0
shrinkage=0.05


Tree=16
num_leaves=10
num_cat=0
split_feature=22 1 1 4 39 31 27 57 5
split_gain=36.4497 11.6549 9.41489 3.10298 1.33948 0.38618 9.91463e-08 3.06147e-08 6.75932e-09
threshold=1.0000000180025095e-35 1117.5000000000002 457.50000000000006 0.77403554970372657 -0.002299073119190022 62.500000000000007 0.00055195820365075128 0.0018329140285052896 0.80042243851129713
decision_type=2 2 2 2 2 2 2 2 2
left_child=6 2 -2 -4 5 -5 -1 -8 -9
right_child=1 -3 3 4 -6 -7 7 8 -10
leaf_value=-0.05853949861836908 -0.0034227705851679448 -0.021652876796520434 0.035775798467823673 0.06426507952298581 0.051115138954955813 0.078306024709402011 -0.058546092358861657 -0.058553992525116366 -0.058550680767138485
leaf_weight=2.4919196963310233 7.8865802586078635 6.9827527701854697 13.651376500725744 8.6555547267198509 12.090977936983114 11.27770811319351 2.4932828247547132 3.7423727661371231 2.618942566215992
leaf_count=20 36 27 35 20 29 24 20 30 21
internal_value=0.0236923 0.0391047 0.0470255 0.0557362 0.0642449 0.0722091 -0.0585483 -0.0585508 -0.0585526
internal_weight=71.8915 60.545 53.5622 45.6756 32.0242 19.9333 11.3465 8.8546 6.36132
internal_count=262 171 144 108 73 44 91 71 51
is_linear=0
shrinkage=0.05


Tree=17
num_leaves=11
num_cat=0
split_feature=3 2 52 4 37 14 55 42 11 18
split_gain=33.6988 10.6715 6.8535 7.06268 5.85033 4.54668 0.574538 9.25357e-08 1.61034e-08 9.84081e-09
threshold=1.0000000180025095e-35 18.500000000000004 0.0060286302847392748 0.80702983956818131 -0.019717580068068761 0.0019672283427138713 0.013168269837337959 75.290000000000262 0.016096042419418893 4.5000000000000009
decision_type=2 2 2 2 2 2 2 2 2 2
left_child=7 2 3 4 -2 6 -5 -1 -9 -10
right_child=1 -3 -4 5 -6 -7 -8 8 9 -11
leaf_value=-0.058054257212884965 0.032237024201209781 -0.020694197305518851 0.083708219771789494 0.058382448635849786 -0.032780954412040382 0.027748104650526573 0.077068257074425661 -0.058061422049549699 -0.058064235017425081 -0.058068374982866912
leaf_weight=2.7482418194413176 9.7933848202228528 6.9419855326414099 9.4996782243251783 7.6345795243978563 5.3498059809207907 11.717010721564291 8.9201453626155836 2.3913112953305227 2.8702971488237381 2.8713621869683266
leaf_count=23 29 27 20 20 20 35 20 20 24 24
internal_value=0.0228789 0.037593 0.0452399 0.0368225 0.00926739 0.0515819 0.0684509 -0.0580622 -0.0580649 -0.0580663
internal_weight=70.7378 59.8566 52.9146 43.4149 15.1432 28.2717 16.5547 10.8812 8.13297 5.74166
internal_count=262 171 144 124 49 75 40 91 68 48
is_linear=0
shrinkage=0.05


Tree=18
num_leaves=11
num_cat=0
split_feature=0 5 8 35 21 23 57 0 57 5
split_gain=32.3968 11.3827 8.12797 6.91688 3.44034 3.24359 4.68732 0.000433233 2.05176e-08 7.17431e-09
threshold=1.4991258915575402e-05 0.63087488692628091 0.14583333333333334 1.0000000180025095e-35 0.0098205790114036743 15.500000000000002 0.0020886576318548387 -0.00053271789773351441 0.0018329140285052896 0.80042243851129713
decision_type=2 2 2 2 2 2 2 2 2 2
left_child=7 -2 5 4 -4 -3 -7 8 -1 -10
right_child=1 2 3 -5 -6 6 -8 -9 9 -11
leaf_value=-0.057605451175367861 -0.030733803818149098 0.082819321249895564 0.015793750415104835 0.048066691184424803 -0.040757061735372954 0.067081876802510126 0.015945693759052856 -0.058387459934437426 -0.057612410072818865 -0.057608943625982525
leaf_weight=2.4065057635307294 5.6720284521579734 10.788576036691667 6.7639570832252502 11.856339290738106 4.4646824300289154 12.418735623359682 7.0114506334066382 2.2669605016708365 3.440181240439415 2.6365875005722046
leaf_count=21 22 24 21 30 20 30 22 19 30 23
internal_value=0.0220539 0.036605 0.0437705 0.0214319 -0.00669174 0.0608356 0.0486292 -0.0577734 -0.0576094 -0.0576109
internal_weight=69.726 58.9758 53.3037 23.085 11.2286 30.2188 19.4302 10.7502 8.48327 6.07677
internal_count=262 169 147 71 41 76 52 93 74 53
is_linear=0
shrinkage=0.05


Tree=19
num_leaves=11
num_cat=0
split_feature=3 4 8 7 14 13 42 27 15 5
split_gain=28.7806 9.8021 9.60647 5.45301 5.29316 2.5669 1.47287 1.36176e-07 1.58278e-08 3.71433e-09
threshold=1.0000000180025095e-35 0.80702983956818131 0.22916666666666671 4.5000000000000009 0.0018102944240198217 0.0082724428080692448 131.54000000000033 0.00055195820365075128 0.0016084949157203813 0.79011014895048615
decision_type=2 2 2 2 2 2 2 2 2 2
left_child=7 2 5 6 -5 -2 -3 -1 -9 -10
right_child=1 3 -4 4 -6 -7 -8 8 9 -11
leaf_value=-0.05716949249129432 0.011131588073963824 0.050516450305167562 -0.032959113453698244 0.053150971743515497 -0.0079882919425433938 0.053651448026248993 0.077422312589173925 -0.057179995949643805 -0.057186037984683892 -0.057183401069436285
leaf_weight=2.1936097294092161 6.5785665810108203 8.3288151174783724 8.5393592119216901 8.3491874486207944 6.1460344642400733 7.708789736032486 13.065431773662565 2.1960172727704048 3.405972458422184 2.1967974603176117
leaf_count=20 20 22 35 22 22 20 30 20 31 20
internal_value=0.0212632 0.0346129 0.00899682 0.0509054 0.0272277 0.0340733 0.0669478 -0.0571805 -0.0571836 -0.057185
internal_weight=68.7086 58.7162 22.8267 35.8895 14.4952 14.2874 21.3942 9.9924 7.79879 5.60277
internal_count=262 171 75 96 44 40 52 91 71 51
is_linear=0
shrinkage=0.05


Tree=20
num_leaves=10
num_cat=0
split_feature=0 4 7 50 19 4 0 15 45
split_gain=23.701 8.51689 5.04069 5.82445 5.02623 1.91338 0.00209221 1.08505e-08 5.31209e-09
threshold=1.4991258915575402e-05 0.73988222027316308 6.5000000000000009 1.0000000180025095e-35 -0.011761762223213621 0.84965753424658541 -0.00047471416901151414 0.0016084949157203813 0.00087809151419171862
decision_type=2 2 2 2 2 2 2 2 2
left_child=6 -2 4 -4 -3 -6 7 -1 -9
right_child=1 2 3 -5 5 -7 -8 8 -10
leaf_value=-0.05678173014926241 -0.010570371842762835 0.0090751358697134434 0.051183686234610587 -0.013543904900089904 0.04395807080679652 0.071681934112346385 -0.058589871285624144 -0.056787691172537513 -0.056784413017267291
leaf_weight=2.1034058853983879 10.665299043059347 6.0101586580276445 6.0992482602596274 8.0792060196399671 10.81726774573327 14.654924899339674 2.0785191804170591 2.4205355048179626 2.5248470604419708
leaf_count=20 39 19 17 29 28 35 18 23 24
internal_value=0.0175471 0.0296588 0.0390554 0.0143004 0.0502041 0.0599085 -0.0571958 -0.0567847 -0.056786
internal_weight=65.4534 56.3261 45.6608 14.1785 31.4824 25.4722 9.12731 7.04879 4.94538
internal_count=252 167 128 46 82 63 85 67 47
is_linear=0
shrinkage=0.05


Tree=21
num_leaves=10
num_cat=0
split_feature=3 7 6 59 5 18 30 3 24
split_gain=21.282 12.9725 4.96683 5.17858 4.16219 3.15362 3.36458 0.929889 5.01018e-08
threshold=1.5000000000000002 2.5000000000000004 0.00038798425079769329 0.9715966636877984 0.68722329491155587 11.500000000000002 0.040527297922482657 1.0000000180025095e-35 0.38633353161228018
decision_type=2 2 2 2 2 2 2 2 2
left_child=1 -1 3 -3 -2 6 -6 8 -4
right_child=4 2 7 -5 5 -7 -8 -9 -10
leaf_value=0.029721512331654338 0.0052142769766937939 -0.054800615083490635 -0.056401473410377316 0.023407115020055561 0.058659654834597202 0.066472888107578634 0.014993916450137826 -0.089772603164123804 -0.056411655982169177
leaf_weight=9.3210315331816691 6.7964172512292853 4.3239092752337474 2.1129402443766576 4.1464555859565735 7.9830214828252855 13.627285525202749 9.8606741130352003 3.6207933723926544 2.8207230493426323
leaf_count=35 23 28 21 15 21 34 30 17 28
internal_value=0.0168883 -0.0176955 -0.0436562 -0.016516 0.0406982 0.0483613 0.0345294 -0.0705296 -0.0564073
internal_weight=64.6133 26.3459 17.0248 8.47036 38.2674 31.471 17.8437 8.55446 4.93366
internal_count=252 144 109 43 108 85 51 66 49
is_linear=0
shrinkage=0.05


Tree=22
num_leaves=10
num_cat=0
split_feature=0 5 12 4 7 46 0 7 6
split_gain=20.7879 8.48754 5.45062 8.46693 7.73623 3.34944 0.00184622 3.14674e-05 2.83373e-06
threshold=1.4991258915575402e-05 0.68722329491155587 1.0000000180025095e-35 0.80702983956818131 4.5000000000000009 -0.022350633041340603 -0.00047471416901151414 7.5000000000000009 0.00067199086282430833
decision_type=2 2 2 2 2 2 2 2 2
left_child=6 -2 3 5 -5 -3 7 -1 -9
right_child=1 2 -4 4 -6 -7 -8 8 -10
leaf_value=-0.056326899791793145 -0.014208504568078076 0.014829681820370417 0.065925168786604399 0.07029802490812595 0.010394280171981766 -0.039603891558090097 -0.057931306572078893 -0.056141530053798017 -0.056059677695130074
leaf_weight=2.2899691537022591 10.028548210859297 6.6618421375751495 11.75541330873966 12.551694065332414 9.4455444514751417 4.9081268459558469 1.9461934566497783 1.9472829625010488 2.3138194754719734
leaf_count=23 38 21 29 30 30 19 18 20 24
internal_value=0.0162364 0.0274147 0.0366247 0.0263636 0.0445755 -0.00826173 -0.0565791 -0.0561774 -0.0560971
internal_weight=63.8484 55.3512 45.3226 33.5672 21.9972 11.57 8.49727 6.55107 4.2611
internal_count=252 167 129 100 60 40 85 67 44
is_linear=0
shrinkage=0.05


Tree=23
num_leaves=10
num_cat=0
split_feature=2 0 2 18 16 20 0 48 7
split_gain=19.4283 17.7523 10.2619 8.42039 6.23286 1.99048 0.0687881 0.00111427 1.26492e-05
threshold=6.5000000000000009 1.4991258915575402e-05 18.500000000000004 9.5000000000000018 0.00035272227664928662 0.00083002623255249168 0.00010662337216149621 -0.0091880171848174857 8.5000000000000018
decision_type=2 2 2 2 2 2 2 2 2
left_child=6 7 3 4 -3 -5 -1 8 -2
right_child=1 2 -4 5 -6 -7 -8 -9 -10
leaf_value=-0.056598840214027737 -0.055903876292876166 -0.0088114052903340446 -0.017460783711543401 0.086482947735296911 0.046572718773701359 0.055059416308299448 -0.066985533178587811 -0.057307207545323161 -0.055727481123124256
leaf_weight=2.4819277524948111 2.2638650834560394 9.1381445527076739 7.8246014267206183 7.983105897903445 11.438756898045538 13.667328000068663 4.4558348953723907 1.8329432532191265 1.8442666679620741
leaf_count=25 24 28 30 18 30 35 24 18 20
internal_value=0.015655 0.0254341 0.0351337 0.0448793 0.0219768 0.0666461 -0.0632698 -0.0562821 -0.0558247
internal_weight=62.9308 55.993 50.0519 42.2273 20.5769 21.6504 6.93776 5.94108 4.10813
internal_count=252 203 141 111 58 53 49 62 44
is_linear=0
shrinkage=0.05


Tree=24
num_leaves=10
num_cat=0
split_feature=2 0 2 18 16 20 0 48 7
split_gain=18.0537 16.4317 9.42801 7.86025 5.76233 1.8686 0.0571176 0.000960524 1.07082e-05
threshold=6.5000000000000009 1.4991258915575402e-05 18.500000000000004 9.5000000000000018 0.00035272227664928662 0.00089902387391707411 0.00010662337216149621 -0.0091880171848174857 8.5000000000000018
decision_type=2 2 2 2 2 2 2 2 2
left_child=6 7 3 4 -3 -5 -1 8 -2
right_child=1 2 -4 5 -6 -7 -8 -9 -10
leaf_value=-0.056240261519570983 -0.055582981981687277 -0.0083548674706957187 -0.016661339730563197 0.083225332407132507 0.045090216832123046 0.052776174943175769 -0.065897695525525379 -0.056915321017109145 -0.055417034003876708
leaf_weight=2.3755539432167998 2.165572620928288 9.1551588028669375 7.7909176945686331 8.2141762673854846 11.229482918977736 13.032863110303877 4.3067031353712082 1.7552504688501347 1.763899579644203
leaf_count=25 24 28 30 19 30 34 24 18 20
internal_value=0.0151493 0.0245607 0.0338205 0.0432676 0.0210869 0.0645479 -0.0624645 -0.0559429 -0.0555085
internal_weight=61.7896 55.1073 49.4226 41.6317 20.3846 21.247 6.68226 5.68472 3.92947
internal_count=252 203 141 111 58 53 49 62 44
is_linear=0
shrinkage=0.05


Tree=25
num_leaves=10
num_cat=0
split_feature=3 1 1 24 43 8 7 6 16
split_gain=17.9404 7.4142 6.83391 3.39025 5.07087 2.1818 3.81117e-05 7.65181e-06 6.98351e-08
threshold=1.0000000180025095e-35 1147.5000000000002 457.50000000000006 0.55444546470774358 0.0049789309345941767 0.10416666666666667 4.5000000000000009 0.00038798425079769329 -0.0014147386451647257
decision_type=2 2 2 2 2 2 2 2 2
left_child=6 2 -2 4 -4 -5 -1 -8 -9
right_child=1 -3 3 5 -6 -7 7 8 -10
leaf_value=-0.055412743581903727 -0.013141592886911236 -0.021904953347050563 0.052731193992717189 0.067034771480254357 0.0041707732771851386 0.033676819052849 -0.05523890836264661 -0.055123435647290976 -0.055109958736222854
leaf_weight=1.9364372715353955 6.9201712757349005 7.0334001034498206 9.9623674899339694 13.26981180906296 11.677493333816527 7.7732055336236945 1.8867506086826322 1.770425461232662 2.1031229868531232
leaf_count=22 32 28 27 33 35 21 22 21 25
internal_value=0.016404 0.0261376 0.0329497 0.0404225 0.0265266 0.0547125 -0.0552208 -0.0551563 -0.0551161
internal_weight=64.3332 56.6364 49.603 42.6829 21.6399 21.043 7.69674 5.7603 3.87355
internal_count=266 176 148 116 62 54 90 68 46
is_linear=0
shrinkage=0.05


Tree=26
num_leaves=10
num_cat=0
split_feature=0 5 0 40 12 20 37 7 6
split_gain=17.7028 7.08485 7.04609 8.46405 10.0894 13.3472 0.00132456 2.35856e-05 1.62063e-06
threshold=1.4991258915575402e-05 0.65054114691130394 0.0034042060160962566 4.5000000000000009 1.0000000180025095e-35 0.0010308598122982697 -0.010788655181152044 6.5000000000000009 0.00040418543262602256
decision_type=2 2 2 2 2 2 2 2 2
left_child=6 -2 3 4 5 -3 7 -1 -9
right_child=1 2 -4 -5 -6 -7 -8 8 -10
leaf_value=-0.055080631632939671 -0.016693423146329711 0.018757530775546254 0.068209104127494091 0.053745576314697521 0.059488918275927588 -0.07365021960175297 -0.05654553380335773 -0.054909517739214368 -0.054844967076180987
leaf_weight=2.0065971687436104 8.371143624186514 10.310688786208635 11.025752276182173 13.578255400061606 5.9781701266765586 6.292324721813201 1.63218743354082 1.6272437945008276 2.41605594009161
leaf_count=24 32 34 27 38 16 27 18 20 30
internal_value=0.0158608 0.0256981 0.0332188 0.0225495 0.00379107 -0.0162638 -0.0552815 -0.0549405 -0.0548709
internal_weight=63.2384 55.5563 47.1852 36.1594 22.5812 16.603 7.68208 6.0499 4.0433
internal_count=266 174 142 115 77 61 92 74 50
is_linear=0
shrinkage=0.05


Tree=27
num_leaves=10
num_cat=0
split_feature=2 1 0 18 24 38 49 0 8
split_gain=16.6026 20.1182 9.27768 3.79271 7.69654 3.14692 2.15813 0.0555112 0.000833113
threshold=19.500000000000004 412.50000000000006 5.2583109968473714e-05 10.500000000000002 0.55444546470774358 0.65535113154434044 0.0021610167144107515 0.00010662337216149621 0.18750000000000003
decision_type=2 2 2 2 2 2 2 2 2
left_child=1 7 5 4 -4 8 -5 -1 -3
right_child=-2 2 3 6 -6 -7 -8 -9 -10
leaf_value=-0.054886523182836655 -0.069621573728999853 -0.054683129656475815 -0.0010090470857582667 0.040168991388570302 0.054575944955567834 0.025941909060258186 0.072723342405594013 -0.064805942333534178 -0.056217060259060675
leaf_weight=2.1464964449405661 5.2664795219898215 2.0338768586516376 11.974083766341211 9.8635106533765811 12.976566925644873 1.7783862128853796 10.521605998277662 4.1129580736160278 1.567300423979759
leaf_count=27 33 26 37 28 35 12 26 24 18
internal_value=0.015316 0.0231672 0.0336054 0.0409721 0.0279001 -0.0284769 0.0569716 -0.0614044 -0.0553507
internal_weight=62.2413 56.9748 50.7153 45.3358 24.9507 5.37956 20.3851 6.25945 3.60118
internal_count=266 233 182 126 72 56 54 51 44
is_linear=0
shrinkage=0.05


Tree=28
num_leaves=11
num_cat=0
split_feature=0 1 7 54 16 24 0 37 7 26
split_gain=15.473 6.27624 5.82663 10.907 5.24721 3.63782 3.12142 0.001119 2.2585e-05 3.35738e-06
threshold=1.4991258915575402e-05 1147.5000000000002 4.5000000000000009 0.68750000000000011 0.0015822796411711917 0.55444546470774358 0.0010735161484861646 -0.010788655181152044 6.5000000000000009 0.00024718750423269325
decision_type=2 2 2 2 2 2 2 2 2 2
left_child=7 2 5 4 -4 6 -2 8 -1 -10
right_child=1 -3 3 -5 -6 -7 -8 -9 9 -11
leaf_value=-0.054582249797153461 0.052304507106141443 -0.02068787513412423 -0.048777457274704644 0.052360553892272232 0.018438290131848868 0.066763948067922727 0.0057051243926623842 -0.055968647229599079 -0.054326941815209133 -0.054423410946086971
leaf_weight=1.8412267118692396 7.279554635286333 6.872182846069335 6.9192409738898277 8.9932805150747299 5.0029136538505554 11.796689912676809 7.0972505658864975 1.5256475955247868 2.1256986856460576 1.5666031464934347
leaf_count=24 20 28 31 25 16 31 23 18 29 21
internal_value=0.0148422 0.0239488 0.0304631 0.010788 -0.0205716 0.0461856 0.0293003 -0.0547698 -0.0544392 -0.0543679
internal_weight=61.0203 53.9611 47.0889 20.9154 11.9222 26.1735 14.3768 7.05918 5.53353 3.6923
internal_count=266 174 146 72 47 74 43 92 74 50
is_linear=0
shrinkage=0.05


Tree=29
num_leaves=10
num_cat=0
split_feature=2 1 0 4 1 18 24 0 37
split_gain=14.9048 17.9479 13.2679 6.30544 3.90134 3.88992 7.50741 0.0399629 0.000876388
threshold=19.500000000000004 412.50000000000006 1.4991258915575402e-05 0.67361284761736817 1027.5000000000002 11.500000000000002 0.55444546470774358 0.00036295960530785548 -0.017143864900444106
decision_type=2 2 2 2 2 2 2 2 2
left_child=1 7 8 -4 5 6 -5 -1 -3
right_child=-2 2 3 4 -6 -7 -8 -9 -10
leaf_value=-0.055167909348221557 -0.068126886855071483 -0.054208035068225885 -0.0061639025908480222 -0.011710252577879275 0.078432190760450368 0.059726707575328657 0.053991666031279022 -0.063740868199171893 -0.055732486963793959
leaf_weight=2.1315609887242308 5.0191357657313338 2.5746769905090332 6.4517122358083716 8.0662713497877174 7.9566951096057883 13.108676582574843 9.4316443800926191 3.7523704990744591 1.4874349534511555
leaf_count=28 33 36 20 26 19 36 27 23 18
internal_value=0.0143518 0.0218839 0.0317773 0.0395869 0.0472411 0.0391324 0.0237041 -0.0606352 -0.0547662
internal_weight=59.9802 54.961 49.0771 45.015 38.5633 30.6066 17.4979 5.88393 4.06211
internal_count=266 233 182 128 108 89 53 51 54
is_linear=0
shrinkage=0.05


Tree=30
num_leaves=11
num_cat=0
split_feature=1 1 3 6 0 39 13 59 60 0
split_gain=13.0722 14.7089 7.38183 15.8975 7.99226 5.26424 3.97519 2.77688 1.06006 0.041597
threshold=412.50000000000006 1207.5000000000002 1.5000000000000002 0.0011196745852575217 0.00079317817772139876 -0.0037575963691087442 0.006062911920467995 0.9715966636877984 -0.0025057380608957693 0.00036295960530785548
decision_type=2 2 2 2 2 2 2 2 2 2
left_child=9 2 3 4 7 8 -7 -2 -4 -1
right_child=1 -3 5 -5 -6 6 -8 -9 -10 -11
leaf_value=-0.054478451378984154 -0.067853248076961331 -0.066856874384202084 0.072470685181282551 -0.089636874975029507 0.051569015642591677 0.042830242267514806 -0.011998860157104349 0.013094376639867658 0.046393855116857112 -0.062935723122263032
leaf_weight=2.3066938519477835 2.3380880728364017 4.7591153010725966 8.4860070794820768 3.8729121685028067 9.1954424381256086 7.2285507470369321 6.0916499197483063 1.9373583942651746 7.2072940319776562 3.9327641725540161
leaf_count=32 27 33 21 26 24 22 22 15 21 25
internal_value=0.00851314 0.0168528 0.0254466 -0.000359448 0.025308 0.040873 0.0177556 -0.031173 0.0604947 -0.0598091
internal_weight=57.3559 51.1164 46.3573 17.3438 13.4709 29.0135 13.3202 4.27545 15.6933 6.23946
internal_count=268 211 178 92 66 86 44 42 42 57
is_linear=0
shrinkage=0.05


Tree=31
num_leaves=10
num_cat=0
split_feature=2 2 22 6 0 57 21 7 0
split_gain=12.224 14.4384 6.40429 15.0341 6.68108 3.8202 5.56373 1.72724 0.0349194
threshold=6.5000000000000009 19.500000000000004 1.5000000000000002 0.0011196745852575217 0.00079317817772139876 0.0021786706077882296 0.0095140571598782784 7.5000000000000009 0.00036295960530785548
decision_type=2 2 2 2 2 2 2 2 2
left_child=8 2 3 4 7 6 -4 -2 -1
right_child=1 -3 5 -5 -6 -7 -8 -9 -10
leaf_value=-0.054243726652158757 0.0040960860443865028 -0.065736012652531636 0.047789054526666042 -0.086979936363973942 0.049844367964854079 0.059312437545205113 -0.013280261946465569 -0.062150700768280234 -0.062160461072510914
leaf_weight=2.2034496814012519 2.0192711055278809 4.8425820358097544 9.0443163663148898 3.7936700321733943 9.0418743938207609 13.139825895428656 6.3467891216278067 1.9189869202673433 3.7864301428198814
leaf_count=32 15 35 28 26 24 37 21 25 25
internal_value=0.00826161 0.0163254 0.0250968 0.00057936 0.0261701 0.0395111 0.0226061 -0.0281839 -0.0592482
internal_weight=56.1372 50.1473 45.3047 16.7738 12.9801 28.5309 15.3911 3.93826 5.98988
internal_count=268 211 176 90 64 86 49 40 57
is_linear=0
shrinkage=0.05


Tree=32
num_leaves=10
num_cat=0
split_feature=2 2 3 6 5 39 13 15 0
split_gain=11.4387 13.4222 5.88191 13.8726 7.18547 5.00541 3.74299 1.14498 0.0293571
threshold=6.5000000000000009 19.500000000000004 1.5000000000000002 0.0011196745852575217 0.77776279004328408 -0.0037575963691087442 0.006062911920467995 0.0024110328034389161 0.00036295960530785548
decision_type=2 2 2 2 2 2 2 2 2
left_child=8 2 3 4 -2 7 -7 -4 -1
right_child=1 -3 5 -5 -6 6 -8 -9 -10
leaf_value=-0.054022137347037015 -0.032212422319709978 -0.064816134612821236 0.043306023310207414 -0.084525176207950692 0.049825547359469924 0.040494368356652218 -0.013342005809887775 0.070907288196154189 -0.061439885712673607
leaf_weight=2.1043661162257186 3.8054911643266705 4.6701162196695796 7.1491465866565722 3.7107602991163722 8.9381953477859479 6.9396750181913358 6.0372617989778519 7.9195454716682434 3.6429308578372002
leaf_count=32 29 35 21 26 35 22 22 21 25
internal_value=0.00802175 0.0158234 0.0242862 0.000553876 0.0253276 0.03821 0.0154481 0.0578122 -0.0587239
internal_weight=54.9175 49.1702 44.5001 16.4544 12.7437 28.0456 12.9769 15.0687 5.7473
internal_count=268 211 176 90 64 86 44 42 57
is_linear=0
shrinkage=0.05


Tree=33
num_leaves=10
num_cat=0
split_feature=1 2 3 6 5 39 20 15 0
split_gain=10.7028 12.4726 5.42885 12.7892 6.55784 4.72334 3.43631 1.13539 0.0247147
threshold=412.50000000000006 19.500000000000004 1.5000000000000002 0.0011196745852575217 0.77776279004328408 -0.0037575963691087442 0.0011161124225376564 0.0024110328034389161 0.00036295960530785548
decision_type=2 2 2 2 2 2 2 2 2
left_child=8 2 3 4 -2 7 -7 -4 -1
right_child=1 -3 5 -5 -6 6 -8 -9 -10
leaf_value=-0.053812861836710482 -0.030759520400222486 -0.063958361346837508 0.041816288428205284 -0.082257026872754935 0.047883589564055487 0.037256407775797043 -0.014968748654646214 0.069629154610423877 -0.060769192250615528
leaf_weight=2.0093227848410598 3.7864766083657768 4.500413801521062 7.0365528166294116 3.6246163062751284 8.8382426798343641 7.3339887708425504 5.5207021534442902 7.668054074048996 3.5025355964899063
leaf_count=32 29 35 21 26 35 24 20 21 25
internal_value=0.00777646 0.0153079 0.0234508 0.000528417 0.0242965 0.0369662 0.0148273 0.0563199 -0.0582333
internal_weight=53.8209 48.309 43.8086 16.2493 12.6247 27.5593 12.8547 14.7046 5.51186
internal_count=268 211 176 90 64 86 44 42 57
is_linear=0
shrinkage=0.05


Tree=34
num_leaves=11
num_cat=0
split_feature=1 1 7 15 61 25 45 49 18 0
split_gain=10.0168 8.59348 5.14727 4.08915 4.89888 5.1171 3.98228 3.80693 1.97359 0.020833
threshold=412.50000000000006 1177.5000000000002 12.500000000000002 0.0038558965339006274 0.0016582013520999451 0.00018281448452833209 0.00095623162964194382 0.0016212192400885835 8.5000000000000018 0.00036295960530785548
decision_type=2 2 2 2 2 2 2 2 2 2
left_child=9 2 3 4 -2 7 -7 -6 -9 -1
right_child=1 -3 -4 -5 5 6 -8 8 -10 -11
leaf_value=-0.053615137909842792 0.068441010229015192 -0.046874038821438341 -0.020741208785978595 0.066268713695645534 -0.0064187802225199667 -0.052990801481328786 0.013499710051514036 0.026216676923911244 0.067927118033324144 -0.060144106406774811
leaf_weight=1.9181974083185185 4.7184648215770748 5.047998182475566 6.0092504881322375 6.1794543974101535 5.0793324336409631 4.1828868538141233 4.8781386204063892 6.0945075750350934 5.3043028302490711 3.3654616922140121
leaf_count=32 14 37 34 19 21 21 22 25 18 25
internal_value=0.00753352 0.0147988 0.0221334 0.0292043 0.0216347 0.0129871 -0.0171946 0.0295835 0.0456261 -0.0577738
internal_weight=52.778 47.4943 42.4463 36.4371 30.2576 25.5392 9.06103 16.4781 11.3988 5.28366
internal_count=268 211 174 140 121 107 43 64 43 57
is_linear=0
shrinkage=0.05


Tree=35
num_leaves=9
num_cat=0
split_feature=0 12 11 8 26 71 6 53
split_gain=10.3259 6.49149 7.78049 7.07862 6.28131 0.000842286 0.000154447 6.41828e-05
threshold=1.4991258915575402e-05 1.0000000180025095e-35 0.023058701137066848 0.14583333333333334 -0.00072452472103212695 -0.0067192383404307632 0.0010914059627291288 126.12142857142915
decision_type=2 2 2 2 2 2 2 2
left_child=5 2 4 -4 -2 6 7 -1
right_child=1 -3 3 -5 -6 -7 -8 -9
leaf_value=-0.053782629548358954 0.0045969076898766731 0.051878271964579503 0.058140965961667401 -0.0031122462492799482 -0.063168824591255668 -0.054879897660083478 -0.052948508828544918 -0.053324928004728427
leaf_weight=1.7204560339450838 9.3564924746751768 10.625162124633787 9.6819823831319827 9.19694636762142 5.389149881899356 1.1833575926721085 1.4152193330228326 1.380556486546993
leaf_count=27 36 36 29 37 26 18 27 24
internal_value=0.00965121 0.0178102 0.00704489 0.0283012 -0.0201697 -0.0536925 -0.0533813 -0.0535789
internal_weight=49.9493 44.2497 33.6246 18.8789 14.7456 5.69959 4.51623 3.10101
internal_count=260 164 128 66 62 96 78 51
is_linear=0
shrinkage=0.05


Tree=36
num_leaves=9
num_cat=0
split_feature=5 0 4 8 45 13 57 6
split_gain=9.98185 9.94019 5.37607 8.19278 3.64527 5.43016 0.00080566 7.05151e-05
threshold=0.62487689555398285 1.4991258915575402e-05 0.77403554970372657 0.18750000000000003 0.00062198899633529538 0.0046804434295525067 0.0017084734413903946 0.0010914059627291288
decision_type=2 2 2 2 2 2 2 2
left_child=-1 6 3 -3 5 -4 -2 -8
right_child=1 2 4 -5 -6 -7 7 -9
leaf_value=-0.062938559117967641 -0.054535829198735057 0.028686874378473233 0.045881141471851378 -0.051395437214805606 0.057456028052969566 -0.016294805781107109 -0.053303148788618394 -0.052809137103062856
leaf_weight=4.3583750128746024 1.4847302362322796 8.5270559638738614 8.5543896853923815 5.1062119230628005 12.178610667586325 5.9569990932941428 1.9295587539672854 1.1545794047415254
leaf_count=34 23 27 31 25 39 24 34 23
internal_value=0.00930397 0.0163177 0.0242374 -0.0013072 0.0372856 0.0203576 -0.0535789 -0.0531182
internal_weight=49.2505 44.8921 40.3233 13.6333 26.69 14.5114 4.56887 3.08414
internal_count=260 226 146 52 94 55 80 57
is_linear=0
shrinkage=0.05


Tree=37
num_leaves=9
num_cat=0
split_feature=5 2 4 46 45 40 0 0
split_gain=9.21118 9.51349 6.30981 6.83849 2.17314 4.12635 0.838341 0.010172
threshold=0.62487689555398285 6.5000000000000009 0.77403554970372657 -0.022350633041340603 0.00062198899633529538 4.5000000000000009 0.0023646521238485101 0.00055226304488420485
decision_type=2 2 2 2 2 2 2 2
left_child=-1 7 3 -3 5 -4 -6 -2
right_child=1 2 4 -5 6 -7 -8 -9
leaf_value=-0.061249709979298954 -0.05413014253553871 0.024086864516723726 -0.0009736785031963475 -0.046896801604674229 0.040096550139589793 0.054180311182659348 0.066337223344519122 -0.059217781982788376
leaf_weight=4.2572211995720854 1.6626375466585148 8.7181828729808313 7.4308602400124091 5.5548784695565692 6.0754018314182741 6.2380064688622952 6.0996942669153214 2.4015043675899506
leaf_count=34 29 39 32 35 28 25 19 19
internal_value=0.0089909 0.0157592 0.023144 -0.003539 0.0378805 0.0241967 0.0532431 -0.0571364
internal_weight=48.4384 44.1812 40.117 14.2731 25.844 13.6689 12.1751 4.06414
internal_count=260 226 178 74 104 57 47 48
is_linear=0
shrinkage=0.05


Tree=38
num_leaves=10
num_cat=0
split_feature=0 4 46 45 25 24 58 6 10
split_gain=8.77057 6.18783 6.88466 2.71522 4.07104 1.5874 0.000752459 0.000123535 0.000109644
threshold=1.4991258915575402e-05 0.77403554970372657 -0.022350633041340603 0.00062198899633529538 0.00021359598359549261 0.50064074376084067 -0.0046179235269906953 0.0010330811033918267 1.0000000180025095e-35
decision_type=2 2 2 2 2 2 2 2 2
left_child=6 2 -2 4 -3 -5 7 8 -1
right_child=1 3 -4 5 -6 -7 -8 -9 -10
leaf_value=-0.052884897226284068 0.018937123591239152 0.037311430724821827 -0.049271021738482676 0.029278742581054937 -0.015541651068269241 0.06536621330924966 -0.054434085321096781 -0.052583918827058485 -0.053536626344519181
leaf_weight=1.4611753411591057 8.8853095397353155 9.1157771348953265 6.3388634696602812 5.917028993368147 6.0690656453371039 6.2831396460533142 1.1314381174743164 1.3504258431494234 1.1558181643486023
leaf_count=29 30 33 32 23 26 20 19 29 19
internal_value=0.00867643 0.0160925 -0.00946259 0.0302993 0.0161872 0.0478639 -0.0532967 -0.0529723 -0.0531727
internal_weight=47.708 42.6092 15.2242 27.385 15.1848 12.2002 5.09886 3.96742 2.61699
internal_count=260 164 62 102 59 43 96 77 48
is_linear=0
shrinkage=0.05


Tree=39
num_leaves=10
num_cat=0
split_feature=22 24 6 47 12 11 14 0 0
split_gain=8.50537 9.25869 5.4766 5.21624 3.25489 5.73722 1.03644 0.766663 0.0698615
threshold=1.5000000000000002 0.83474820188653587 8.8959536193642533e-05 0.0035678482440783909 1.0000000180025095e-35 0.023058701137066848 0.0056295869467235084 0.00090144309244943887 0.00033242102508845855
decision_type=2 2 2 2 2 2 2 2 2
left_child=1 2 -1 -4 5 -2 7 8 -5
right_child=4 -3 3 6 -6 -7 -8 -9 -10
leaf_value=0.033541647936563605 -0.020850398595042799 0.046415525962908807 0.016276260903472648 -0.052850269557500357 0.048993905564028675 0.036619301321924966 -0.042539857986289432 -0.092824117793457561 -0.068085608017404334
leaf_weight=2.3565944768488434 7.3070945218205479 4.3892309181392184 2.416451394557952 1.8929752558469757 9.900099806487562 10.704803764820097 3.2687410116195679 3.5468691661953926 1.2488517090678213
leaf_count=13 31 21 20 38 37 37 37 17 9
internal_value=0.0083653 -0.0173254 -0.0363182 -0.049623 0.0259634 0.0133049 -0.0656153 -0.0768921 -0.0589062
internal_weight=47.0317 19.1197 14.7305 12.3739 27.912 18.0119 9.95744 6.6887 3.14183
internal_count=260 155 134 121 105 68 101 64 47
is_linear=0
shrinkage=0.05


Tree=40
num_leaves=10
num_cat=0
split_feature=1 2 8 0 30 17 31 0 0
split_gain=8.96922 11.3004 4.47414 3.53777 3.0333 1.51395 0.16653 0.0229999 0.00706963
threshold=442.50000000000006 19.500000000000004 0.43750000000000006 0.0016660834889751233 0.04376505508263194 0.1628027988131566 75.500000000000014 0.0015202490490339173 0.00010662337216149621
decision_type=2 2 2 2 2 2 2 2 2
left_child=7 2 4 -4 -2 6 -6 8 -1
right_child=1 -3 3 -5 5 -7 -8 -9 -10
leaf_value=-0.0529234922080596 0.011744119021390997 -0.063826033293161041 -0.036012420416597739 0.025211683809172093 0.067058807791641181 0.027183668284907675 0.054167101819932464 -0.062485904578832199 -0.057869277196076131
leaf_weight=1.4370484203100198 8.5556369572877902 4.1090078838169566 4.670116223394869 4.7690249085426331 4.7762541957199556 5.2589689120650283 5.2678953446447849 1.9057944342494009 1.4532291963696478
leaf_count=30 39 34 33 16 16 24 24 13 13
internal_value=0.00615189 0.0144055 0.0240594 -0.0050796 0.0355875 0.0489178 0.0602974 -0.0582219 -0.0554102
internal_weight=42.203 37.4069 33.2979 9.43914 23.8588 15.3031 10.0441 4.79607 2.89028
internal_count=242 186 152 49 103 64 40 56 43
is_linear=0
shrinkage=0.05


Tree=41
num_leaves=10
num_cat=0
split_feature=1 2 12 0 17 36 21 0 0
split_gain=8.39546 10.4922 4.3036 5.18454 7.80631 4.62276 5.79326 0.0204975 0.00708525
threshold=442.50000000000006 19.500000000000004 1.0000000180025095e-35 0.0019211701239868486 0.0022653095480005005 0.0032759954784908779 0.011871141130507017 0.0017657831197228637 0.00010662337216149621
decision_type=2 2 2 2 2 2 2 2 2
left_child=7 2 3 4 -2 -6 -7 8 -1
right_child=1 -3 -4 -5 5 6 -8 -9 -10
leaf_value=-0.052774958168333178 0.043757024967885333 -0.063058121033816777 0.054351819259317216 0.043667682415121367 -0.093188195137427862 0.040897515722072099 -0.04566002579371381 -0.062604729887137597 -0.057580281118183932
leaf_weight=1.3707128353416913 5.5226554274559048 3.9549976103007785 8.2673546113073808 8.7164236009120923 2.2527323998510829 3.1467025317251665 5.0122218355536461 1.4842717200517652 1.7419512718915937
leaf_count=30 20 34 33 29 19 15 36 10 16
internal_value=0.00594584 0.0138892 0.0231342 0.0126644 -0.00429507 -0.0297833 -0.0122768 -0.0577697 -0.0554642
internal_weight=41.47 36.8731 32.9181 24.6507 15.9343 10.4117 8.15892 4.59694 3.11266
internal_count=242 186 152 119 90 70 51 56 46
is_linear=0
shrinkage=0.05


Tree=42
num_leaves=10
num_cat=0
split_feature=1 7 1 45 23 0 13 0 0
split_gain=7.87717 7.97913 5.3981 3.52147 5.05509 1.97548 1.94624 0.0172974 0.00600951
threshold=442.50000000000006 12.500000000000002 1162.5000000000002 0.00038101686946558332 46.500000000000007 0.0015202490490339173 0.0042922292713980957 0.0017657831197228637 0.00010662337216149621
decision_type=2 2 2 2 2 2 2 2 2
left_child=7 2 3 4 -2 6 -5 8 -1
right_child=1 -3 -4 5 -6 -7 -8 -9 -10
leaf_value=-0.052634270926357446 -0.038086319423297051 -0.049697055558234643 -0.02959956009789751 0.0513386819621518 0.039649775585523038 0.05597637859632535 0.0012580311713112401 -0.061866616477936821 -0.057161430556006511
leaf_weight=1.3072594925761216 3.9090503044426494 4.3894427157938471 4.3367286771535865 3.4567233249545124 4.4974707998335361 11.091825798153875 4.4212555326521397 1.4282991364598272 1.6688290908932684
leaf_count=30 21 39 29 15 19 36 27 10 16
internal_value=0.00578364 0.013485 0.0222301 0.0304405 0.00350233 0.0423782 0.0232326 -0.0573436 -0.0551729
internal_weight=40.5069 36.1025 31.7131 27.3763 8.40652 18.9698 7.87798 4.40439 2.97609
internal_count=242 186 147 118 40 78 42 56 46
is_linear=0
shrinkage=0.05


Tree=43
num_leaves=11
num_cat=0
split_feature=2 1 8 17 11 23 42 30 0 0
split_gain=7.50382 9.24063 4.00022 3.35084 2.97412 2.95672 3.91429 4.31328 0.0146145 0.00510115
threshold=19.500000000000004 442.50000000000006 0.60416666666666685 0.096475092966440065 0.0085180914044317227 41.500000000000007 260.24100000000004 0.059616754704691723 0.0017657831197228637 0.00010662337216149621
decision_type=2 2 2 2 2 2 2 2 2 2
left_child=1 8 4 -4 -3 6 7 -6 9 -1
right_child=-2 2 3 -5 5 -7 -8 -9 -10 -11
leaf_value=-0.052500983521882587 -0.061961110933264611 -0.01212215803804575 -0.048367007409957252 0.020848696950119892 -0.037449911282494371 0.065264815221104139 0.058920406103046233 0.033079574689757425 -0.061178764157991006 -0.056768306130500115
leaf_weight=1.2465809099376195 3.7239671386778346 3.4079951271414819 3.2819584608077994 3.7425463944673538 3.5757724754512328 6.8454318828880778 5.4463163167238227 5.5050746202468872 1.3735273480415342 1.5981538146734235
leaf_count=30 34 19 20 20 22 25 22 24 10 16
internal_value=0.00560771 0.0125927 0.0218152 -0.01149 0.0312562 0.0381731 0.025407 0.00530712 -0.0569433 -0.0548983
internal_weight=39.7473 36.0234 31.8051 7.0245 24.7806 21.3726 14.5272 9.08085 4.21826 2.84473
internal_count=242 208 152 40 112 93 68 46 56 46
is_linear=0
shrinkage=0.05


Tree=44
num_leaves=10
num_cat=0
split_feature=2 1 12 49 21 15 3 0 0
split_gain=7.0234 8.6206 4.04876 4.58916 6.70257 5.96673 1.40163 0.0123616 0.00433332
threshold=19.500000000000004 442.50000000000006 1.0000000180025095e-35 0.0025422402892205042 0.0092836477059233553 0.0021129448899381369 1.5000000000000002 0.0017657831197228637 0.00010662337216149621
decision_type=2 2 2 2 2 2 2 2 2
left_child=1 7 3 4 -3 -6 -5 8 -1
right_child=-2 2 -4 6 5 -7 -8 -9 -10
leaf_value=-0.052374680887897346 -0.061308733898597534 0.024659602250348592 0.052432422196789133 0.018646668134412094 -0.095785148674931139 -0.0014822378116928466 0.058908697698890733 -0.060536942128084296 -0.056399051949051517
leaf_weight=1.1885717734694474 3.5790835190564385 8.1242119893431717 7.7389137446880332 4.1318130828440172 2.971929356455802 3.8507029563188553 4.5333260744810104 1.320039667189121 1.5299117937684057
leaf_count=30 34 34 33 27 21 22 15 10 16
internal_value=0.00543915 0.0121896 0.0210467 0.0107599 -0.00602365 -0.0425605 0.0397105 -0.0565672 -0.0546395
internal_weight=38.9685 35.3894 31.3509 23.612 14.9468 6.82263 8.66514 4.03852 2.71848
internal_count=242 208 152 119 77 43 42 56 46
is_linear=0
shrinkage=0.05


Tree=45
num_leaves=11
num_cat=0
split_feature=0 11 20 19 19 50 19 10 11 28
split_gain=7.09837 3.41137 4.2812 4.22917 3.80454 1.37704 0.99579 0.000355974 8.98503e-05 9.0946e-06
threshold=1.4991258915575402e-05 0.023058701137066848 0.0029044581162614973 -0.011761762223213621 0.01799159321959665 -1.0000000180025095e-35 1.0000000180025095e-35 1.0000000180025095e-35 0.017191795340013704 0.0021692332212336356
decision_type=2 2 2 2 2 2 2 2 2 2
left_child=7 2 3 -2 5 -3 -5 8 -1 -10
right_child=1 4 -4 6 -6 -7 -8 -9 9 -11
leaf_value=-0.052615102304324882 -0.022596994676546647 0.067019750071951822 -0.039918293058523541 0.018448589611776516 0.0019294239472193359 0.034026196692277251 0.049414500311670967 -0.053192990987805402 -0.05186009647487827 -0.05210826239851131
leaf_weight=0.92698327824473326 4.983333744108676 5.4510289952158937 4.5540836825966826 5.3673381656408328 6.8986934423446646 7.5326874665915975 5.0285464972257614 1.5927504375576975 0.72118660621345021 0.7563753928989172
leaf_count=21 23 18 21 23 33 28 17 30 21 20
internal_value=0.010904 0.0172808 0.00266405 0.0152735 0.0319351 0.0478781 0.033427 -0.0526132 -0.0522292 -0.0519871
internal_weight=43.813 39.8157 19.9333 15.3792 19.8824 12.9837 10.3959 3.9973 2.40455 1.47756
internal_count=255 163 84 63 79 46 40 92 62 41
is_linear=0
shrinkage=0.05


Tree=46
num_leaves=10
num_cat=0
split_feature=0 11 20 37 15 50 10 11 5
split_gain=6.63163 3.14085 3.85579 4.07578 3.37709 1.43004 0.000304679 7.69949e-05 8.68704e-06
threshold=1.4991258915575402e-05 0.023058701137066848 0.0029044581162614973 -0.02812085603577397 0.0016762594771698358 0.18750000000000003 1.0000000180025095e-35 0.017191795340013704 0.8087752373894449
decision_type=2 2 2 2 2 2 2 2 2
left_child=6 2 3 -2 -3 -6 7 -1 -9
right_child=1 4 -4 -5 5 -7 -8 8 -10
leaf_value=-0.052481970417829461 -0.015600044068624648 -0.0020184917323710231 -0.037633614879478736 0.036741228058926406 0.063070510138954539 0.030585541244749867 -0.053029203038637611 -0.052007755189198625 -0.051759301993106334
leaf_weight=0.88395408168435041 6.4362717270851126 5.6080242320895222 4.5881209075450888 8.8107535913586634 5.7397828400135031 8.2678520381450635 1.5196323432028296 0.72155263274908044 0.68660200759768486
leaf_count=21 29 25 21 34 20 34 30 20 21
internal_value=0.010498 0.016583 0.00255326 0.0146463 0.0307697 0.0438966 -0.0524802 -0.0521162 -0.0518866
internal_weight=43.2625 39.4508 19.8351 15.247 19.6157 14.0076 3.81174 2.29211 1.40815
internal_count=255 163 84 63 79 54 92 62 41
is_linear=0
shrinkage=0.05


Tree=47
num_leaves=11
num_cat=0
split_feature=0 52 23 4 19 20 14 10 11 5
split_gain=6.19884 3.04826 4.02258 5.39857 4.83085 4.41398 1.65779 0.000260858 6.59947e-05 7.4464e-06
threshold=1.4991258915575402e-05 0.0060286302847392748 41.500000000000007 0.82124684220176791 -0.0037312755215220257 0.0022021120763328051 0.0018102944240198217 1.0000000180025095e-35 0.017191795340013704 0.8087752373894449
decision_type=2 2 2 2 2 2 2 2 2 2
left_child=7 2 3 4 -2 -5 -4 8 -1 -10
right_child=1 -3 6 5 -6 -7 -8 -9 9 -11
leaf_value=-0.052355887599309453 -0.071776285758877539 0.047518322480091829 0.053263628353375371 0.047966299280702146 -0.00086323135526138758 -0.016371402968122919 0.015785112153675885 -0.052874218935179268 -0.051906227653806758 -0.051670586395418661
leaf_weight=0.84281689487397615 4.1015769988298416 6.3835116997361174 5.444318935275076 6.2980929464101774 5.7947310358285922 4.6224966868758202 6.4415960609912872 1.4496490247547629 0.6876707077026365 0.65420909598469734
leaf_count=21 20 25 22 24 24 21 27 30 20 21
internal_value=0.0101063 0.015914 0.00974494 -0.00350574 -0.0302535 0.0207333 0.0329521 -0.0523542 -0.0520091 -0.0517913
internal_weight=42.7207 39.0863 32.7028 20.8169 9.89631 10.9206 11.8859 3.63435 2.1847 1.34188
internal_count=255 163 138 89 44 45 49 92 62 41
is_linear=0
shrinkage=0.05


Tree=48
num_leaves=10
num_cat=0
split_feature=2 5 34 49 14 20 59 23 74
split_gain=6.07755 4.82162 4.44233 3.41296 5.43716 4.72066 2.31965 0.879749 0.00216523
threshold=6.5000000000000009 0.62487689555398285 -0.0038143957090092831 0.0021205128958441733 0.0015168519851896504 -0.0011728473208990062 1.2395430472796249 23.500000000000004 1.0000000180025095e-35
decision_type=2 2 2 2 2 2 2 2 2
left_child=8 -2 -3 4 -4 -6 7 -5 -1
right_child=1 2 3 6 5 -7 -8 -9 -10
leaf_value=-0.054640018705075656 -0.041336928794317912 -0.034488066738240696 0.042311838526827968 0.038141966506528541 0.024693836485033854 -0.052445075223509233 0.012857275431214661 0.064959474119967983 -0.057231095788806252
leaf_weight=1.8063751049339762 3.431546786800026 3.3020338788628569 6.5952185131609431 5.5120431482791918 3.5104197710752478 4.5592171195894471 5.0659124404191962 6.8694564271718264 1.4562861993908882
leaf_count=36 27 21 28 28 20 28 25 28 14
internal_value=0.00974786 0.0152529 0.0207363 0.0264149 0.00863514 -0.0188884 0.0413592 0.0530208 -0.0557965
internal_weight=42.1085 38.8458 35.4143 32.1123 14.6649 8.06964 17.4474 12.3815 3.26266
internal_count=255 205 178 157 76 48 81 56 50
is_linear=0
shrinkage=0.05


Tree=49
num_leaves=9
num_cat=0
split_feature=1 15 12 34 23 45 62 0
split_gain=5.68231 3.16176 3.70623 5.31768 7.56379 4.14191 3.57674 0.00348414
threshold=412.50000000000006 0.0043340200614115946 1.0000000180025095e-35 0.0063684114333356261 36.500000000000007 0.0010552078986079633 1.0000000180025095e-35 0.00070013785643319182
decision_type=2 2 2 2 2 2 2 2
left_child=7 2 3 4 -2 6 -5 -1
right_child=1 -3 -4 5 -6 -7 -8 -9
leaf_value=-0.05339175460437641 -0.094150798969707017 0.058244451157843484 0.043182120854408368 0.046326588947638143 0.015791850618081572 -0.024603567664153735 -0.001032759848980285 -0.056821191832842781
leaf_weight=1.2093463744968169 3.1012462116777924 3.7559955082833758 6.7536162361502639 9.3595102336257749 3.1568347979336977 5.3341848067939273 6.9449552278965703 1.9107940234243868
leaf_count=31 25 17 33 39 16 39 36 19
internal_value=0.00939901 0.0146708 0.00994751 0.00190163 -0.0386912 0.0136414 0.0261537 -0.055492
internal_weight=41.5265 38.4063 34.6503 27.8967 6.25808 21.6387 16.3045 3.12014
internal_count=255 205 188 155 41 114 75 50
is_linear=0
shrinkage=0.05


Tree=50
num_leaves=9
num_cat=0
split_feature=3 0 4 36 58 45 10 0
split_gain=6.12792 5.49302 3.74337 3.63113 1.71194 0.584432 0.431427 0.00955799
threshold=1.5000000000000002 0.0022328536469086173 0.76865085076589634 0.00205011808387241 -0.0052296659803625313 0.00087809151419171862 1.0000000180025095e-35 0.0011040178132964986
decision_type=2 2 2 2 2 2 2 2
left_child=1 3 -2 -1 -4 6 7 -5
right_child=2 -3 4 5 -6 -7 -8 -9
leaf_value=0.0005763350148778717 -0.0061556859519904606 0.025141748320973625 0.054852876972169819 -0.053123233993774825 0.022072062488446828 -0.03806358870420759 -0.087270695345778998 -0.059368689888214699
leaf_weight=3.9515572972595674 7.0833684504032162 5.3074701577424994 7.5277803912758836 1.2738368790596726 8.457508392632004 2.058817807585001 2.0333879459649324 1.1801463365554807
leaf_count=38 30 20 32 32 37 34 19 10
internal_value=0.00766976 -0.0163135 0.0241016 -0.0372726 0.0375092 -0.0601198 -0.0702392 -0.0561267
internal_weight=38.8739 15.8052 23.0687 10.4977 15.9853 6.54619 4.48737 2.45398
internal_count=252 153 99 133 69 95 61 42
is_linear=0
shrinkage=0.05


Tree=51
num_leaves=10
num_cat=0
split_feature=5 22 6 13 43 49 27 38 19
split_gain=6.09861 4.75352 5.3484 4.46669 2.56144 2.46692 2.26891 3.01385 0.968367
threshold=0.63087488692628091 1.5000000000000002 0.0011196745852575217 0.0029552696935222166 0.0069864956448948256 0.0026524392163907152 0.0034915628884553008 0.51977678734716892 -0.0011188891974996948
decision_type=2 2 2 2 2 2 2 2 2
left_child=-1 2 3 -2 8 -6 7 -5 -3
right_child=1 4 -4 6 5 -7 -8 -9 -10
leaf_value=-0.053435732854537454 -0.070133408797263624 0.059219069606090469 -0.069346905483783791 0.032711615025735004 -0.01464923563129069 0.035499463473767472 0.059106584204974402 -0.035903474383492381 0.029368353394631969
leaf_weight=3.7192763444036236 1.594314221292733 5.9857352152466774 2.8848978430032721 3.9195478055626136 4.8903147801756841 4.9190244153141975 2.6955992560833693 2.7047435529530048 4.9749863520264643
leaf_count=34 22 24 35 31 21 20 11 29 25
internal_value=0.00740112 0.0139465 -0.00880062 0.00720328 0.0290591 0.0104985 0.0204329 0.0046956 0.0456701
internal_weight=38.2884 34.5692 13.7991 10.9142 20.7701 9.80934 9.31989 6.62429 10.9607
internal_count=252 218 128 93 90 41 71 60 49
is_linear=0
shrinkage=0.05


Tree=52
num_leaves=11
num_cat=0
split_feature=5 3 0 47 4 6 19 17 0 49
split_gain=5.5798 4.35754 6.09631 3.61574 2.76755 2.14295 1.86812 0.809328 0.296452 0.000249388
threshold=0.63087488692628091 1.5000000000000002 0.0034042060160962566 0.0035678482440783909 0.76865085076589634 0.00019184181748677052 -0.0011188891974996948 1.0000000180025095e-35 0.00039481582243050545 0.0020906742652116923
decision_type=2 2 2 2 2 2 2 2 2 2
left_child=-1 2 3 -2 -3 -5 -6 -7 9 -9
right_child=1 4 -4 5 6 7 -8 8 -10 -11
leaf_value=-0.05134501169436613 0.027339645065960472 -0.00071189119337420064 0.0614447026992068 -0.0018120645206365889 0.058562240379170787 -0.026696279018536509 0.022661930309435349 -0.05296289034687604 -0.079115594925316987 -0.051767740699094213
leaf_weight=3.6782522164285174 2.5636558216065159 5.9416388943791416 2.5291405767202368 2.5143415182828885 6.9318686053156862 1.61104080080986 7.5928956195712063 0.90685270167887189 2.5513177327811718 0.84153212234377861
leaf_count=34 22 24 9 19 31 16 35 20 15 27
internal_value=0.00715326 0.0134848 -0.00854542 -0.0246542 0.0280355 -0.0404753 0.0397952 -0.056922 -0.0682472 -0.0523876
internal_weight=37.6625 33.9843 13.5179 10.9887 20.4664 8.42508 14.5248 5.91074 4.2997 1.74838
internal_count=252 218 128 119 90 97 66 78 62 47
is_linear=0
shrinkage=0.05


Tree=53
num_leaves=10
num_cat=0
split_feature=0 12 52 45 45 51 57 10 1
split_gain=5.23174 4.37882 3.80993 5.7257 3.36558 3.8762 0.00140681 0.000107061 3.45984e-05
threshold=1.4991258915575402e-05 1.0000000180025095e-35 0.0057858476161255631 0.0010034224315320802 0.00067971807684835759 0.001705392399594677 0.0012165198933134736 1.0000000180025095e-35 442.50000000000006
decision_type=2 2 2 2 2 2 2 2 2
left_child=6 2 3 4 5 -2 -1 8 -8
right_child=1 -3 -4 -5 -6 -7 7 -9 -10
leaf_value=-0.054343774187861953 0.022582098306320943 0.05185411454028778 0.043895182503957755 -0.050571583319660475 0.043720889118103477 -0.033221191568530928 -0.051346573066917672 -0.052279678916860195 -0.051833587019685205
leaf_weight=0.76572099886834566 6.3936440162360757 5.9336378872394553 5.0297954380512229 5.1472011953592292 5.0767339803278437 6.0627774521708488 0.62421121075749397 1.1042836830019951 0.8771129697561264
leaf_count=16 28 29 22 25 20 32 25 28 27
internal_value=0.00692244 0.0128729 0.00452579 -0.00420512 0.00940667 -0.00457843 -0.0524597 -0.051906 -0.0516311
internal_weight=37.0151 33.6438 27.7102 22.6804 17.5332 12.4564 3.37133 2.60561 1.50132
internal_count=252 156 127 105 80 60 96 80 52
is_linear=0
shrinkage=0.05


Tree=54
num_leaves=11
num_cat=0
split_feature=5 3 0 62 19 23 36 19 74 0
split_gain=6.27427 3.89375 5.58646 4.69925 2.26042 2.25397 2.2761 0.80681 0.508404 0.0154504
threshold=0.62734904722936025 1.5000000000000002 0.0034042060160962566 1.0000000180025095e-35 -0.0043005046138364636 23.500000000000004 0.0079357579116431775 -0.0011188891974996948 1.0000000180025095e-35 -0.00019127297790988426
decision_type=2 2 2 2 2 2 2 2 2 2
left_child=-1 2 3 4 -2 6 -3 -7 9 -5
right_child=1 5 -4 8 -6 7 -8 -9 -10 -11
leaf_value=-0.060514391792416938 -0.039269281540720735 -0.01373860775035109 0.060663908216475861 -0.051747139768019812 0.01899823499892607 0.057648512947964463 0.034221053529964136 0.029640539332966228 -0.095226847752023447 -0.060763725778985533
leaf_weight=3.1714941933751097 2.5508777983486617 5.035621605813505 2.4075078815221778 1.0416167452931402 4.7899489682167786 4.9980413317680359 4.8629309609532356 5.2956523150205594 1.4343641251325607 0.87357340380549442
leaf_count=31 33 26 9 34 38 20 23 23 6 9
internal_value=0.00668409 0.013086 -0.00814589 -0.0236421 -0.00124925 0.0268582 0.00982287 0.0432396 -0.0727178 -0.0558599
internal_weight=36.4616 33.2901 13.0979 10.6904 7.34083 20.1922 9.89855 10.2937 3.34955 1.91519
internal_count=252 221 129 120 71 92 49 43 49 43
is_linear=0
shrinkage=0.05


Tree=55
num_leaves=10
num_cat=0
split_feature=2 0 8 4 54 53 17 49 1
split_gain=6.38462 4.33839 4.54454 2.8663 2.79736 3.23075 4.43562 0.00121307 7.28758e-05
threshold=19.500000000000004 1.4991258915575402e-05 0.60416666666666685 0.83350444900764564 0.68750000000000011 201.01428571428528 0.024202941214139177 0.0014853905489200486 457.50000000000006
decision_type=2 2 2 2 2 2 2 2 2
left_child=1 7 4 -4 5 6 -3 -1 -9
right_child=-2 2 3 -5 -6 -7 -8 8 -10
leaf_value=-0.05411957360287023 -0.061599827181081535 0.034396105976626276 -0.04908871839276923 0.0087549197363551903 0.054968421957806525 0.041855164571905121 -0.031905739337729541 -0.051314082510447626 -0.051979199192273166
leaf_weight=0.77148730307817404 3.6024356018751851 4.5054787173867314 3.89338670670986 4.7600327432155609 5.8879185616970053 6.739346880465745 5.7316616624593735 0.59600271470844735 1.3328246939927337
leaf_count=17 36 20 21 20 22 30 27 25 38
internal_value=0.00171473 0.00838039 0.0135916 -0.0172704 0.0252718 0.0149721 -0.00272556 -0.0524439 -0.0517737
internal_weight=37.8206 34.2181 31.5178 8.65342 22.8644 16.9765 10.2371 2.70031 1.92883
internal_count=256 220 140 41 99 77 47 80 63
is_linear=0
shrinkage=0.05


Tree=56
num_leaves=10
num_cat=0
split_feature=2 3 5 23 57 39 39 18 10
split_gain=5.98985 4.10294 4.34553 3.10902 4.39085 2.6252 2.05663 2.00642 0.504042
threshold=19.500000000000004 1.5000000000000002 0.84127491241164687 22.500000000000004 0.0022151025402131039 -0.0037575963691087442 -0.0019064109430332627 10.500000000000002 1.0000000180025095e-35
decision_type=2 2 2 2 2 2 2 2 2
left_child=1 2 6 4 -3 -5 8 -4 -1
right_child=-2 3 7 5 -6 -7 -8 -9 -10
leaf_value=-0.043915483994599741 -0.060984689447939361 -0.03451336647851843 -0.015591438364726901 0.061741041464560067 0.031030059157916026 0.014083907500812998 -0.00034930081679179981 0.042018070461023571 -0.079908353348830979
leaf_weight=1.597011035308239 3.4604303557425728 4.7247206903994101 2.9424538630992174 5.9796007946133614 5.5647873282432556 5.5920037217438203 1.6968233697116382 3.1075789108872414 2.4881289787590504
leaf_count=33 36 24 26 21 26 26 17 17 30
internal_value=0.00165985 0.00809372 -0.015623 0.02093 0.000933928 0.0387106 -0.0466189 0.0139995 -0.0658376
internal_weight=37.1535 33.6931 11.832 21.8611 10.2895 11.5716 5.78196 6.05003 4.08514
internal_count=256 220 123 97 50 47 80 43 63
is_linear=0
shrinkage=0.05


Tree=57
num_leaves=10
num_cat=0
split_feature=2 8 23 54 17 42 75 16 26
split_gain=5.61962 3.8888 4.02106 2.87276 3.14685 4.41314 2.62381 2.25064 1.63433
threshold=19.500000000000004 0.60416666666666685 16.500000000000004 0.68750000000000011 0.0045772582537657053 230.45700000000042 0.46875000000000006 0.0013862879365658112 0.0013463502385766548
decision_type=2 2 2 2 2 2 2 2 2
left_child=1 3 -3 4 -1 6 -6 -8 -4
right_child=-2 2 8 -5 5 -7 7 -9 -10
leaf_value=0.040991743714080091 -0.06040542356557399 -0.069662285248695513 0.027079659207785128 0.048740291175702687 -0.059040320916247974 0.03806145574163914 -0.036170299430851698 0.028714194522950539 -0.02330647723430317
leaf_weight=5.2939099110662999 3.3224283438175908 2.8104563113301975 3.2359354048967361 5.887152984738349 3.4181078039109689 4.09235637448728 2.6109042000025511 2.7380713317543268 3.2017491608858109
leaf_count=30 36 22 26 27 25 29 30 13 18
internal_value=0.00160111 0.00778978 -0.0197636 0.0183893 0.0085464 -0.00481054 -0.0248226 -0.00295677 0.00202037
internal_weight=36.6111 33.2886 9.24814 24.0405 18.1533 12.8594 8.76708 5.34898 6.43768
internal_count=256 220 66 154 127 97 68 43 44
is_linear=0
shrinkage=0.05


Tree=58
num_leaves=9
num_cat=0
split_feature=1 3 64 27 8 23 64 68
split_gain=4.98718 3.84603 4.43398 4.1614 3.37959 3.07106 0.484008 0.475085
threshold=1207.5000000000002 1.5000000000000002 0.0035678482440783909 0.0022725885173661606 0.47916666666666669 22.500000000000004 0.0080935085239916185 0.0031736522873435417
decision_type=2 2 2 2 2 2 2 2
left_child=1 2 -1 6 5 -3 -4 -8
right_child=-2 4 3 -5 -6 -7 7 -9
leaf_value=0.048294905161776286 -0.060187061818226077 0.010437898995198393 -0.077008513810613521 0.0051337468847608807 -0.011740130311911659 0.055310871900407968 -0.014118837088186674 -0.060162509683269222
leaf_weight=2.1908726114779702 2.9995594173669806 7.8095722198486346 2.4798834286630136 4.3971359468996525 6.0785045437514773 7.4505967646837234 0.80122424848377738 1.8626438509672878
leaf_count=17 33 37 23 34 30 30 16 36
internal_value=0.0015457 0.00714499 -0.0158513 -0.0305812 0.0197881 0.0323466 -0.0611122 -0.0463137
internal_weight=36.07 33.0704 11.7318 9.54089 21.3387 15.2602 5.14375 2.66387
internal_count=256 223 126 109 97 67 75 52
is_linear=0
shrinkage=0.05


Tree=59
num_leaves=10
num_cat=0
split_feature=2 8 44 58 48 11 5 26 51
split_gain=4.95154 3.52246 4.81817 3.98511 2.95093 2.93725 3.70507 1.97998 0.4777
threshold=19.500000000000004 0.18750000000000003 0.00043582248555047238 -0.0052296659803625313 -0.015076963469051456 0.023058701137066848 0.76553964658924445 -0.0017786986199248009 0.0072588693421881687
decision_type=2 2 2 2 2 2 2 2 2
left_child=1 5 3 4 -3 6 -1 -8 -7
right_child=-2 2 -4 -5 -6 8 7 -9 -10
leaf_value=-0.046049174909021912 -0.059336132338514695 -0.010449277750088543 -0.061496467884187944 -0.029582469189963961 0.055135243998143291 0.056129368770164584 0.052320871659720714 -0.0028071763912806951 0.030863464982741142
leaf_weight=2.6431330908089894 3.0578942447900763 2.8583957385271779 3.5095529519021502 4.9161802660673848 4.2881384510546923 4.5495223943144074 3.1853337269276363 3.33301521651447 3.1773353274911642
leaf_count=26 36 23 32 29 25 26 16 25 18
internal_value=0.00148858 0.00721847 -0.00993423 0.0050674 0.0289034 0.0230345 0.00388463 0.0241323 0.0457399
internal_weight=35.5185 32.4606 15.5723 12.0627 7.14653 16.8883 9.16148 6.51835 7.72686
internal_count=256 220 109 77 48 111 67 41 44
is_linear=0
shrinkage=0.05


Tree=60
num_leaves=10
num_cat=0
split_feature=1 4 37 46 18 55 36 58 51
split_gain=3.71223 3.76546 5.18197 4.01497 4.11495 3.8078 3.37869 1.86763 0.00238201
threshold=412.50000000000006 0.83350444900764564 -0.017143864900444106 -0.019530411277044604 9.5000000000000018 0.012672646542013553 0.010798422860714163 -0.0074083181995528739 0.0011281338391624059
decision_type=2 2 2 2 2 2 2 2 2
left_child=8 2 3 4 -2 -3 -7 -4 -1
right_child=1 5 7 -5 -6 6 -8 -9 -10
leaf_value=-0.053128027296450622 -0.047042120437568336 -0.017678980377645457 -0.096594263727420651 0.044490454415060408 0.025340641128315688 0.060335147952833491 0.0028108683470869362 -0.030699347211037273 -0.056024353997309428
leaf_weight=1.2752401493489736 4.5501202978193778 4.1995288133621207 1.8439187984913585 4.2143460847437373 3.4540326613932848 6.6983610205352289 4.1243192553520203 2.5796145480126169 1.6012451751157639
leaf_count=33 34 31 17 22 23 30 24 25 23
internal_value=-0.000355805 0.00458467 -0.011797 0.00499065 -0.0158068 0.0227328 0.0384137 -0.0581672 -0.0547403
internal_weight=34.5407 31.6642 16.642 12.2185 8.00415 15.0222 10.8227 4.42353 2.87649
internal_count=262 206 121 79 57 85 54 42 56
is_linear=0
shrinkage=0.05


Tree=61
num_leaves=10
num_cat=0
split_feature=2 4 37 46 18 11 7 6 51
split_gain=3.50745 3.454 4.78642 4.50581 3.73381 3.71179 4.74262 1.67019 0.00202554
threshold=6.5000000000000009 0.83350444900764564 -0.017424845301395018 -0.019530411277044604 9.5000000000000018 0.024762039387090793 3.5000000000000004 0.00020306013498239516 0.0011281338391624059
decision_type=2 2 2 2 2 2 2 2 2
left_child=8 2 3 4 -2 6 -3 -4 -1
right_child=1 5 7 -5 -6 -7 -8 -9 -10
leaf_value=-0.052971598660232946 -0.04491677685519832 0.041004906587150253 -0.019870134386482094 0.051771293946245404 0.024228935304664023 0.049752730297048131 -0.035550737819339352 -0.079037142196477464 -0.055704469965624559
leaf_weight=1.2165376842021935 4.5277313608676213 3.7206280548125488 2.1248326972126987 3.6850895062088966 3.4324549529701471 6.6302326181903473 4.433908661827445 2.7190268822014332 1.5316768027842043
leaf_count=33 34 20 18 20 23 35 30 26 23
internal_value=-0.000338165 0.00442088 -0.0113135 0.00606044 -0.0151009 0.0219691 -0.000621092 -0.0530826 -0.0544947
internal_weight=34.0221 31.2739 16.4891 11.6453 7.96019 14.7848 8.15454 4.84386 2.74821
internal_count=262 206 121 77 57 85 50 44 56
is_linear=0
shrinkage=0.05


Tree=62
num_leaves=11
num_cat=0
split_feature=0 12 11 4 26 34 0 1 5 19
split_gain=3.41817 2.50723 3.77834 3.75842 2.91615 2.64504 0.00200616 5.88271e-05 4.30697e-05 1.87808e-05
threshold=0.00010662337216149621 1.0000000180025095e-35 0.023058701137066848 0.82590773809524687 0.0013463502385766548 0.0074718399017473661 -0.00019127297790988426 457.50000000000006 0.89243522513831219 -0.00093679030768123439
decision_type=2 2 2 2 2 2 2 2 2 2
left_child=6 2 4 -4 5 -2 7 -1 9 -9
right_child=1 -3 3 -5 -6 -7 -8 8 -10 -11
leaf_value=-0.051089241606356896 -0.034296167395378482 0.03428720539937459 -0.0092285229081276576 0.046017372929048818 -0.056596552075030615 0.02172044690652241 -0.054773561898359663 -0.05170128780310862 -0.052054185063942819 -0.051306305371561924
leaf_weight=0.56578874494880516 4.0252843573689514 5.7691593319177619 6.4043388888239843 5.9282157048583031 4.0448913238942614 4.4228545017540455 0.60242108814418216 0.62749026808887753 0.52566895075142372 0.57832562737166826
leaf_count=29 23 35 32 27 22 22 11 21 16 24
internal_value=-0.000322 0.00459538 -0.00230464 0.017328 -0.0216851 -0.00496979 -0.0522053 -0.0515319 -0.0516765 -0.0515118
internal_weight=33.4944 30.5947 24.8256 12.3326 12.493 8.44814 2.89969 2.29727 1.73148 1.20582
internal_count=262 161 126 59 67 45 101 90 61 45
is_linear=0
shrinkage=0.05


Tree=63
num_leaves=10
num_cat=0
split_feature=5 2 30 11 28 11 4 74 0
split_gain=3.34692 3.63265 3.78966 3.33053 4.72198 3.04248 1.36892 0.00125538 0.000566723
threshold=0.62031892924841869 6.5000000000000009 0.20079951064432597 0.023058701137066848 -0.0056010475397732509 0.012976872217808447 0.82590773809524687 1.0000000180025095e-35 0.00070013785643319182
decision_type=2 2 2 2 2 2 2 2 2
left_child=-1 7 3 4 -3 -6 -5 8 -2
right_child=1 2 -4 6 5 -7 -8 -9 -10
leaf_value=-0.051197830326593863 -0.05233984648846484 -0.046662056279707854 -0.033952440364803625 0.01605785818726822 0.051187825537418491 -0.0057645040591643333 0.053383911815631326 -0.055646827815562828 -0.054285017614613434
leaf_weight=2.943565357476472 0.76172555238008788 3.7349620759487197 4.2045176997780791 4.0227630976587516 4.2427320089191198 5.2427192274481058 6.3084345608949661 0.91464058682322491 0.73650277405977249
leaf_count=30 30 27 35 28 22 32 36 11 11
internal_value=-0.00030698 0.0046584 0.00977391 0.0175801 0.000958634 0.0197096 0.0388499 -0.0541872 -0.0532961
internal_weight=33.1126 30.169 27.7561 23.5516 13.2204 9.48545 10.3312 2.41287 1.49823
internal_count=262 232 180 145 81 54 64 52 41
is_linear=0
shrinkage=0.05


Tree=64
num_leaves=10
num_cat=0
split_feature=1 18 6 65 19 49 26 61 51
split_gain=3.11611 2.91764 3.04921 2.94719 2.60527 2.20597 2.23425 1.66612 0.00157422
threshold=412.50000000000006 11.500000000000002 0.0010330811033918267 0.59375000000000011 -0.011047761532766707 0.0024717524425766171 -0.00018027781472124135 0.0048970857348029266 0.0011281338391624059
decision_type=2 2 2 2 2 2 2 2 2
left_child=8 2 3 4 -2 6 -3 -6 -1
right_child=1 5 -4 -5 7 -7 -8 -9 -10
leaf_value=-0.052677134537575165 -0.022762340678000193 -0.027282628838248276 -0.0482021854705382 -0.034232176286658499 -0.0010045621350595637 0.05084427224769264 0.033060739639513149 0.046238499299910148 -0.055214447394461567
leaf_weight=1.0849876906722777 3.2567851617932329 2.8412211332470179 3.7166235111653796 4.0996010024100533 2.8413614574819839 4.6676268018782139 3.3339036647230369 5.4380568657070398 1.40022044070065
leaf_count=33 22 25 35 21 24 23 20 36 23
internal_value=-0.000289637 0.00413977 -0.00749397 0.00218236 0.0151229 0.024904 0.0052963 0.0300255 -0.0541067
internal_weight=32.6804 30.1952 19.3524 15.6358 11.5362 10.8428 6.17512 8.27942 2.48521
internal_count=262 206 138 103 82 68 45 60 56
is_linear=0
shrinkage=0.05


Tree=65
num_leaves=10
num_cat=0
split_feature=0 1 40 28 8 21 7 1 4
split_gain=3.12426 2.45545 2.73721 3.42818 3.46015 2.12761 0.000238979 1.89906e-05 5.3558e-06
threshold=5.2583109968473714e-05 1117.5000000000002 4.5000000000000009 0.013597510012689386 0.18750000000000003 0.012035274941851136 6.5000000000000009 442.50000000000006 0.70475660939123386
decision_type=2 2 2 2 2 2 2 2 2
left_child=6 2 3 4 5 -2 -1 -8 -9
right_child=1 -3 -4 -5 -6 -7 7 8 -10
leaf_value=-0.052239443253816568 0.041675621406907531 -0.024561181523677495 0.042938758953578439 0.040621034334633863 -0.039906035812844937 -0.0092421196862521714 -0.050840625271757034 -0.051382957569190625 -0.051149138987461096
leaf_weight=0.80193781666457598 3.6075834184885114 4.2009192816913119 7.159475799649953 5.292377106845378 4.9852149859070769 4.7566854394972324 0.3643157687038181 0.47905248403549194 0.50108134932816029
leaf_count=26 19 29 34 24 27 24 23 19 24
internal_value=0.00671903 0.0108881 0.0166599 0.00656737 -0.00693313 0.0127192 -0.0515563 -0.0511489 -0.0512634
internal_weight=32.1486 30.0023 25.8013 18.6419 13.3495 8.36427 2.14639 1.34445 0.980134
internal_count=249 157 128 94 70 43 92 66 43
is_linear=0
shrinkage=0.05


Tree=66
num_leaves=11
num_cat=0
split_feature=14 21 15 29 3 14 6 6 43 16
split_gain=2.84724 3.15627 6.56728 4.18205 2.7615 1.60017 1.48235 1.22703 0.679324 0.665669
threshold=0.0019672283427138713 0.0068696022576838298 0.0024110328034389161 0.67160864572123613 1.5000000000000002 0.0021530783801311571 0.0011732767741384125 0.00019184181748677052 0.0039383388064770297 0.002629546206239453
decision_type=2 2 2 2 2 2 2 2 2 2
left_child=4 -2 5 -4 -1 -3 -5 -7 -9 -6
right_child=1 2 3 6 9 7 -8 8 -10 -11
leaf_value=-0.0097343562920296639 0.035279294194255788 -0.10390466499543266 -0.047995388830122186 0.051552523895494522 0.055121477039375283 -0.0016369078560146276 0.0064780686405815427 -0.022585173129842206 -0.071628244829785678 0.026692474880781015
leaf_weight=3.7909090518951443 3.8568419897928861 1.334634469822048 2.307535598985849 3.683073041960597 4.3949659019708616 1.3522538896650074 3.6136860977858305 0.98451945744454894 2.4967506742104888 3.8741850852966309
leaf_count=28 24 8 26 27 22 10 32 20 34 18
internal_value=0.00648173 -0.00526584 -0.0151803 0.0106755 0.0256024 -0.0554398 0.0292296 -0.0420577 -0.0577586 0.0418022
internal_weight=31.6894 19.6293 15.7725 9.60429 12.0601 6.16816 7.29676 4.83352 3.48127 8.26915
internal_count=249 181 157 85 68 72 59 64 54 40
is_linear=0
shrinkage=0.05


Tree=67
num_leaves=12
num_cat=0
split_feature=1 1 40 6 40 72 18 14 0 22 0
split_gain=3.67572 3.01849 2.4414 2.57898 3.6972 2.62823 2.25187 1.55602 1.07279 0.00152199 0.00111936
threshold=412.50000000000006 1147.5000000000002 4.5000000000000009 4.7779314277926841e-05 2.5000000000000004 0.51562500000000011 7.5000000000000009 0.0021530783801311571 0.00099198762454832967 1.5000000000000002 0.00085971869195999872
decision_type=2 2 2 2 2 2 2 2 2 2 2
left_child=9 2 3 -2 5 -5 -6 -3 -4 10 -1
right_child=1 7 8 4 6 -7 -8 -9 -10 -11 -12
leaf_value=-0.051515602006162044 0.048344630360886029 0.0048309187974531148 0.021499316335121345 -0.010445780971369339 -0.062273410640462837 0.04235256502314777 0.00085102778881282655 -0.059872278737315369 0.061599223249797712 -0.05564869826109059 -0.054427086706147966
leaf_weight=0.61952840164304068 3.255452364683161 1.6918267495930188 3.0857117958366862 4.319902500137685 3.0099974256008855 5.187300980091095 2.662577647715807 2.061299822293222 3.6299929022789001 1.0023757703602312 0.70671054348349571
leaf_count=32 15 11 27 31 24 21 21 30 15 12 10
internal_value=0.00625373 0.0111224 0.0173641 0.00796179 -0.000698701 0.0183619 -0.0326442 -0.0307055 0.0431742 -0.0541783 -0.053067
internal_weight=31.2327 28.9041 25.1509 18.4352 15.1798 9.5072 5.67258 3.75313 6.7157 2.32861 1.32624
internal_count=249 195 154 112 97 52 45 41 42 54 42
is_linear=0
shrinkage=0.05


Tree=68
num_leaves=11
num_cat=0
split_feature=11 0 8 32 14 19 0 11 1 17
split_gain=2.5705 3.65452 2.27848 3.21989 1.95981 1.70914 0.118161 0.0028045 2.68912e-05 1.68842e-05
threshold=0.0080209796079436547 0.00041584398024563379 0.14583333333333334 1.7681495452187698e-05 0.0017080552302047092 -0.0089674636957783865 0.00026152377749533168 0.014746925169733544 562.50000000000011 0.067674804980721634
decision_type=2 2 2 2 2 2 2 2 2 2
left_child=-1 4 5 -4 -2 -3 7 -6 -9 -10
right_child=1 2 3 -5 6 -7 -8 8 9 -11
leaf_value=-0.041053557144460524 0.029869783705924958 0.01036013792648627 -0.034868604515630723 0.02089674128710144 -0.055772758605174826 0.046399380185852955 -0.075706207831732347 -0.050879857505697894 -0.051596281188576371 -0.051179269739113735
leaf_weight=2.6456628441810635 0.80751341022551359 5.7264764159917885 4.0803575552999956 7.0799698121845722 0.454374413006008 7.7312494255602324 0.77434802055358876 0.3830943703651426 0.45591601077467203 0.51910170819610357
leaf_count=26 9 33 24 34 12 39 5 25 17 25
internal_value=0.00605659 0.010506 0.0172119 0.000508222 -0.0381302 0.0310641 -0.0593572 -0.0523724 -0.0512348 -0.0513743
internal_weight=30.6581 28.0124 24.6181 11.1603 3.39435 13.4577 2.58683 1.81249 1.35811 0.975018
internal_count=249 223 130 58 93 72 84 79 67 42
is_linear=0
shrinkage=0.05


Tree=69
num_leaves=11
num_cat=0
split_feature=11 1 1 3 6 62 2 6 15 1
split_gain=2.33555 2.23117 2.79432 2.49165 2.67841 2.56706 1.81224 1.75508 1.21583 0.00231534
threshold=0.0080209796079436547 442.50000000000006 1117.5000000000002 1.5000000000000002 4.2269890450691767e-06 1.0000000180025095e-35 19.500000000000004 0.00074412294476128283 0.0013999372823532961 262.50000000000006
decision_type=2 2 2 2 2 2 2 2 2 2
left_child=-1 8 3 4 -3 -6 -4 -5 -2 -10
right_child=1 2 6 7 5 -7 -8 -9 9 -11
leaf_value=-0.039121578184202845 0.017245374268145319 0.060646603353039057 0.0089069749213182385 0.021378194880802684 0.014304784313826015 -0.048533337504668518 -0.058254441761104385 0.059529501552136224 -0.053446362377808199 -0.056955033287605289
leaf_weight=2.6377103850245502 0.83666657842696013 1.5062353126704744 2.0921078165993086 7.9091951027512533 3.7071847757324576 2.8941092817112803 1.9319557854905722 4.8711047917604446 0.93793614022433736 0.94281707052141428
leaf_count=26 12 6 13 38 35 30 27 22 27 13
internal_value=0.00583062 0.0101221 0.0148148 0.0221649 0.000483224 -0.0132444 -0.0233373 0.0359192 -0.0328984 -0.0552053
internal_weight=30.267 27.6293 24.9119 20.8878 8.10753 6.60129 4.02406 12.7803 2.71742 1.88075
internal_count=249 223 171 131 71 65 40 60 52 40
is_linear=0
shrinkage=0.05


Tree=70
num_leaves=11
num_cat=0
split_feature=13 21 33 26 1 28 43 46 2 48
split_gain=2.98581 3.6084 4.00313 2.34872 1.90936 2.18882 1.86557 1.58766 0.963656 0.770447
threshold=0.0029552696935222166 0.011812508044845982 0.0035948614457264549 0.00052999755528515557 682.50000000000011 0.010134032597121758 0.0063272403141522377 -0.0067142252029803911 15.500000000000002 -0.019370091942051963
decision_type=2 2 2 2 2 2 2 2 2 2
left_child=3 7 4 -1 6 8 -3 9 -6 -2
right_child=1 2 -4 -5 5 -7 -8 -9 -10 -11
leaf_value=-0.07445008166948007 0.023258023741528147 -0.02775960935957841 0.039834969324130436 0.0080328108224393176 -0.085645957039877887 0.0033637559730145534 0.035039910234154828 0.0025606255564848031 -0.036292690374023898 0.054461903719668005
leaf_weight=1.8352297386154561 2.9169114772230378 2.2436160286888462 4.0243357000872484 1.6292689172551034 1.8252966161817314 2.1855830987915397 2.5007362551987171 3.0200569815933731 2.1589567586779594 6.1467624306678763
leaf_count=24 20 26 37 16 16 17 16 20 25 35
internal_value=0.00804005 0.0136428 -0.00279003 -0.0356604 -0.0185069 -0.0368457 0.00534186 0.033958 -0.0589028 0.0444197
internal_weight=30.4868 27.0223 14.9385 3.4645 10.9142 6.16984 4.74435 12.0837 3.98425 9.06367
internal_count=252 212 137 40 100 58 42 75 41 55
is_linear=0
shrinkage=0.05


Tree=71
num_leaves=11
num_cat=0
split_feature=13 21 15 1 26 21 7 13 0 5
split_gain=2.73861 3.31735 4.79582 2.68043 2.19886 1.77435 1.21466 1.12037 0.761065 0.406531
threshold=0.0029552696935222166 0.011812508044845982 0.0034988374740761107 682.50000000000011 0.00052999755528515557 0.016730785854808146 3.5000000000000004 0.0046804434295525067 0.0023646521238485101 0.84585723826750425
decision_type=2 2 2 2 2 2 2 2 2 2
left_child=4 7 3 6 -1 -5 -3 9 -4 -2
right_child=1 2 8 5 -6 -7 -8 -9 -10 -11
leaf_value=-0.07272587856563692 0.033927228020274106 0.032541801137238466 0.01624828677808841 -0.019658323454901261 0.0076513364893185934 -0.076929304030930068 -0.019608265376733217 0.014600885651372209 0.055997982376420431 0.058119167656536214
leaf_weight=1.7860658364370494 3.5556355733424443 2.1984513383358699 2.2006291486322871 2.9165621874853969 1.6250848211348055 2.5217672251164913 2.2689226260408759 4.9416752066463232 2.6594303250312805 3.3943842463195324
leaf_count=24 26 15 26 30 16 23 27 33 16 16
internal_value=0.00774908 0.0131469 -0.00268197 -0.0226416 -0.0344339 -0.046215 0.00605544 0.0328014 0.0379994 0.0457426
internal_weight=30.0686 26.6575 14.7658 9.9057 3.41115 5.43833 4.46737 11.8917 4.86006 6.95002
internal_count=252 212 137 95 40 53 42 75 42 42
is_linear=0
shrinkage=0.05


Tree=72
num_leaves=12
num_cat=0
split_feature=3 6 5 24 0 25 39 50 3 16 39
split_gain=2.7472 3.63314 3.83711 1.96809 1.78667 2.19075 1.71987 1.32658 0.62511 0.40983 0.0229306
threshold=1.5000000000000002 0.0011196745852575217 0.77776279004328408 0.73887678217894959 0.0015052098721338727 -0.00026812874753580465 -0.0037575963691087442 -1.0000000180025095e-35 2.5000000000000004 0.00024454478647883976 -0.0050271217296372368
decision_type=2 2 2 2 2 2 2 2 2 2 2
left_child=1 2 9 6 5 -4 8 -8 -2 -1 -3
right_child=3 10 4 -5 -6 -7 7 -9 -10 -11 -12
leaf_value=-0.070725162180578643 0.027969944957073181 -0.060018531184101345 0.044179407803981066 -0.013876876778093955 0.052853415085611768 -0.043721187176065157 0.03173691138487509 -0.011091158913288421 0.055816833860946394 -0.027995713493787829 -0.069502844947254019
leaf_weight=1.2482299413532039 3.8381342776119709 1.2334611965343358 1.3245411226525914 3.7055042386054984 2.9068867228925228 1.5249088229611505 3.4145553708076477 3.8430590443313131 4.243454322218895 1.019493108615279 1.3185793263837684
leaf_count=26 24 29 12 20 15 30 20 23 23 19 11
internal_value=0.00747848 -0.0129549 0.00357211 0.0188258 0.025274 -0.00286139 0.0267258 0.00905855 0.0425917 -0.0515154 -0.0649189
internal_weight=29.6208 10.5761 8.02406 19.0447 5.75634 2.84945 15.3392 7.25761 8.08159 2.26772 2.55204
internal_count=252 142 102 110 57 42 90 43 47 45 40
is_linear=0
shrinkage=0.05


Tree=73
num_leaves=12
num_cat=0
split_feature=3 6 5 14 15 5 10 0 25 37 39
split_gain=2.52268 3.41715 3.5557 2.42222 4.27501 2.03441 1.83183 1.67801 2.01292 0.45147 0.0189262
threshold=1.5000000000000002 0.0011196745852575217 0.77776279004328408 0.0020096733219102307 0.0031410011231942131 0.8198275939675429 1.0000000180025095e-35 0.0015052098721338727 -0.00026812874753580465 -0.02759831760130577 -0.0050271217296372368
decision_type=2 2 2 2 2 2 2 2 2 2 2
left_child=1 2 9 6 5 -5 -2 8 -4 -1 -3
right_child=3 10 7 4 -6 -7 -8 -9 -10 -11 -12
leaf_value=-0.020484145454585514 0.010076889629931446 -0.059544348784401901 0.042442139502153149 -0.049560148431690917 0.046963042078536799 0.0052058698331476361 0.057108222891776056 0.051886599340093757 -0.042504902721580091 -0.06738341853788074 -0.068325958596941405
leaf_weight=0.80928034428507123 3.5151962898671645 1.1824119985103609 1.3101946841925403 3.2879740856587869 3.4611645117402077 3.5016538463532925 5.0372063145041466 2.8153399601578712 1.4909938257187585 1.4022925402969137 1.2753244228661058
leaf_count=17 20 29 12 22 21 18 29 15 30 28 11
internal_value=0.00724021 -0.012668 0.00348011 0.0181305 0.00173874 -0.0213154 0.0377775 0.0246258 -0.00277278 -0.0502216 -0.0641011
internal_weight=29.089 10.2858 7.8281 18.8032 10.2508 6.78963 8.5524 5.61653 2.80119 2.21157 2.45774
internal_count=252 142 102 110 61 40 49 57 42 45 40
is_linear=0
shrinkage=0.05


Tree=74
num_leaves=10
num_cat=0
split_feature=13 21 33 26 26 55 6 46 6
split_gain=2.38939 2.89427 3.08272 1.9764 1.78612 2.37044 1.98566 1.61676 1.02114
threshold=0.0029552696935222166 0.011812508044845982 0.0035948614457264549 0.00052999755528515557 -0.003075547054609606 0.024249983689948958 0.0010330811033918267 -0.0065588530797674122 0.00028948646051080461
decision_type=2 2 2 2 2 2 2 2 2
left_child=3 7 4 -1 6 -6 -3 8 -2
right_child=1 2 -4 -5 5 -7 -8 -9 -10
leaf_value=-0.070935697898016237 0.05695555784837969 0.041681471566610818 0.036782265148286426 0.0074933331939358644 -0.070038638750138577 -0.0068656966604712395 -0.026000044323952538 -0.0022131932256252325 0.022008681809695958
leaf_weight=1.6841607969254284 4.8307021204382163 2.1547781638801116 3.6134906997904173 1.5357525739818809 2.6339635374024475 3.4039565082639456 2.1801342647522688 2.7580886445939568 3.6847058869898319
leaf_count=24 23 20 37 16 32 26 22 18 34
internal_value=0.00703521 0.0122059 -0.00298911 -0.0335286 -0.0168439 -0.0344241 0.00764277 0.0310575 0.0418337
internal_weight=28.4797 25.2598 13.9863 3.21991 10.3728 6.03792 4.33491 11.2735 8.51541
internal_count=252 212 137 40 100 58 42 75 57
is_linear=0
shrinkage=0.05


Tree=75
num_leaves=10
num_cat=0
split_feature=12 19 34 45 49 23 16 47 54
split_gain=3.48832 3.41608 3.55666 2.53016 2.90472 2.26796 1.45865 1.38783 2.06864
threshold=1.0000000180025095e-35 0.024928670289964931 0.0063684114333356261 0.0010552078986079633 0.0013432237518581417 53.000000000000007 0.0024312100093107918 0.008458860953751474 0.56250000000000011
decision_type=2 2 2 2 2 2 2 2 2
left_child=1 2 5 4 -4 -1 -2 -6 -9
right_child=6 -3 3 -5 7 -7 -8 8 -10
leaf_value=-0.069436515921882477 0.056247821266410973 -0.06033513308356752 -0.028057286199848253 -0.030259527724503427 0.055487168703352123 -0.001018330715470207 0.00686583460248592 -0.013026237558700311 0.044361349641074833
leaf_weight=2.777300323359678 3.188673745840787 2.9078935775905839 2.5877804346382609 3.2562243742868295 3.7383265104144794 2.148073710501194 2.8159935846924782 2.9986519445665181 3.2967620072886348
leaf_count=31 22 27 24 36 22 15 20 33 24
internal_value=-0.000952785 -0.00957373 -0.00247822 0.00903648 0.0191744 -0.0395977 0.0330893 0.0313559 0.0170263
internal_weight=29.7157 23.711 20.8031 15.8777 12.6215 4.92537 6.00467 10.0337 6.29541
internal_count=254 212 185 139 103 46 42 79 57
is_linear=0
shrinkage=0.05


Tree=76
num_leaves=10
num_cat=0
split_feature=36 3 61 20 8 11 0 45 44
split_gain=2.96752 3.5436 2.58034 3.66045 3.46902 3.23919 2.06016 1.39623 1.17204
threshold=0.014882623823194887 2.5000000000000004 0.0016582013520999451 0.00025527888177536779 0.39583333333333343 0.0080209796079436547 0.00057677266925681991 0.00077592916615791541 -0.00027400431166156846
decision_type=2 2 2 2 2 2 2 2 2
left_child=1 2 -1 5 -5 -4 8 -3 -7
right_child=-2 7 3 4 -6 6 -8 -9 -10
leaf_value=0.048799280343689022 -0.046154866760038667 0.015819907584752838 -0.053152158750069782 -0.0086973249730569226 -0.077694984615895468 0.026880797766412619 0.036560334372893161 0.059675878391944472 -0.0556772703558173
leaf_weight=1.8610044345259762 3.2250633686780921 4.4692508447915307 1.7803364526480452 4.0644189035519949 3.3014293764717877 0.69191798567772744 5.7290406990796328 3.0556600689888 1.1352322073653254
leaf_count=10 29 28 22 39 35 13 30 16 32
internal_value=-0.000908079 0.00468538 -0.00704714 -0.0132696 -0.0396226 0.00752095 0.0218163 0.0336286 -0.0244136
internal_weight=29.3134 26.0883 18.5634 16.7024 7.36585 9.33653 7.55619 7.52491 1.82715
internal_count=254 225 181 171 74 97 75 44 45
is_linear=0
shrinkage=0.05


Tree=77
num_leaves=9
num_cat=0
split_feature=5 12 8 34 5 20 31 30
split_gain=3.25238 2.86385 2.52667 3.00404 2.36821 3.70074 2.4531 1.09856
threshold=0.59065487268771821 1.0000000180025095e-35 0.14583333333333334 0.0055649398481304032 0.69182261416162716 0.0010308598122982697 60.500000000000007 0.1042718466069447
decision_type=2 2 2 2 2 2 2 2
left_child=-1 2 3 -2 -4 6 -6 -5
right_child=1 -3 4 7 5 -7 -8 -9
leaf_value=-0.069542452637240168 -0.028328113176898335 0.035275226862769002 0.028751250250619077 0.041697689826620636 -0.041617719548419613 -0.07597805749685993 0.028101602223517409 0.0036254157689261999
leaf_weight=1.6271315161138797 3.4152225656434956 5.5499608330428591 1.801424835808574 5.1045889719389361 2.5908219171687943 3.2639485141262412 2.459312342107296 3.0131363021209836
leaf_count=23 29 39 19 39 31 26 22 26
internal_value=-0.00087633 0.00323159 -0.00498336 0.0110142 -0.0232226 -0.0344839 -0.00766583 0.027566
internal_weight=28.8255 27.1984 21.6485 11.5329 10.1155 8.31408 5.05013 8.11773
internal_count=254 231 192 94 98 79 53 65
is_linear=0
shrinkage=0.05


Tree=78
num_leaves=10
num_cat=0
split_feature=12 19 11 63 28 49 63 47 16
split_gain=2.84892 2.83385 3.07219 3.65839 3.78466 2.66842 1.62967 2.6226 1.4104
threshold=1.0000000180025095e-35 0.024928670289964931 0.023058701137066848 0.0027665232958727919 -0.0061284614018241026 0.0013432237518581417 0.0050073276991206015 0.0085756725487651942 0.0024312100093107918
decision_type=2 2 2 2 2 2 2 2 2
left_child=1 2 3 4 -1 -6 7 -4 -2
right_child=8 -3 6 -5 5 -7 -8 -9 -10
leaf_value=-0.0486086232249959 0.05502057393602991 -0.056093880162068913 0.044648944477943077 -0.070563888574428649 -0.0207879190486722 0.047054535420215399 0.050347733203845252 -0.02666916983069911 0.0049908501362161059
leaf_weight=3.0866409791633531 2.9290475752204648 2.7730315411463371 2.2784043019637448 2.6297681834548703 2.4403075417503759 3.569504126906395 3.0314017403870821 2.9686110382899642 2.7140467055141926
leaf_count=32 22 27 21 25 21 27 21 38 20
internal_value=-0.000845729 -0.00872519 -0.00215897 -0.0186225 -0.00360634 0.0195068 0.0211613 0.0042992 0.0309588
internal_weight=28.4208 22.7777 20.0046 11.7262 9.09645 6.00981 8.27842 5.24702 5.64309
internal_count=254 212 185 105 80 48 80 59 42
is_linear=0
shrinkage=0.05


Tree=79
num_leaves=11
num_cat=0
split_feature=12 19 11 26 4 47 26 47 16 4
split_gain=2.6269 2.60545 2.82119 3.37846 2.75474 1.71188 1.53494 2.40481 1.36498 1.17589
