tree
version=v4
num_class=1
num_tree_per_iteration=1
label_index=0
max_feature_idx=14
objective=binary sigmoid:1
feature_names=primary_proba volatility_20 volatility_50 displacement_ratio liquidity_swept_buy liquidity_swept_sell structure_bias_16 structure_bias_48 nearest_bull_fvg_dist nearest_bear_fvg_dist htf_alignment atr_14 buying_pressure_8 body_momentum_8 range_expansion
feature_infos=[0.00020119860952511753:0.99873071187356088] [0.00030418218297797995:0.0081126842940945527] [0.00034241381333934234:0.0079227142759762757] [0.26961483594862701:6.462235812573085] [0:1] [0:1] [-1:1] [-1:1] [-0.00042760491721506876:0.077297962849250224] [-0.08006785506968675:0.00022082058815760686] [-1:1] [7.7785714285717926:1307.2357142857113] [0.125:0.875] [-0.004656317511802982:0.0038156140639955603] [0.25839293753924975:7.9189422373574194]
tree_sizes=1138 1187 1292 1293 1296 1192 1303 1301 1188 1184 1082 1191 1398 1413 1295 1301 1201 1303 1204 1319 1207 1210 1095 1199 1214 1404 1304 1183 1289 1308 1206 1419 1420 1417 1201 1088 1206 1083 1094

Tree=0
num_leaves=10
num_cat=0
split_feature=14 13 0 0 8 8 11 0 0
split_gain=7.25424 9.29694 6.88356 6.20568 5.86542 6.66052 5.74521 2.85136 1.80021
threshold=1.3360261425660382 -0.0024979655618545316 0.97160179023491933 0.017115233749570521 0.0063598559238971118 0.0027217658051398659 133.94642857142898 0.0028609640840583993 0.97783515917408226
decision_type=2 2 2 2 2 2 2 2 2
left_child=1 -1 -2 4 5 -3 -5 -6 -8
right_child=2 3 -4 6 7 -7 8 -9 -10
leaf_value=1.3704481755381006 1.4310973633628818 1.5784158045515149 1.5752196340681861 1.6988868441385048 1.6547842732638254 1.4251055159285753 1.6087128371417543 1.5364285781763218 1.5101113507220232
leaf_weight=0.6089417040348043 2.6139936745166792 1.245112538337706 1.21293269097805 1.4802729785442355 1.1337207704782488 1.6436475366353986 1.1089670360088346 0.92331406474113453 0.79459467530250538
leaf_count=6 36 29 28 46 32 22 28 19 15
internal_value=1.53438 1.55904 1.47678 1.57283 1.53713 1.49119 1.62501 1.60166 1.56755
internal_weight=12.7655 8.93857 3.82693 8.32963 4.94579 2.88876 3.38383 2.05703 1.90356
internal_count=261 197 64 191 102 51 89 51 43
is_linear=0
shrinkage=1


Tree=1
num_leaves=10
num_cat=0
split_feature=14 9 9 0 0 1 3 14 0
split_gain=5.20043 6.15434 6.05426 4.39119 3.74891 3.5169 3.20472 4.43557 0.000141233
threshold=1.44626149361534 -0.0048229882555610769 -0.0010397066350504637 0.079471381781200653 0.026906809666476881 0.0024394501632640981 0.81819214134304441 1.1111645262893872 0.024684999846530071
decision_type=2 2 2 2 2 2 2 2 2
left_child=1 3 5 6 -2 8 -1 -8 -3
right_child=4 2 -4 -5 -6 -7 7 -9 -10
leaf_value=-0.1683073562768912 -0.20413305698736092 0.060571802591109239 -0.11933100458057876 -0.032294964713097327 -0.10126445911176594 -0.067660229020581872 -0.020566884780667455 -0.15732194353153015 0.059669736567222242
leaf_weight=2.3995629176497451 1.503276862204076 0.94908799976110525 1.1088690385222424 1.6203669235110281 2.1558376103639603 0.77743660286068905 1.2320730574429037 1.1429853960871694 0.79937045276165009
leaf_count=34 15 28 19 39 39 16 30 16 25
internal_value=-0.0925034 -0.073889 -0.0219375 -0.103417 -0.143526 0.0208182 -0.127554 -0.0863796 0.0601594
internal_weight=13.6889 10.0298 3.63476 6.39499 3.65911 2.5259 4.77462 2.37506 1.74846
internal_count=261 207 88 119 54 69 80 46 53
is_linear=0
shrinkage=0.05


Tree=2
num_leaves=11
num_cat=0
split_feature=14 9 9 8 1 3 1 9 0 0
split_gain=3.88283 4.88014 5.05903 3.70624 6.85076 3.79169 3.20836 2.77792 2.58817 0.000117951
threshold=1.44626149361534 -0.0048229882555610769 -0.0010397066350504637 0.019687712617585108 0.0022071632804367912 0.91784471517515887 0.0024394501632640981 -0.0082305364964165503 0.026906809666476881 0.024684999846530071
decision_type=2 2 2 2 2 2 2 2 2 2
left_child=1 3 6 4 7 -6 9 -1 -2 -3
right_child=8 2 -4 -5 5 -7 -8 -9 -10 -11
leaf_value=-0.07756017039818186 -0.17166654029891215 0.05995165130900118 -0.10505443687514389 -0.16777948464963544 -0.070017942703095193 0.060654071678082372 -0.061521362246942435 -0.1696427143099071 -0.090174444490192143 0.059110449192373751
leaf_weight=1.791439510881901 1.692580070346595 0.91190178692340917 1.1941667608916748 1.3008357547223566 1.1347115151584151 1.0869061164557932 0.81133162602782238 1.5089049711823452 2.295996367931366 0.76739645749330521
leaf_count=33 15 28 19 15 21 32 16 18 39 25
internal_value=-0.0827551 -0.066812 -0.020445 -0.0918535 -0.0739672 -0.00608785 0.0201222 -0.11966 -0.124756 0.0595672
internal_weight=14.4962 10.5076 3.6848 6.8228 5.52196 2.22162 2.49063 3.30034 3.98858 1.6793
internal_count=261 207 88 119 104 53 69 51 54 53
is_linear=0
shrinkage=0.05


Tree=3
num_leaves=11
num_cat=0
split_feature=14 14 1 1 2 1 0 7 2 2
split_gain=3.08133 3.91495 4.09755 3.66297 6.65765 3.06225 2.77407 2.19267 1.74801 1.62689
threshold=1.3360261425660382 1.1289489726815676 0.0013008982425477731 0.001997987446798871 0.0026474040939026438 0.0012332906565506313 0.025801763318339291 -0.062499999999999993 0.0022924127853539479 0.0019352678622647187
decision_type=2 2 2 2 2 2 2 2 2 2
left_child=1 2 7 9 -5 -2 -6 -1 -7 -4
right_child=5 -3 3 4 6 8 -8 -9 -10 -11
leaf_value=-0.054687641825903001 -0.16670653899169566 0.022384905680929636 -0.16434446470772407 0.028425123650571871 -0.051161763274788247 -0.10534419020821227 -0.15266440831958128 0.060983411992828043 -0.02839726291353379 -0.092426749963474747
leaf_weight=0.8588166069239378 1.5065150354057557 1.2859146948903788 1.540937712416053 1.4934597890824077 1.3132481072098019 2.3492504246532921 1.3809954691678283 0.783434072509406 1.0761869885027406 1.6058688610792158
leaf_count=18 13 34 18 38 25 31 15 23 20 26
internal_value=-0.0748177 -0.0592087 -0.070897 -0.0868817 -0.0562516 -0.107298 -0.103189 0.000493121 -0.0811694 -0.127644
internal_weight=15.1946 10.2627 8.97676 7.33451 4.1877 4.93195 2.69424 1.64225 3.42544 3.14681
internal_count=261 197 163 122 78 64 40 41 51 44
is_linear=0
shrinkage=0.05


Tree=4
num_leaves=11
num_cat=0
split_feature=0 8 8 8 0 9 14 10 9 9
split_gain=2.67476 5.32564 3.04381 5.25802 3.43162 1.62712 1.45918 1.48234 2.12519 0.891496
threshold=0.17325206151333675 0.0052784674411185091 0.0063598559238971118 0.019687712617585108 0.0028609640840583993 -0.0090747985448996465 1.44626149361534 1.0000000180025095e-35 -0.0048229882555610769 -0.0041301250837405329
decision_type=2 2 2 2 2 2 2 2 2 2
left_child=2 9 6 4 -4 -3 7 8 -1 -2
right_child=1 5 3 -5 -6 -7 -8 -9 -10 -11
leaf_value=-0.096493300494804923 0.062016336973039959 -0.11708316078548119 0.061412241128449313 -0.12048013738681081 -0.051135965700101572 -0.034083622912225491 -0.14142958216046753 -0.12980197133619914 -0.018046578918327859 -0.011403145014526292
leaf_weight=2.7822835464030491 1.0537814032286403 1.3833186551928522 1.1146143339574339 1.592182485386729 1.7260843776166437 1.0302606448531149 1.664794012904167 1.5409043133258817 1.2517825122922652 0.680442865937949
leaf_count=38 29 19 32 16 30 21 13 18 29 16
internal_value=-0.0681177 -0.0336288 -0.080373 -0.0477433 -0.00697505 -0.081654 -0.100352 -0.0880856 -0.0721511 0.0332094
internal_weight=15.8204 4.1478 11.6726 4.43288 2.8407 2.41358 7.23976 5.57497 4.03407 1.73422
internal_count=261 85 176 78 62 40 98 85 67 45
is_linear=0
shrinkage=0.05


Tree=5
num_leaves=10
num_cat=0
split_feature=3 12 13 9 11 11 9 14 13
split_gain=4.15297 4.21459 3.82932 3.18606 3.80003 5.63632 3.97602 1.28753 1.57079
threshold=0.68020578153164202 0.43750000000000006 -0.00085392220083042403 -0.0082305364964165503 194.41785714285706 46.803571428571438 -0.0035433600170313184 1.5181278085209551 0.00024843280394616971
decision_type=2 2 2 2 2 2 2 2 2
left_child=1 -1 -2 7 5 -5 -7 8 -4
right_child=2 -3 3 4 -6 6 -8 -9 -10
leaf_value=-0.067369724400781469 -0.015199512231819763 0.062578075693036084 -0.013744727271059616 -0.14933528928945358 -0.16866045883416358 -0.092206651130634198 0.022631397029743101 -0.10402704874311824 -0.084329032174975047
leaf_weight=1.4962499253451853 1.8380458597093827 1.0702882912009952 1.9162381831556552 2.3170911278575632 2.1467072479426861 1.897282041609287 1.2505312487483027 1.1651439815759657 1.3389669321477411
leaf_count=23 34 29 39 24 22 27 32 13 20
internal_value=-0.0716057 -0.0131794 -0.082417 -0.0926854 -0.112293 -0.0901506 -0.046585 -0.0589226 -0.0427782
internal_weight=16.4365 2.56654 13.87 12.032 7.61161 5.4649 3.14781 4.42035 3.25521
internal_count=263 52 211 177 105 83 59 72 59
is_linear=0
shrinkage=0.05


Tree=6
num_leaves=11
num_cat=0
split_feature=3 12 13 9 4 8 2 1 6 8
split_gain=3.42092 3.78189 3.12055 2.48687 3.2701 2.71314 1.99336 1.74003 1.52981 1.36142
threshold=0.68020578153164202 0.43750000000000006 -0.00085392220083042403 -0.0082305364964165503 1.0000000180025095e-35 0.0051824916857134548 0.00086510150674931467 0.0018205392340800441 1.0000000180025095e-35 0.013558587155782738
decision_type=2 2 2 2 2 2 2 2 2 2
left_child=1 -1 -2 5 6 -4 -5 -6 -8 -7
right_child=2 -3 3 4 7 9 8 -9 -10 -11
leaf_value=-0.061812748389122311 -0.014325100979408621 0.06182429855449826 -6.3603826307575864e-05 -0.18653417114652038 -0.012757446243781804 -0.1118184135811101 -0.076378638785072894 -0.095888432116336436 -0.13453914040277457 -0.044287861253337314
leaf_weight=1.5478165131062298 1.852349471300841 1.0301865264773367 1.5312950555235136 0.98356846719979873 1.2914459090679886 1.6766999233514073 2.0762836523354053 1.2280069254338739 2.4824261032044888 1.3450374733656643
leaf_count=23 34 29 32 7 27 19 29 16 26 21
internal_value=-0.0654695 -0.0124066 -0.0749252 -0.0838237 -0.100507 -0.054283 -0.121978 -0.0532763 -0.10805 -0.0817592
internal_weight=17.0451 2.578 14.4671 12.6148 8.06173 4.55303 5.54228 2.51945 4.55871 3.02174
internal_count=263 52 211 177 105 72 62 43 55 40
is_linear=0
shrinkage=0.05


Tree=7
num_leaves=11
num_cat=0
split_feature=3 13 9 3 2 6 11 9 1 1
split_gain=2.85221 3.41865 2.47793 2.53869 2.71479 5.27642 3.12219 2.28472 1.84918 1.53865
threshold=0.68020578153164202 -6.6992146902137954e-05 -0.013914016561416739 0.79183439401026712 0.00088533868556004249 1.0000000180025095e-35 167.83571428571517 -0.024276954942240886 0.001389240963830473 0.0019088661074534831
decision_type=2 2 2 2 2 2 2 2 2 2
left_child=1 -1 7 -4 -5 6 8 -2 -6 -7
right_child=2 -3 3 4 5 9 -8 -9 -10 -11
leaf_value=-0.056407951803471794 -0.075291409199017181 0.062245279093251116 -0.12860180990120076 -0.12336653048253024 -0.024939286205645152 -0.055675021062563772 -0.069221009409818346 0.02515332329484056 0.063949302544922398 -0.11198084045951816
leaf_weight=1.6111909579485657 1.039742808789015 0.97408135421574371 2.01898621022701 1.8055296447128046 1.0678953193128098 2.0145667772740126 1.4613150879740713 1.2428640257567174 1.2941617425531147 3.0505858417600393
leaf_count=25 13 27 18 17 18 30 21 27 34 33
internal_value=-0.0602047 -0.0117017 -0.0685667 -0.0771791 -0.0674707 -0.0561166 -0.0117764 -0.0205999 0.0237624 -0.0895863
internal_weight=17.5809 2.58527 14.9956 12.713 10.6941 8.88852 3.82337 2.28261 2.36206 5.06515
internal_count=263 52 211 171 153 136 73 40 52 63
is_linear=0
shrinkage=0.05


Tree=8
num_leaves=10
num_cat=0
split_feature=3 13 13 6 0 3 6 0 3
split_gain=2.41189 3.09136 2.37382 1.76733 2.52964 2.38605 3.64123 1.69562 1.67577
threshold=0.68020578153164202 -6.6992146902137954e-05 -0.00085392220083042403 -0.31249999999999994 0.17325206151333675 1.0356733013517869 0.93750000000000011 0.006653350642415669 1.0996981035759674
decision_type=2 2 2 2 2 2 2 2 2
left_child=1 -1 -2 4 8 7 -7 -5 -4
right_child=2 -3 3 5 -6 6 -8 -9 -10
leaf_value=-0.052127361907811726 -0.010896704046207685 0.06151709684312584 -0.028401385780139166 -0.058086886597382995 0.0042595686477050225 -0.10397167279635298 0.0021799415840272605 -0.12812863479025535 -0.093691602346483743
leaf_weight=1.6551318652927878 1.904786508530379 0.93726365081966179 1.5483881086111067 1.1693990267813168 1.5813787430524824 1.6993966475129128 1.5398894101381302 3.30953748524189 2.6904612053185701
leaf_count=25 34 27 26 16 30 16 30 32 27
internal_value=-0.0556673 -0.01104 -0.0631587 -0.0705117 -0.0497084 -0.0861993 -0.0535094 -0.109842 -0.0698421
internal_weight=18.0356 2.5924 15.4432 13.5385 5.82023 7.71822 3.23929 4.47894 4.23885
internal_count=263 52 211 177 83 94 46 48 53
is_linear=0
shrinkage=0.05


Tree=9
num_leaves=10
num_cat=0
split_feature=0 4 9 6 2 0 11 0 2
split_gain=1.96583 3.02081 2.55414 2.42734 2.69379 2.00781 1.50526 3.09107 1.47831
threshold=0.17325206151333675 1.0000000180025095e-35 -0.0048229882555610769 -0.43749999999999994 0.0022437220582651532 0.0046506486963607463 225.3178571428567 0.01168663171568784 0.002432477392591113
decision_type=2 2 2 2 2 2 2 2 2
left_child=1 5 -3 -2 -5 8 7 -7 -1
right_child=3 2 -4 4 -6 6 -8 -9 -10
leaf_value=-0.075481818867427775 0.029986764880611663 -0.055981505404381515 0.02940999599378169 -0.072143968702190017 0.019978915742299447 -0.11770783975200311 -0.12585638960795176 -0.030673132292176816 -0.004981323744763907
leaf_weight=1.6426589898765107 1.4176621269434688 2.3471115045249467 1.3968705423176278 2.8311568778008218 1.102579867467284 2.0815214775502682 2.2680303864181042 2.0006824154406786 1.3585110884159801
leaf_count=17 32 30 33 37 24 16 17 32 25
internal_value=-0.0516408 -0.062075 -0.0241221 -0.0261075 -0.046323 -0.07727 -0.0931973 -0.0750523 -0.043569
internal_weight=18.4468 13.0954 3.74398 5.3514 3.93374 9.3514 6.35023 4.0822 3.00117
internal_count=263 170 63 93 61 107 65 48 42
is_linear=0
shrinkage=0.05


Tree=10
num_leaves=9
num_cat=0
split_feature=14 0 3 9 0 0 1 13
split_gain=1.92189 3.09463 2.0754 2.64891 2.47618 2.45788 4.81327 1.75184
threshold=1.1289489726815676 0.97160179023491933 0.94685006785809989 -0.005383490255508919 0.053838036800033774 0.010080074242616982 0.0020556788580998234 4.221631424150111e-05
decision_type=2 2 2 2 2 2 2 2
left_child=2 7 4 -4 5 6 -1 -2
right_child=1 -3 3 -5 -6 -7 -8 -9
leaf_value=-0.063274073013113941 -0.063556473925074727 0.037973608794039618 -0.036047705857336194 -0.11523791585174535 0.026942581052766826 -0.083488473304393074 0.063951814255624795 0.0042632936472550469
leaf_weight=2.2148931361734889 2.8597347587347022 1.747068043798208 1.8790849633514879 2.4108241852372885 1.2614769134670494 2.9047340601682663 1.1189919617027042 1.4274894520640371
leaf_count=28 32 38 28 22 28 33 29 23
internal_value=-0.041067 -0.0181175 -0.0528128 -0.0805507 -0.0369473 -0.0498661 -0.0205717 -0.040975
internal_weight=17.8243 6.03429 11.79 4.28991 7.5001 6.23862 3.33389 4.28722
internal_count=261 93 168 50 118 90 57 55
is_linear=0
shrinkage=0.05


Tree=11
num_leaves=10
num_cat=0
split_feature=14 2 11 14 11 0 10 0 8
split_gain=1.70064 1.75831 3.95414 2.95163 2.03332 2.47132 3.04248 1.94139 0.788892
threshold=1.848366716197211 0.00086510150674931467 102.6500000000003 0.87666638747953007 137.5357142857147 0.010080074242616982 1.0000000180025095e-35 0.17325206151333675 0.0052784674411185091
decision_type=2 2 2 2 2 2 2 2 2
left_child=1 -1 3 -3 8 6 -6 -7 -4
right_child=-2 2 4 -5 5 7 -8 -9 -10
leaf_value=-0.095933955406951529 0.010969197269735166 -0.029693235787791167 -0.05848887673893724 0.065103789374818269 0.065326221325378742 -0.076947121859657172 -0.049103969499278748 -0.013948467087995712 -0.10361695658251312
leaf_weight=1.4412823803722918 1.5900103449821461 1.9898506496101611 1.8965976350009426 1.3980477042496202 1.1192609611898661 3.608996894210577 1.2076123580336571 1.849641056731343 1.9788272287696598
leaf_count=13 26 32 24 35 28 36 15 34 18
internal_value=-0.0384149 -0.0431766 -0.0381239 0.00942564 -0.0519386 -0.037208 0.00593867 -0.0556002 -0.0815317
internal_weight=18.0801 16.4901 15.0488 3.3879 11.6609 7.78551 2.32687 5.45864 3.87542
internal_count=261 235 222 67 155 113 43 70 42
is_linear=0
shrinkage=0.05


Tree=12
num_leaves=12
num_cat=0
split_feature=14 8 8 2 8 11 2 0 0 0 3
split_gain=1.49926 1.17655 3.85708 3.89029 2.92661 3.89732 4.52537 1.10809 2.06081 0.00368108 0.000620675
threshold=1.848366716197211 0.01571117252393844 0.0063598559238971118 0.0021782076493581377 0.003064536700786167 225.3178571428567 0.0014948175449210352 0.0014335152795703604 0.017115233749570521 0.0024087659639753429 0.8852039914275287
decision_type=2 2 2 2 2 2 2 2 2 2 2
left_child=1 2 4 -4 5 6 -1 -6 -9 -5 -8
right_child=-2 -3 3 9 7 -7 10 8 -10 -11 -12
leaf_value=-0.049074949900777383 0.010464549351528612 -0.06826606789178051 -0.051195035844033968 0.061219899268746103 -0.11495287877534044 -0.078873782277065596 0.065361636161390166 -0.098496615704993351 -0.026514664759304293 0.065911238864664684 0.06724988160167375
leaf_weight=1.6580187883228119 1.5835233181715 3.0951293595135203 1.2586327828466886 0.6906919553875922 1.2915440276265142 1.932437105104327 0.84876956976950146 1.9425753224641087 2.0369905419647694 1.0596358701586721 0.89315412193536758
leaf_count=24 26 33 19 20 8 19 21 13 32 25 21
internal_value=-0.0360333 -0.0404403 -0.0341135 0.0158494 -0.0482915 -0.0221748 0.0100514 -0.0747118 -0.0616518 0.06406 0.0663298
internal_weight=18.2911 16.7076 13.6125 3.00896 10.6035 5.33238 3.39994 5.27111 3.97957 1.75033 1.74192
internal_count=261 235 202 64 138 85 66 53 45 45 42
is_linear=0
shrinkage=0.05


Tree=13
num_leaves=12
num_cat=0
split_feature=2 11 13 2 3 0 9 12 13 13 9
split_gain=1.38262 3.33341 3.63639 1.86839 5.01934 2.8027 1.58502 1.74195 1.81583 3.37774 0.00213247
threshold=0.00086510150674931467 102.6500000000003 -1.0000000180025095e-35 0.0027206736316212599 1.0016088608312996 0.025801763318339291 -0.020374339129400676 0.43750000000000006 -4.5737006162256245e-05 0.00090358678990933212 -0.0039373122692893826
decision_type=2 2 2 2 2 2 2 2 2 2 2
left_child=-1 2 10 6 5 -5 -3 -8 -9 -10 -2
right_child=1 3 -4 4 -6 -7 7 8 9 -11 -12
leaf_value=-0.079056107023118619 0.067012503871404047 -0.11535335159052261 -0.03016076846242375 -0.006141896726703535 0.066330915973466853 -0.094199972984279012 -0.0075989285051925636 -0.10210111319978893 0.0081331704325070323 -0.097605875631626732 0.06343998072841682
leaf_weight=1.5534627437591577 0.95836104452609994 1.0271930173039461 2.3980452697724131 1.8844222612679007 1.2950227018445728 1.7360782250761984 1.8696868903934909 1.9331839140504623 1.6544351838529086 1.3896325714886186 0.74042712897062302
leaf_count=14 22 6 36 31 31 14 30 15 33 9 20
internal_value=-0.0339162 -0.0297636 0.00948732 -0.0423366 -0.0181491 -0.0483669 -0.057436 -0.0487471 -0.0642043 -0.0401372 0.0654554
internal_weight=18.44 16.8865 4.09683 12.7897 4.91552 3.6205 7.87413 6.84694 4.97725 3.04407 1.69879
internal_count=261 247 78 169 76 45 93 87 57 42 42
is_linear=0
shrinkage=0.05


Tree=14
num_leaves=11
num_cat=0
split_feature=14 6 8 9 0 6 8 11 9 12
split_gain=1.29798 2.77307 2.70306 4.1445 2.29068 2.44442 1.82721 1.06473 0.947832 0.00304623
threshold=1.1289489726815676 0.43750000000000006 0.026015374219564114 -0.0016921693138600513 0.97160179023491933 -0.43749999999999994 0.0018800440819651339 102.6500000000003 -0.00662615898579257 0.43750000000000006
decision_type=2 2 2 2 2 2 2 2 2 2
left_child=1 2 3 6 5 -2 -1 -3 -9 -8
right_child=4 7 -4 -5 -6 -7 9 8 -10 -11
leaf_value=-0.014681338348310312 -0.068577758029180383 -0.031293838360624472 -0.081196691946592708 -0.070052278748168981 0.036383781507555037 0.0058749312277583468 0.067214378327856997 -0.051982490344640267 -0.09614573447048097 0.063180723461546837
leaf_weight=1.157175803557039 2.2481433898210526 1.9260610230267046 1.2219980135560033 1.3546799570322048 1.6905656624585388 2.1632535569369784 0.81380953267216671 2.3103858418762679 2.5623427852988248 1.1017186511307953
leaf_count=20 20 29 10 14 38 35 19 26 20 30
internal_value=-0.0319938 -0.0412538 -0.0153649 0.00280522 -0.0131031 -0.0320678 0.0349263 -0.0627658 -0.0752059 0.0648944
internal_weight=18.5501 12.4482 5.64938 4.42738 6.10196 4.4114 3.0727 6.79879 4.87273 1.91553
internal_count=261 168 93 83 93 55 69 75 46 49
is_linear=0
shrinkage=0.05


Tree=15
num_leaves=11
num_cat=0
split_feature=2 2 11 0 6 0 0 2 0 3
split_gain=2.84267 3.67594 1.45262 3.36665 1.27442 1.5924 1.24945 2.03767 0.988291 2.08487
threshold=0.00078823332706898848 0.0011828697468158932 92.714285714285211 0.0091319879585991821 1.0000000180025095e-35 0.98271870025164387 0.17325206151333675 0.0023660036966417215 0.024684999846530071 1.0182608862801852
decision_type=2 2 2 2 2 2 2 2 2 2
left_child=-1 -2 3 -3 6 8 7 -4 9 -6
right_child=1 2 4 -5 5 -7 -8 -9 -10 -11
leaf_value=-0.097602893549577088 0.041764225077196397 -0.048423457001719544 -0.073318679045876856 0.065677274697664392 -0.023387077624790201 -0.097831237190962803 0.022956234640627498 -0.00085613120288580483 -0.019999972582847605 -0.096032357768057963
leaf_weight=1.6442077197134519 1.668142912909391 1.6146887112408905 1.916039235889911 1.0781643297523258 1.9806811846792682 1.7227063719183204 1.1377311293035743 1.965256158262491 2.6183005087077618 1.9699501171708105
leaf_count=11 34 21 18 27 28 15 25 32 37 14
internal_value=-0.0347195 -0.0288686 -0.0362311 -0.00273981 -0.0430067 -0.0550436 -0.0231212 -0.036628 -0.0438225 -0.0596111
internal_weight=19.3159 17.6717 16.0035 2.69285 13.3107 8.29164 5.01903 3.8813 6.56893 3.95063
internal_count=262 251 217 48 169 94 75 50 79 42
is_linear=0
shrinkage=0.05


Tree=16
num_leaves=10
num_cat=0
split_feature=2 2 11 0 8 1 11 11 11
split_gain=2.48777 3.30424 1.27903 3.07932 1.89384 3.34559 1.83632 0.795078 0.982619
threshold=0.00078823332706898848 0.0011828697468158932 92.714285714285211 0.0091319879585991821 0.01571117252393844 0.0031242330487346822 133.94642857142898 259.18214285714339 158.72857142857202
decision_type=2 2 2 2 2 2 2 2 2
left_child=-1 -2 3 -3 5 6 -4 8 -8
right_child=1 2 4 -5 -6 -7 7 -9 -10
leaf_value=-0.090985082877153067 0.040414921250223779 -0.045230291496003792 0.00020516983937126458 0.06472263048037688 -0.071491425644143167 0.036802569556208697 -0.072816265429894445 -0.079705346501120322 -0.022771661779209428
leaf_weight=1.6747620478272462 1.6384102739393736 1.6415253467857867 1.9678266309201697 1.0403229966759679 3.5895360149443141 1.6121688876301039 1.6069065388292072 2.1614928282797337 2.5176811944693327
leaf_count=11 34 21 32 27 32 35 15 19 36
internal_value=-0.0327282 -0.0272395 -0.0341084 -0.00257816 -0.0403927 -0.0290782 -0.0419461 -0.0551414 -0.0422686
internal_weight=19.4506 17.7759 16.1375 2.68185 13.4556 9.86608 8.25391 6.28608 4.12459
internal_count=262 251 217 48 169 137 102 70 51
is_linear=0
shrinkage=0.05


Tree=17
num_leaves=11
num_cat=0
split_feature=13 3 3 3 11 1 6 6 9 7
split_gain=1.19548 2.72485 1.83933 3.15622 1.50537 1.45823 2.62522 2.20247 3.29371 1.64553
threshold=-0.00085392220083042403 0.98331785820957995 0.68020578153164202 0.53631257516430131 259.18214285714339 0.00079882651498029494 -0.56249999999999989 0.93750000000000011 -0.0052012299576177619 -0.89583333333333315
decision_type=2 2 2 2 2 2 2 2 2 2
left_child=1 -1 3 -2 5 -4 9 -8 -9 -7
right_child=2 -3 4 -5 -6 6 7 8 -10 -11
leaf_value=-0.039506421725728297 -0.052250067872767092 0.065948173735657797 -0.071168768395108509 0.063975552201731303 -0.075029581746523077 -0.021719926136107185 -0.067624383248943015 -0.039926735921266283 0.067849282792476692 0.0667879359397862
leaf_weight=1.6078652702271967 1.1769628878682881 0.98957110196351994 2.2003334313631049 1.1596558075398204 2.8384740166366091 1.0313961096107962 3.6590812243521178 2.8715716321021341 0.94125689379870703 1.0699094589799658
leaf_count=19 15 24 18 31 24 16 34 33 22 26
internal_value=-0.0309171 0.000669662 -0.0357579 0.00543231 -0.0423447 -0.0344647 -0.0260285 -0.0399138 -0.0133205 0.0233451
internal_weight=19.5461 2.59744 16.9486 2.33662 14.612 11.7735 9.57322 7.47191 3.81283 2.10131
internal_count=262 43 219 46 173 149 131 89 55 42
is_linear=0
shrinkage=0.05


Tree=18
num_leaves=10
num_cat=0
split_feature=2 2 11 8 8 10 11 8 8
split_gain=2.03386 2.93858 1.04554 2.76972 1.66537 2.50392 0.858995 1.65614 2.08562
threshold=0.00078823332706898848 0.0011828697468158932 92.714285714285211 0.0041305589714628957 0.01571117252393844 -1.0000000180025095e-35 259.18214285714339 0.0063598559238971118 0.0031983488659367604
decision_type=2 2 2 2 2 2 2 2 2
left_child=-1 -2 3 -3 5 -4 7 8 -7
right_child=1 2 4 -5 -6 6 -8 -9 -10
leaf_value=-0.081401494325396492 0.039996405973446614 -0.040609763553219103 0.023873560792123244 0.065495538161671848 -0.065127151830692329 -0.012375622726261852 -0.066928421696337212 0.012533419658853516 -0.082650004681375816
leaf_weight=1.7077090665698076 1.6169392168521906 1.6895802468061476 2.0297895204275882 0.96706847101449955 3.6580892354249945 2.2279737778007931 1.9760011732578275 1.7174222003668544 2.0067683905363083
leaf_count=11 34 23 39 25 32 34 18 33 13
internal_value=-0.0292669 -0.0242902 -0.0306781 -0.0019855 -0.0362763 -0.0256779 -0.0383642 -0.0288814 -0.0456774
internal_weight=19.5973 17.8896 16.2727 2.65665 13.616 9.95796 7.92817 5.95216 4.23474
internal_count=262 251 217 48 169 137 98 80 47
is_linear=0
shrinkage=0.05


Tree=19
num_leaves=11
num_cat=0
split_feature=2 11 0 9 9 13 11 9 1 13
split_gain=1.81491 2.59424 3.01523 1.93255 1.98399 1.80178 1.3305 1.04985 0.815545 0.00259891
threshold=0.00078823332706898848 92.714285714285211 0.0072335703161451386 -0.020374339129400676 -0.0087462897055573582 -0.00061141730380259967 194.41785714285706 -0.0052555043993084876 0.0030394463767908684 -0.00014218581373587702
decision_type=2 2 2 2 2 2 2 2 2 2
left_child=-1 2 -2 -3 8 -6 7 -7 -5 -4
right_child=1 3 9 4 5 6 -8 -9 -10 -11
leaf_value=-0.076817655276676527 -0.028557910424813232 -0.075857398444564073 0.061730570272760313 0.027717590330931588 0.0034829046427958515 -0.058151247052938837 -0.074001082522156883 -0.0036074791913380984 -0.021170713232719792 0.065683975632638544
leaf_weight=1.7188143692910696 1.8574244156479864 2.1775197684764889 0.7575137373059988 2.0212412290275128 2.0496560223400611 1.6611715275794283 3.1096813604235649 1.8814084623008844 1.4759941827505825 0.92129357159137704
leaf_count=11 25 18 22 37 34 14 26 31 21 23
internal_value=-0.0277396 -0.0230303 0.015336 -0.0324673 -0.0247223 -0.0375052 -0.0501342 -0.0291839 0.00708448 0.0639001
internal_weight=19.6317 17.9129 3.53623 14.3767 12.1992 8.70192 6.65226 3.54258 3.49724 1.67881
internal_count=262 251 70 181 163 105 71 45 58 45
is_linear=0
shrinkage=0.05


Tree=20
num_leaves=10
num_cat=0
split_feature=13 13 6 13 13 3 9 9 1
split_gain=2.80548 3.4935 2.1199 2.36627 1.86456 1.58009 1.51082 1.04311 1.06093
threshold=4.7940815331421937e-05 0.00020081777888385506 0.56250000000000011 0.00037928383558727077 -0.00085392220083042403 1.3166189550723122 -0.0082305364964165503 -0.0043184935758187057 0.0016597198753529
decision_type=2 2 2 2 2 2 2 2 2
left_child=4 -2 3 -3 -1 6 -6 -8 -9
right_child=1 2 -4 -5 5 -7 7 8 -10
leaf_value=-0.0056087241172195785 0.066265551997455374 -0.030397287121465145 -0.049108973919073234 0.07121826465639014 -0.0012978773258918008 -0.082091487550198211 -0.082458132238576773 -0.0021950931288205662 -0.0620732783542184
leaf_weight=2.357869205996395 1.3400244116783131 1.3425888232886793 3.3330494873225689 0.99934533052146424 1.7836381718516348 3.5198810212314129 2.0376971568912263 1.3048716541379697 1.7081137541681526
leaf_count=38 34 18 33 22 27 28 15 23 18
internal_value=-0.0317297 -0.00634705 -0.0234929 0.0129639 -0.0457368 -0.0548748 -0.0408573 -0.0548277 -0.0361411
internal_weight=19.7271 7.01501 5.67498 2.34193 12.7121 10.3542 6.83432 5.05068 3.01299
internal_count=256 107 73 40 149 111 83 56 41
is_linear=0
shrinkage=0.05


Tree=21
num_leaves=10
num_cat=0
split_feature=13 13 6 13 13 3 9 9 1
split_gain=2.48189 3.23008 1.89157 2.19044 1.653 1.38515 1.34001 0.923541 0.936203
threshold=4.7940815331421937e-05 0.00020081777888385506 0.56250000000000011 0.00037928383558727077 -0.00085392220083042403 1.3166189550723122 -0.0082305364964165503 -0.0043184935758187057 0.0016597198753529
decision_type=2 2 2 2 2 2 2 2 2
left_child=4 -2 3 -3 -1 6 -6 -8 -9
right_child=1 2 -4 -5 5 -7 7 8 -10
leaf_value=-0.005318461168623034 0.065286639423030313 -0.028634070977328716 -0.046224795323850702 0.069840648987897033 -0.0012325452173157876 -0.076916142356034167 -0.077406901639490211 -0.0020835634592780679 -0.058154661766331196
leaf_weight=2.362113820388914 1.2932958286255587 1.3537025116384032 3.3631497174501419 0.96887756325304497 1.7842568587511776 3.5675698891282082 2.0614766068756576 1.3059540707618005 1.731418704614043
leaf_count=38 34 18 33 22 27 28 15 23 18
internal_value=-0.0300261 -0.00603536 -0.0222585 0.0124452 -0.0430936 -0.0516317 -0.0385266 -0.0515771 -0.0340462
internal_weight=19.7918 6.97903 5.68573 2.32258 12.8128 10.4507 6.88311 5.09885 3.03737
internal_count=256 107 73 40 149 111 83 56 41
is_linear=0
shrinkage=0.05


Tree=22
num_leaves=9
num_cat=0
split_feature=13 13 6 13 13 0 3 2
split_gain=2.20179 2.99049 1.6908 2.51671 1.47196 1.40228 1.58591 1.36156
threshold=4.7940815331421937e-05 0.00020081777888385506 0.56250000000000011 0.00031817038704250238 -0.00085392220083042403 0.024684999846530071 1.0122662217345626 0.0018848109339370397
decision_type=2 2 2 2 2 2 2 2
left_child=4 -2 3 -3 -1 6 -6 -7
right_child=1 2 -4 -5 5 7 -8 -9
leaf_value=-0.0050437535571745667 0.06437792805084 -0.036516595819605806 -0.043575641304004945 0.068341129575883494 -0.038706707741201496 0.0038204308859239042 -0.091131116559759057 -0.050678425419995288
leaf_weight=2.3661226592957982 1.247143480926751 1.2379076573997738 3.3885435275733471 1.064140712842345 2.8490067068487406 1.9276857767254112 2.9224044736474752 2.8264007233083248
leaf_count=38 34 15 33 25 33 31 18 29
internal_value=-0.0284555 -0.00574381 -0.0211116 0.0119547 -0.040678 -0.0486885 -0.0652523 -0.0285802
internal_weight=19.8294 6.93774 5.69059 2.30205 12.8916 10.5255 5.77141 4.75409
internal_count=256 107 73 40 149 111 51 60
is_linear=0
shrinkage=0.05


Tree=23
num_leaves=10
num_cat=0
split_feature=13 13 6 13 13 0 11 0 14
split_gain=1.95554 2.77244 1.51352 2.789 1.31426 1.24784 1.25941 1.09981 1.0021
threshold=4.7940815331421937e-05 0.00020081777888385506 0.56250000000000011 0.00030391694251951306 -0.00085392220083042403 0.024684999846530071 185.83214285714195 0.0046506486963607463 1.44626149361534
decision_type=2 2 2 2 2 2 2 2 2
left_child=4 -2 3 -3 -1 7 8 -6 -7
right_child=1 2 -4 -5 5 6 -8 -9 -10
leaf_value=-0.0047837062755303125 0.063533026841154902 -0.043924015002243952 -0.041131871742410536 0.066745976146080938 -0.034295616502018768 0.018805276968989568 -0.058178666191522427 -0.07889665347064613 -0.04160299721055593
leaf_weight=2.3699098136276016 1.2016942556947459 1.1365034691989424 3.4097992330789566 1.1406398490071294 2.2635164074599743 1.681585591286421 1.932088781148195 3.5498579330742359 1.1601864434778688
leaf_count=38 34 12 33 28 26 33 15 25 12
internal_value=-0.0269971 -0.00547145 -0.0200526 0.0115115 -0.0384412 -0.0459753 -0.0270328 -0.0615306 -0.0058571
internal_weight=19.8458 6.88864 5.68694 2.27714 12.9571 10.5872 4.77386 5.81337 2.84177
internal_count=256 107 73 40 149 111 60 51 45
is_linear=0
shrinkage=0.05


Tree=24
num_leaves=10
num_cat=0
split_feature=13 13 7 13 13 3 9 9 9
split_gain=1.73886 2.57377 1.42108 1.2414 1.17694 1.14465 1.16874 0.835183 0.329576
threshold=4.7940815331421937e-05 0.00020081777888385506 0.39583333333333343 0.00031817038704250238 -0.00085392220083042403 1.3166189550723122 -0.0082305364964165503 -0.0043184935758187057 -0.0018699560502776543
decision_type=2 2 2 2 2 2 2 2 2
left_child=4 -2 3 -3 -1 6 -6 -8 -9
right_child=1 2 -4 -5 5 -7 7 8 -10
leaf_value=-0.0045374891796253819 0.062746289694464719 -0.027194041641558309 -0.042778585136516001 0.040832258740385319 0.0030079960359814507 -0.066269400029663972 -0.068101938055687802 -0.011457951530640892 -0.044047911912493194
leaf_weight=2.3734885174781093 1.1570546850562085 1.3210470210760834 2.9907459244132042 1.3621917050331829 1.8039192166179416 3.6289447098970413 2.0942601598799224 1.6013447791337965 1.5047049745917327
leaf_count=38 34 16 29 28 27 28 15 26 15
internal_value=-0.0256443 -0.00521769 -0.0190771 0.00734066 -0.0363723 -0.0434783 -0.03167 -0.0436994 -0.0272459
internal_weight=19.8377 6.83104 5.67398 2.68324 13.0067 10.6332 7.00423 5.20031 3.10605
internal_count=256 107 73 44 149 111 83 56 41
is_linear=0
shrinkage=0.05


Tree=25
num_leaves=12
num_cat=0
split_feature=9 3 0 9 9 11 11 0 11 8 13
split_gain=2.52499 1.98396 1.75056 1.49118 1.30874 2.1522 1.15936 2.19498 0.999145 0.66149 0.578493
threshold=-0.013914016561416739 0.68020578153164202 0.13965048234870872 -0.021417390121991255 -0.01063504390867692 59.357142857143124 259.18214285714339 0.006653350642415669 185.83214285714195 0.0089862311769671986 4.221631424150111e-05
decision_type=2 2 2 2 2 2 2 2 2 2 2
left_child=3 9 4 -1 -3 -6 7 -7 10 -2 -4
right_child=1 2 8 -5 5 6 -8 -9 -10 -11 -12
leaf_value=-0.0064024807931816821 0.037189244150538737 -0.081506327348867383 0.037139065119988046 0.069079831724512319 -0.075582963768862366 -0.030836968476591078 -0.051373263372765543 0.04612480421515705 -0.036245553093388297 -0.015884418652259574 -0.013062277524898708
leaf_weight=1.6197885442525151 1.3696909323334723 1.9950844086706663 1.2983233444392679 1.0977224837988639 2.5438000410795159 2.8829408101737499 2.1203502975404263 1.3651401326060293 1.6141895353794096 1.0275127179920671 1.0284312441945074
leaf_count=24 31 13 28 26 17 36 19 25 18 15 16
internal_value=-0.0207078 -0.0277667 -0.0345809 0.0240882 -0.0449005 -0.0367059 -0.0211769 -0.00610495 -0.00601945 0.0144403 0.0149499
internal_weight=19.963 17.2455 14.8483 2.71751 10.9073 8.91223 6.36843 4.24808 3.94094 2.3972 2.32675
internal_count=268 218 172 50 110 97 80 61 62 46 44
is_linear=0
shrinkage=0.05


Tree=26
num_leaves=11
num_cat=0
split_feature=9 0 9 9 1 9 0 8 0 1
split_gain=2.28138 1.57711 1.4046 1.25517 1.24614 0.809514 0.910733 3.28184 1.04191 1.08146
threshold=-0.013914016561416739 0.13965048234870872 -0.021417390121991255 -0.0059536527172735438 0.0016597198753529 -0.01063504390867692 0.0027846960086210207 0.0063598559238971118 0.011515824235555564 0.0022602283091667876
decision_type=2 2 2 2 2 2 2 2 2 2
left_child=2 5 -1 -3 -5 -2 7 -7 -8 -10
right_child=1 3 -4 4 -6 6 8 -9 9 -11
leaf_value=-0.0060727870581344205 -0.062440028120386563 0.037741440360825246 0.067895030800326411 0.011562186749450766 -0.05490142940314801 -0.049650535746608826 -0.056214183021170205 0.050523860590189845 0.007047837226487468 -0.050374388405146901
leaf_weight=1.6222755964845421 2.2334106527268913 1.4516745209693906 1.061942003667357 1.5122723300009959 1.3215356133878229 1.956242630258201 4.0495075918734074 1.4046913888305423 1.8477626126259568 1.4741014316678045
leaf_count=24 19 30 26 30 12 17 37 31 27 15
internal_value=-0.0196895 -0.0263615 0.0231907 -6.55076e-05 -0.0194329 -0.0350529 -0.0293536 -0.00778297 -0.0391886 -0.0184337
internal_weight=19.9354 17.2512 2.68422 4.28548 2.83381 12.9657 10.7323 3.36093 7.37137 3.32186
internal_count=268 218 50 72 42 146 127 48 79 42
is_linear=0
shrinkage=0.05


Tree=27
num_leaves=10
num_cat=0
split_feature=0 2 11 11 0 3 3 8 3
split_gain=1.47199 2.08554 2.11148 1.16606 0.876347 4.18767 2.70051 2.0129 0.432902
threshold=0.17325206151333675 0.0022437220582651532 185.83214285714195 54.200000000000344 0.010080074242616982 0.90761354084413182 0.95941342611272706 0.005692977658661477 0.98850022454401854
decision_type=2 2 2 2 2 2 2 2 2
left_child=3 2 8 -1 6 -6 7 -5 -2
right_child=1 -3 -4 4 5 -7 -8 -9 -10
leaf_value=-0.05548393874261498 -0.0062652994381912465 0.06487889339448559 -0.055907362392953901 -0.013447326649341172 -0.069696119139328161 0.01975403638579035 -0.037029786925599155 0.070182285965245714 0.03594832890755334
leaf_weight=2.8600403424352434 1.0977158118039363 1.1102361436933277 1.6597689986228941 1.4331263564527019 3.3287138007581234 2.1558243818581104 3.4556646142154932 1.4450023826211689 1.3594913296401498
leaf_count=25 19 29 15 20 26 32 37 35 30
internal_value=-0.0187228 0.00406173 -0.012339 -0.0268367 -0.0199041 -0.0345357 -0.00723432 0.02854 0.0170901
internal_weight=19.9056 5.22721 4.11698 14.6784 11.8183 5.48454 6.33379 2.87813 2.45721
internal_count=268 93 64 175 150 58 92 55 49
is_linear=0
shrinkage=0.05


Tree=28
num_leaves=11
num_cat=0
split_feature=9 3 7 9 0 3 8 0 9 1
split_gain=1.97384 1.79337 2.53843 1.32795 1.32169 2.36418 1.9445 1.79847 1.60789 1.60041
threshold=-0.013914016561416739 0.68020578153164202 -0.31249999999999994 -0.021417390121991255 0.01168663171568784 0.98331785820957995 0.005692977658661477 0.0024087659639753429 -0.0032193573540288136 0.0027955039664138734
decision_type=2 2 2 2 2 2 2 2 2 2
left_child=3 2 -2 -1 6 -6 -3 -8 9 -7
right_child=1 4 -4 -5 5 8 7 -9 -10 -11
leaf_value=-0.0058230021248531433 -0.037946298111998261 -0.06488464949874935 0.065045190624214849 0.067003121082041456 -0.043289661638620906 0.070477498431985697 0.02533911532997828 -0.054079208074034379 -0.03481956649844288 -0.012611678124794586
leaf_weight=1.6111433710902932 1.1400011442601683 4.7036181278526765 1.2590099610388303 1.0236783288419271 3.6894418019801378 1.4400683939456982 1.4926960822194817 1.364477679133415 1.1499157287180386 0.96984347701072682
leaf_count=24 13 32 33 26 39 33 28 13 13 14
internal_value=-0.0178297 -0.024 0.016104 0.0224713 -0.0304963 -0.015242 -0.0451221 -0.0125881 0.0138269 0.0370391
internal_weight=19.8439 17.2091 2.39901 2.63482 14.8101 7.24927 7.56079 2.85717 3.55983 2.40991
internal_count=268 218 46 50 172 99 73 41 60 47
is_linear=0
shrinkage=0.05


Tree=29
num_leaves=11
num_cat=0
split_feature=11 11 0 0 13 12 0 7 13 0
split_gain=1.20297 2.15784 1.51245 2.46731 1.3425 1.75068 0.726681 0.587785 0.454137 0.000453531
threshold=301.8035714285723 259.18214285714339 0.053838036800033774 0.98005135519077358 4.221631424150111e-05 0.68750000000000011 0.0091319879585991821 0.68750000000000011 -0.00019434816247743841 0.0022564948664488796
decision_type=2 2 2 2 2 2 2 2 2 2
left_child=1 2 4 8 6 -6 9 -5 -4 -1
right_child=-2 -3 3 7 5 -7 -8 -9 -10 -11
leaf_value=-0.021159947284675726 0.016903861537703554 -0.070898438970276659 0.02126786249898583 0.0025721622772068662 0.031694492127668117 -0.036333094675481042 -0.054185842234917916 -0.043955527140774255 0.069604263938175967 -0.022332538427032495
leaf_weight=1.5757170841097887 2.3087925650179377 1.9621594287455071 0.81362704001367125 1.2487606555223467 1.9265085980296137 1.8577527757734058 3.6262837424874306 1.4871733803302047 1.2065264936536539 1.7299553640186784
leaf_count=20 37 13 17 24 37 21 32 17 30 20
internal_value=-0.0170118 -0.0215031 -0.015239 0.00822651 -0.0256534 -0.00170131 -0.0387293 -0.0227189 0.0501365 -0.0217736
internal_weight=19.7433 17.4345 15.4723 4.75609 10.7162 3.78426 6.93196 2.73593 2.02015 3.30567
internal_count=268 231 218 88 130 58 72 41 47 40
is_linear=0
shrinkage=0.05


Tree=30
num_leaves=10
num_cat=0
split_feature=2 2 0 3 0 8 0 13 5
split_gain=0.947002 1.59084 2.18382 0.787884 1.98398 1.28081 1.13957 2.85346 0.835871
threshold=0.00088533868556004249 0.0014630150106036911 0.0058662873273880346 1.0291500467067476 0.006653350642415669 0.0063598559238971118 0.0078001061950870839 -0.00031279522076160983 1.0000000180025095e-35
decision_type=2 2 2 2 2 2 2 2 2
left_child=-1 2 -2 4 5 -3 -5 -8 -6
right_child=1 3 -4 6 8 -7 7 -9 -10
leaf_value=-0.051802539567301513 -0.028459061907086122 -0.024984448265026677 0.067284232640726346 -0.036034880375960976 -0.059564968258137396 0.037488788817050277 -0.019811571362131242 0.071452170734529183 -0.021110580086090718
leaf_weight=1.9744245857000375 1.1157331503927737 1.9774084221571668 1.2775226524099705 2.1955224182456723 4.1717657744884491 1.4021799918264148 2.7277776878327136 1.2484740633517502 2.137053681537509
leaf_count=17 12 23 33 23 37 30 37 29 27
internal_value=-0.0189081 -0.01535 0.0226488 -0.0210839 -0.0299785 0.00093549 -0.00712125 0.00884366 -0.0465389
internal_weight=20.2279 18.2534 2.39326 15.8602 9.68841 3.37959 6.17177 3.97625 6.30882
internal_count=268 251 45 206 117 53 89 66 64
is_linear=0
shrinkage=0.05


Tree=31
num_leaves=12
num_cat=0
split_feature=2 2 0 9 9 8 9 6 12 13 9
split_gain=0.84956 1.44302 2.30225 1.06657 1.52532 1.24671 2.58784 1.42926 0.800119 0.515783 0.351028
threshold=0.00088533868556004249 0.0014630150106036911 0.003626660905151072 -0.020374339129400676 -0.0078782669431042285 0.0063598559238971118 -0.0052555043993084876 -0.68749999999999989 0.43750000000000006 -0.0001478423863079467 -0.011526278964022732
decision_type=2 2 2 2 2 2 2 2 2 2 2
left_child=-1 2 -2 -3 8 9 -7 -8 -5 -6 -10
right_child=1 3 -4 4 5 6 7 -9 10 -11 -12
leaf_value=-0.049123156282991728 -0.033569614516346671 -0.050601464704921356 0.066059945200429085 0.041703318622091388 -0.058785743203900467 -0.053139950738674481 -0.0080560805634867626 0.071288777415645654 0.012867977541710521 -0.027687962118812651 -0.022784008555670254
leaf_weight=1.9779107160866285 1.0406777374446421 2.4192623328417566 1.309471547603607 1.3842577412724519 2.3662202376872301 1.5838818475604073 1.1799806877970715 1.0935540087521043 1.387491352856159 3.0546580255031497 1.374261870980263
leaf_count=17 10 23 35 28 19 13 21 26 25 32 19
internal_value=-0.0180021 -0.0146188 0.0219426 -0.0200422 -0.0145349 -0.0258014 -0.00407405 0.0301082 0.010678 -0.0412622 -0.00487262
internal_weight=20.1716 18.1937 2.35015 15.8436 13.4243 9.27829 3.85742 2.27353 4.14601 5.42088 2.76175
internal_count=268 251 45 206 183 111 60 47 72 51 44
is_linear=0
shrinkage=0.05


Tree=32
num_leaves=12
num_cat=0
split_feature=2 2 0 9 9 8 9 3 9 13 9
split_gain=0.762652 1.31146 2.14797 0.948593 1.38166 1.11996 2.34771 1.64043 0.557737 0.469741 0.332169
threshold=0.00088533868556004249 0.0014630150106036911 0.003626660905151072 -0.020374339129400676 -0.0078782669431042285 0.0063598559238971118 -0.0052555043993084876 0.79183439401026712 -0.013013120821071004 -0.0001478423863079467 -0.011155539253107701
decision_type=2 2 2 2 2 2 2 2 2 2 2
left_child=-1 2 -2 -3 8 9 -7 -8 -5 -6 -10
right_child=1 3 -4 4 5 6 7 -9 10 -11 -12
leaf_value=-0.046634751891126758 -0.031922768001012333 -0.047801891506096705 0.065112523771391942 0.038235093920835191 -0.055974610199644309 -0.050495818934154217 -0.016495899659136084 0.069201619678725623 -0.01969164166894001 -0.026283356790836161 0.014273135125564336
leaf_weight=1.9792350344359899 1.0396710783243208 2.4325399585068253 1.2632702859118579 1.2405335437506435 2.3609284069389105 1.5834809392690674 1.0512225767597545 1.191191306337714 1.3705403413623569 3.0569425001740367 1.5162025745958119
leaf_count=17 10 23 35 27 19 13 17 30 17 32 28
internal_value=-0.0171663 -0.013945 0.0213056 -0.0190819 -0.0138569 -0.0245967 -0.00388606 0.0290274 0.0101967 -0.0392218 -0.00185234
internal_weight=20.0858 18.1065 2.30294 15.8036 13.371 9.24377 3.82589 2.24241 4.12728 5.41787 2.88674
internal_count=268 251 45 206 183 111 60 47 72 51 45
is_linear=0
shrinkage=0.05


Tree=33
num_leaves=12
num_cat=0
split_feature=2 2 0 9 9 8 9 3 7 13 8
split_gain=0.685428 1.19301 2.00612 0.845066 1.25258 1.00641 2.13287 1.5424 0.593775 0.86059 0.46967
threshold=0.00088533868556004249 0.0014630150106036911 0.003626660905151072 -0.020374339129400676 -0.0078782669431042285 0.0063598559238971118 -0.0052555043993084876 0.79183439401026712 0.89583333333333337 0.00022631280523479922 0.0023533563554721123
decision_type=2 2 2 2 2 2 2 2 2 2 2
left_child=-1 2 -2 -3 8 10 -7 -8 9 -5 -6
right_child=1 3 -4 4 5 6 7 -9 -10 -11 -12
leaf_value=-0.044314759798856788 -0.030367058526408544 -0.045214259156532544 0.064230897430052752 0.045284698719192884 -0.019133433358956328 -0.048034305517483923 -0.015585933425901054 0.068063242918373928 -0.01615392337824666 -0.013660525724602532 -0.049246460965082832
leaf_weight=1.9787165224552179 1.0383207015693217 2.4428846389055279 1.2177337035536764 1.6911193970590859 2.1455365959554822 1.5814415290951744 1.0568187842145551 1.1515639796853063 1.4382884465157983 0.97691205143928517 3.2658528871834278
leaf_count=17 10 23 35 38 26 13 17 30 19 15 25
internal_value=-0.0163817 -0.0133121 0.0206934 -0.018183 -0.0132208 -0.0234685 -0.00370882 0.028033 0.00974174 0.0237016 -0.0373071
internal_weight=19.9852 18.0065 2.25605 15.7504 13.3075 9.20121 3.78982 2.20838 4.10632 2.66803 5.41139
internal_count=268 251 45 206 183 111 60 47 72 53 51
is_linear=0
shrinkage=0.05


Tree=34
num_leaves=10
num_cat=0
split_feature=2 2 0 6 3 7 0 8 0
split_gain=0.616522 1.08631 1.8755 0.805654 2.38858 1.97976 0.885732 1.42081 1.63617
threshold=0.00088533868556004249 0.0014630150106036911 0.003626660905151072 1.0000000180025095e-35 0.79183439401026712 -0.68749999999999989 0.98271870025164387 0.0063598559238971118 0.014883560972711351
decision_type=2 2 2 2 2 2 2 2 2
left_child=-1 2 -2 4 -3 -6 7 8 -5
right_child=1 3 -4 6 5 -7 -8 -9 -10
leaf_value=-0.042144388239161355 -0.028895393317420661 -0.043177482299061598 0.063409312689665015 -0.059442368432055831 -0.0069015245919559669 0.066144064017732485 -0.05718601365224292 0.011641460137964249 -0.00098240258248081754
leaf_weight=1.976634550839665 1.0366845168173342 2.388454661704599 1.1729706376790998 2.816192699596284 2.5129154529422526 1.4703744649887083 1.8988426178693769 2.5142717678099871 2.0815435219556093
leaf_count=17 10 26 35 20 37 39 18 38 28
internal_value=-0.0156455 -0.0127181 0.0201035 -0.0173426 -0.00364325 0.0200622 -0.0267176 -0.0189121 -0.0345968
internal_weight=19.8689 17.8923 2.20966 15.6826 6.37174 3.98329 9.31085 7.41201 4.89774
internal_count=268 251 45 206 102 76 104 86 48
is_linear=0
shrinkage=0.05


Tree=35
num_leaves=9
num_cat=0
split_feature=11 0 0 5 0 14 14 6
split_gain=2.79393 2.37482 1.75044 1.89103 1.50256 1.79654 1.17043 0.00469617
threshold=297.59642857142745 0.026906809666476881 0.98005135519077358 1.0000000180025095e-35 0.0091319879585991821 1.0406824569558242 0.73583609896034985 0.68750000000000011
decision_type=2 2 2 2 2 2 2 2
left_child=1 4 3 7 5 6 -1 -3
right_child=-2 2 -4 -5 -6 -7 -8 -9
leaf_value=-0.015373900340430522 0.051825542221993315 0.066579422831865187 -0.023961375384136188 -0.00012928227054327708 -0.057946360520185182 -0.044983948094080184 0.044280776226718027 0.071881511697731423
leaf_weight=2.1105075199157057 1.7197071257978667 0.8810115735977877 2.6368146669119596 2.4006182700395584 3.356514872983098 3.0057887025177479 1.347028875723481 0.79401992075145245
leaf_count=28 33 23 39 36 28 27 27 18
internal_value=-0.00882884 -0.0151382 0.00778262 0.02832 -0.0308059 -0.0167114 0.00786709 0.0690928
internal_weight=18.252 16.5323 6.71246 4.07565 9.81984 6.46333 3.45754 1.67503
internal_count=259 226 116 77 110 82 55 41
is_linear=0
shrinkage=0.05


Tree=36
num_leaves=10
num_cat=0
split_feature=1 12 1 13 1 1 2 6 13
split_gain=2.03235 1.54592 2.64394 1.73102 0.993668 2.55987 0.670807 0.631165 0.533561
threshold=0.0030888694731115024 0.43750000000000006 0.0019088661074534831 -0.00049249493765758244 0.0024394501632640981 0.001605657396534528 0.0022924127853539479 0.93750000000000011 4.7940815331421937e-05
decision_type=2 2 2 2 2 2 2 2 2
left_child=1 2 3 -1 5 8 -7 -2 -3
right_child=7 4 -4 -5 -6 6 -8 -9 -10
leaf_value=-0.054031915291182148 0.049815419188519491 -0.055496703554401221 0.070699182414901612 0.013486958103202915 -0.055183458332277696 0.044077413797890257 -0.005538651304722109 0.0015339294625912672 -0.022884978506738769
leaf_weight=1.5721607636660335 1.6974033620208493 2.5549059174954873 1.2276706974953411 2.3959691785275967 2.3858234602957964 1.4427532535046341 1.2906286772340534 1.1258742045611143 2.4636660013347864
leaf_count=16 38 21 28 39 22 27 17 17 34
internal_value=-0.00842308 -0.0156011 0.00657508 -0.0132638 -0.0269668 -0.0182825 0.0206501 0.0305616 -0.0394873
internal_weight=18.1569 15.3336 5.1958 3.96813 10.1378 7.75195 2.73338 2.82328 5.01857
internal_count=259 204 83 55 121 99 44 55 55
is_linear=0
shrinkage=0.05


Tree=37
num_leaves=9
num_cat=0
split_feature=11 0 0 11 0 14 2 4
split_gain=2.42371 2.13559 1.50957 1.74313 1.36027 1.5834 1.11142 0.343009
threshold=297.59642857142745 0.026906809666476881 0.98005135519077358 194.41785714285706 0.0091319879585991821 1.0406824569558242 0.0023911040902228845 1.0000000180025095e-35
decision_type=2 2 2 2 2 2 2 2
left_child=1 4 3 7 5 6 -1 -3
right_child=-2 2 -4 -5 -6 -7 -8 -9
leaf_value=-0.01375178100941702 0.049279607075194881 0.069282361294902839 -0.021354617235725709 -0.012105232939846467 -0.054612454996852133 -0.041975958640267 0.045387893395144714 0.029480638104758039
leaf_weight=2.1691386848688183 1.6733228247612704 1.5065389201045034 2.6415553018450737 1.6461165342479942 3.3487536069005728 2.9721703566610813 1.2535525746643541 0.84487085789442051
leaf_count=29 33 39 39 21 28 27 26 17
internal_value=-0.00803988 -0.0138945 0.00797518 0.0273562 -0.028796 -0.0152768 0.00790798 0.0549814
internal_weight=18.056 16.3827 6.63908 3.99753 9.74362 6.39486 3.42269 2.35141
internal_count=259 226 116 77 110 82 55 56
is_linear=0
shrinkage=0.05


Tree=38
num_leaves=9
num_cat=0
split_feature=11 1 1 1 13 11 2 3
split_gain=2.21595 1.18976 1.22781 1.97866 0.988781 1.49607 0.930738 1.18936
threshold=297.59642857142745 0.0030888694731115024 0.0024394501632640981 0.0019088661074534831 -0.00036745151836998022 46.803571428571438 0.0013575007167301284 0.75448994303464911
decision_type=2 2 2 2 2 2 2 2
left_child=1 2 3 4 -1 -6 -7 -8
right_child=-2 -3 -4 -5 5 6 7 -9
leaf_value=-0.04682317183724187 0.047621319673684701 0.025838095965590259 -0.050550641357815833 0.035340624035604874 -0.036944167711399738 -0.023205083869758569 -0.01119270996929036 0.053698706695910828
leaf_weight=2.5959325674921283 1.6457225009798992 1.7387001626193512 2.4067425765097132 1.9044636096805323 3.2374935653060719 1.5652502737939356 1.2744467966258528 1.5834412574768064
leaf_count=27 33 36 24 35 34 21 17 32
internal_value=-0.00767456 -0.0132553 -0.0179212 -0.0114636 -0.0201543 -0.0111171 0.00778689 0.024761
internal_weight=17.9522 16.3065 14.5678 12.161 10.2566 7.66063 4.42314 2.85789
internal_count=259 226 190 166 131 104 70 49
is_linear=0
shrinkage=0.05


end of trees

feature_importances:
primary_proba=64
nearest_bear_fvg_dist=52
body_momentum_8=44
volatility_50=35
atr_14=33
displacement_ratio=31
nearest_bull_fvg_dist=29
volatility_20=25
structure_bias_16=18
range_expansion=17
structure_bias_48=7
buying_pressure_8=7
liquidity_swept_buy=3
htf_alignment=3
liquidity_swept_sell=2

parameters:
[boosting: gbdt]
[objective: binary]
[metric: binary_logloss]
[tree_learner: serial]
[device_type: cpu]
[data_sample_strategy: bagging]
[data: ]
[valid: ]
[num_iterations: 500]
[learning_rate: 0.05]
[num_leaves: 31]
[num_threads: 0]
[seed: 0]
[deterministic: 0]
[force_col_wise: 0]
[force_row_wise: 0]
[histogram_pool_size: -1]
[max_depth: -1]
[min_data_in_leaf: 20]
[min_sum_hessian_in_leaf: 0.001]
[bagging_fraction: 0.8]
[pos_bagging_fraction: 1]
[neg_bagging_fraction: 1]
[bagging_freq: 5]
[bagging_seed: 3]
[bagging_by_query: 0]
[feature_fraction: 0.8]
[feature_fraction_bynode: 1]
[feature_fraction_seed: 2]
[extra_trees: 0]
[extra_seed: 6]
[early_stopping_round: 0]
[early_stopping_min_delta: 0]
[first_metric_only: 0]
[max_delta_step: 0]
[lambda_l1: 0]
[lambda_l2: 0]
[linear_lambda: 0]
[min_gain_to_split: 0]
[drop_rate: 0.1]
[max_drop: 50]
[skip_drop: 0.5]
[xgboost_dart_mode: 0]
[uniform_drop: 0]
[drop_seed: 4]
[top_rate: 0.2]
[other_rate: 0.1]
[min_data_per_group: 100]
[max_cat_threshold: 32]
[cat_l2: 10]
[cat_smooth: 10]
[max_cat_to_onehot: 4]
[top_k: 20]
[monotone_constraints: ]
[monotone_constraints_method: basic]
[monotone_penalty: 0]
[feature_contri: ]
[forcedsplits_filename: ]
[refit_decay_rate: 0.9]
[cegb_tradeoff: 1]
[cegb_penalty_split: 0]
[cegb_penalty_feature_lazy: ]
[cegb_penalty_feature_coupled: ]
[path_smooth: 0]
[interaction_constraints: ]
[verbosity: -1]
[saved_feature_importance_type: 0]
[use_quantized_grad: 0]
[num_grad_quant_bins: 4]
[quant_train_renew_leaf: 0]
[stochastic_rounding: 1]
[linear_tree: 0]
[max_bin: 255]
[max_bin_by_feature: ]
[min_data_in_bin: 3]
[bin_construct_sample_cnt: 200000]
[data_random_seed: 1]
[is_enable_sparse: 1]
[enable_bundle: 1]
[use_missing: 1]
[zero_as_missing: 0]
[feature_pre_filter: 1]
[pre_partition: 0]
[two_round: 0]
[header: 0]
[label_column: ]
[weight_column: ]
[group_column: ]
[ignore_column: ]
[categorical_feature: ]
[forcedbins_filename: ]
[precise_float_parser: 0]
[parser_config_file: ]
[objective_seed: 5]
[num_class: 1]
[is_unbalance: 0]
[scale_pos_weight: 0.236364]
[sigmoid: 1]
[boost_from_average: 1]
[reg_sqrt: 0]
[alpha: 0.9]
[fair_c: 1]
[poisson_max_delta_step: 0.7]
[tweedie_variance_power: 1.5]
[lambdarank_truncation_level: 30]
[lambdarank_norm: 1]
[label_gain: ]
[lambdarank_position_bias_regularization: 0]
[eval_at: ]
[multi_error_top_k: 1]
[auc_mu_weights: ]
[num_machines: 1]
[local_listen_port: 12400]
[time_out: 120]
[machine_list_filename: ]
[machines: ]
[gpu_platform_id: -1]
[gpu_device_id: -1]
[gpu_use_dp: 0]
[num_gpu: 1]

end of parameters

pandas_categorical:null
