tree
version=v4
num_class=1
num_tree_per_iteration=1
label_index=0
max_feature_idx=68
objective=binary sigmoid:1
feature_names=Column_0 Column_1 Column_2 Column_3 Column_4 Column_5 Column_6 Column_7 Column_8 Column_9 Column_10 Column_11 Column_12 Column_13 Column_14 Column_15 Column_16 Column_17 Column_18 Column_19 Column_20 Column_21 Column_22 Column_23 Column_24 Column_25 Column_26 Column_27 Column_28 Column_29 Column_30 Column_31 Column_32 Column_33 Column_34 Column_35 Column_36 Column_37 Column_38 Column_39 Column_40 Column_41 Column_42 Column_43 Column_44 Column_45 Column_46 Column_47 Column_48 Column_49 Column_50 Column_51 Column_52 Column_53 Column_54 Column_55 Column_56 Column_57 Column_58 Column_59 Column_60 Column_61 Column_62 Column_63 Column_64 Column_65 Column_66 Column_67 Column_68
feature_infos=[-0.020763921571879673:0.012698801111393987] [0:1410] [0.31445086705203151:1] [0.0019646365422110405:1] [0:1] [0:7] [0:23] [0:1] [0:0.019817044299522069] [-0.032353292613496509:0.025000539984016523] [0.25839293753924975:7.9189422373574194] [0:39] [0:0.91194968553450773] [0:1] [0.26961483594862701:6.462235812573085] [7.7785714285717926:1307.2357142857113] [0:58] [-0.028709596831870441:0.036046334012219995] [-0.07209193418539421:-0.00022898822326215373] [0:7] [-0.038175068204365163:0.035538390081219819] [0:0.012795476405607928] [1:99] [0:7] [-0.00042760491721506876:0.077297962849250224] [1:98] [0.00030418218297797995:0.0081126842940945527] [0.00019017621014475546:0.031411183151408742] [8.7741532942071088e-05:0.11341621006926504] [9.4940000000000868:766.29599999999948] [-1:1] [0.0015856893477706939:0.065588000290549925] [2.4925348580637192e-06:0.021205262623011971] [-0.032353292613496509:0.025000539984016523] [-0.08006785506968675:0.00022082058815760686] [-0.06391331954459456:0.098084623920490221] [0:1] [0.00083244808071016745:0.054801336529381905] [-0.11501309406259384:-0.00022898822326215373] [-0.10172382025649485:0.097121282350135285] [-0.064867481544233288:0.063649160487019074] [-0.0332969854245245:0.031748411711353383] [-0.039206127157280744:0.05834593065782416] [-0.059622434749032185:0.024577420950982472] [0.00034241381333934234:0.0079227142759762757] [0.00022898822326215373:0.07209193418539421] [-0.004656317511802982:0.0038156140639955603] [-0.23516134425681329:-0.00022898822326215373] [0.00030791195540699491:0.009027604300075525] [-0.052838951274737034:0.048688563991633682] [0.000327281410627272:0.0084391548294401597] [0.00014125187106017097:0.046639659291575777] [-0.12902508560332429:0.065802183094590197] [0.0058631921824104233:0.99564729758598514] [0:14] [0:6] [-1:1] [0.1875:0.75] [0.3125:0.6875] [0.25:0.8125] [-0.11501309406259384:-0.00022898822326215373] [-0.032353292613496509:0.025000539984016523] [0:1] [0:1] [0.3125:0.6875] [0:1] [-0.052838951274737034:0.048688563991633682] [0.125:0.875] [0.125:0.875]
tree_sizes=1070 971 967 1192 1423 1424 1420 1522 1513 1410 1314 1313 1313 1419 1421 1197 1194 1204 1306 1307 1302 1311 1317 1312 1300 1203 1287 1299 1287 1286 1294 1396 1404 1174 1195 1312 1322 1103 1211 1209 1292 1522 1083 1189 1398 1191 1281 1288 1092 1288 1408 1417 1198 1413 1298 1527 1312 1400 1304 1529 1403 1312 1389 1400 1320 1085 1083 1198 1297 1305 1397 1299 1316 1397 1310 1637 1614 1636 1642 1404 1193 1307 1423 1198 1412 1301 1420 1631 1397 1414 1193 1306 1199 1297 1417 1413 1305 1531 1294 1414 1411 1413 1418 1412 1197 1318 1650 1194 1202 1419 1312 1654 1537 1314 1323 1640 1748 1664 1416 1197 1420 1412 1312 1309 1540 1540 1423 1327 1429 1418 1317 1299 1313 1316 1315 1530 1897 1884 1425 1311 1765 1216 1334 1326 1325 1433 1219 1652 1203 1315 1320 1308 1439 1427 1439 1212 1219 1118 1430 1448 1671 1215 1331 1678 1436 1426 1329 1217 1323 1333 1322 1434 1215 1575 1320

Tree=0
num_leaves=9
num_cat=0
split_feature=0 1 1 2 14 10 18 0
split_gain=143.087 41.1562 22.2793 26.8955 6.45247 2.64195 4.80058 7.10543e-15
threshold=-5.3587524007525637e-05 457.50000000000006 1050.0000000000002 0.64094656799075334 0.97618122553050635 1.5624010529424706 -0.013436812168396641 0.001439968211770948
decision_type=2 2 2 2 2 2 2 2
left_child=1 -1 3 -3 -5 6 -6 -2
right_child=7 2 -4 4 5 -7 -8 -9
leaf_value=-0.74523199147648023 -0.7765897267573717 -0.71171768326166818 -0.68837061892178586 -0.61501028464591601 -0.61604633906058692 -0.55093567788275855 -0.56360461967776843 -0.7765897267573717
leaf_weight=6.4334725737571707 12.85153102874756 4.664701133966445 8.0037870705127698 12.485445380210875 6.9113105833530417 9.8342149853706342 11.839978665113454 8.4199686050415021
leaf_count=27 58 18 29 36 20 22 28 38
internal_value=-0.665124 -0.62572 -0.611413 -0.597945 -0.585023 -0.571925 -0.582933 -0.77659
internal_weight=81.4444 60.1729 53.7394 45.7357 41.0709 28.5855 18.7513 21.2715
internal_count=276 180 153 124 106 70 48 96
is_linear=0
shrinkage=1


Tree=1
num_leaves=8
num_cat=0
split_feature=0 1 3 2 38 35 3
split_gain=127.725 35.7064 24.2795 13.8193 10.0556 3.62695 1.16047
threshold=-5.3587524007525637e-05 457.50000000000006 0.35422619047621134 0.76228162499644991 -0.01749044150322113 0.0029832963476937873 0.60139943389946315
decision_type=2 2 2 2 2 2 2
left_child=1 -1 -3 4 -4 6 -5
right_child=-2 2 3 5 -6 -7 -8
leaf_value=-0.041897710443452606 -0.072998598446642193 0.016440360415158849 0.0091124341505715838 0.11605689002546411 0.094665192687934607 0.093172971015705042 0.14015385529067093
leaf_weight=6.3373213261365882 20.716365337371826 10.873139947652815 5.8939837068319312 8.3246236145496422 8.2312479317188245 9.4522762894630414 12.496636122465132
leaf_count=27 96 38 21 20 22 25 27
internal_value=0.0344021 0.070516 0.0834051 0.0998046 0.0589669 0.118859 0.13052
internal_weight=82.3256 61.6092 55.2719 44.3988 14.1252 30.2735 20.8213
internal_count=276 180 153 115 43 72 47
is_linear=0
shrinkage=0.05


Tree=2
num_leaves=8
num_cat=0
split_feature=4 1 3 5 1 43 24
split_gain=109.945 45.9278 19.9315 20.1708 9.71144 4.34552 2.26429
threshold=1.0000000180025095e-35 427.50000000000006 0.54822872174575465 1.5000000000000002 982.50000000000011 -0.012462565537968736 0.0028523829403080164
decision_type=2 2 2 2 2 2 2
left_child=1 -1 3 -3 -5 -4 -7
right_child=-2 2 5 4 -6 6 -8
leaf_value=-0.072653813622616137 -0.071379544231012351 -0.030534577372821448 0.072501690137737856 0.09205422920836627 0.018525191647923874 0.096655790471998015 0.12935951550474703
leaf_weight=5.5784308910369864 19.512093365192413 6.4145833700895336 7.2786681056022671 15.265961572527887 6.3620755672454825 8.5281817913055438 13.950674533843992
leaf_count=26 93 25 20 39 22 21 30
internal_value=0.0324029 0.0643539 0.0775769 0.0473311 0.070425 0.10608 0.116952
internal_weight=82.8907 63.3786 57.8001 28.0426 21.628 29.7575 22.4789
internal_count=276 183 157 86 61 71 51
is_linear=0
shrinkage=0.05


Tree=3
num_leaves=10
num_cat=0
split_feature=0 1 3 12 14 8 12 9 0
split_gain=103.383 27.5052 18.7061 7.54261 6.31027 4.14447 1.29504 2.36984e-06 7.70741e-09
threshold=-5.3587524007525637e-05 457.50000000000006 0.35422619047621134 0.088763904084619275 1.0122662217345626 0.00057809879776372323 0.01907656679695343 -0.0010218880957141849 0.00061610917618282201
decision_type=2 2 2 2 2 2 2 2 2
left_child=1 -1 -3 5 -5 6 -4 -2 -9
right_child=7 2 3 4 -6 -7 -8 8 -10
leaf_value=-0.03906702645060664 -0.069948854995775592 0.013731262669825915 0.095269818902621164 0.018099937495531411 0.083739629170664909 0.069071074642777772 0.11979229723481158 -0.069904140128553602 -0.069906673885368961
leaf_weight=6.1386688947677603 4.0769830048084286 11.025783225893973 8.4538283944129997 6.1278253495693198 9.0971408635377866 7.9487587660551062 14.825579866766928 4.0732175111770621 11.405634880065916
leaf_count=27 20 38 20 20 23 21 31 20 56
internal_value=0.0306282 0.0615348 0.072279 0.0861754 0.0573206 0.100243 0.110887 -0.0699149 -0.069906
internal_weight=83.1734 63.6176 57.4789 46.4531 15.225 31.2282 23.2794 19.5558 15.4789
internal_count=276 180 153 115 43 72 51 96 76
is_linear=0
shrinkage=0.05


Tree=4
num_leaves=12
num_cat=0
split_feature=0 3 23 7 0 21 45 29 44 66 9
split_gain=93.5688 23.2151 16.7615 12.6197 6.96131 5.15184 2.94134 2.64234 1.99851e-06 7.06751e-09 1.32147e-10
threshold=-5.3587524007525637e-05 0.38538203637215213 2.5000000000000004 1.0000000180025095e-35 -0.0023246893143282206 0.00083327813037361827 0.0085542948990012437 141.87119999999956 0.0014556161821635699 -0.00094927646407272348 0.00077062685803819264
decision_type=2 2 2 2 2 2 2 2 2 2 2
left_child=1 2 5 4 -3 -1 -5 -8 -2 -10 -11
right_child=8 3 -4 6 -6 -7 7 -9 9 10 -12
leaf_value=-0.0019832252810080631 -0.06860178853908637 0.06432861260128947 0.063787190500415022 0.11594021444899182 -0.0062754291987279194 -0.074936742343456444 0.098245340006081705 0.062496279576991491 -0.068560009336182393 -0.068562241726178239 -0.068562602480751952
leaf_weight=5.3861631304025668 3.9524397552013424 9.5528704077005369 7.7210085093975058 10.384906738996508 5.5018873065710059 4.3942975699901581 12.524885207414629 8.8010490387678129 3.9485390186309841 3.9487572163343376 7.1078257262706757
leaf_count=20 20 26 22 21 20 20 28 23 20 20 36
internal_value=0.0290439 0.0578382 0.00871499 0.076222 0.0385258 -0.0347608 0.0941184 0.083492 -0.0685702 -0.0685618 -0.0685625
internal_weight=83.2246 64.2671 17.5015 46.7656 15.0548 9.78046 31.7108 21.3259 18.9576 15.0051 11.0566
internal_count=276 180 62 118 46 40 72 51 96 76 56
is_linear=0
shrinkage=0.05


Tree=5
num_leaves=12
num_cat=0
split_feature=0 7 13 34 43 16 59 34 0 9 26
split_gain=87.8414 22.7936 24.4167 6.61579 5.87289 4.07239 2.47125 2.25922 0.0353905 3.35618e-10 8.44871e-11
threshold=-0.00029335130816982019 1.0000000180025095e-35 1.0000000180025095e-35 -0.0079142759489415921 -0.0089925510852586852 10.500000000000002 0.59375000000000011 -0.0053398153342728563 0.00039738933853561425 -0.00036264058064888744 0.0016706757390954699
decision_type=2 2 2 2 2 2 2 2 2 2 2
left_child=1 2 5 -4 -3 -1 8 -6 -2 -10 -11
right_child=6 4 3 -5 7 -7 -8 -9 9 10 -12
leaf_value=-0.07346498273253152 -0.072544399508963339 0.051747951804332608 0.086959968353062675 0.023233169217428407 0.074847638175112571 -0.0079605130356619324 -0.027148639118516078 0.1058400916839824 -0.067331871626050269 -0.067332249697630034 -0.067332557456590322
leaf_weight=5.1468924880027789 4.3456805795431199 11.524503290653227 8.7610168159008044 7.6104474067687979 9.1626642495393735 4.4021104723215103 4.5255187153816214 16.413449198007587 3.8229982107877776 3.8230385780334402 5.3523000627756119
leaf_count=24 21 31 21 24 22 17 20 34 20 20 28
internal_value=0.0262875 0.0562492 0.0202741 0.0573359 0.0813834 -0.0432673 -0.0600527 0.094737 -0.0686382 -0.0673323 -0.0673324
internal_weight=84.8906 63.0211 25.9205 16.3715 37.1006 9.549 21.8695 25.5761 17.344 12.9983 9.17534
internal_count=282 173 86 45 87 41 109 56 89 68 48
is_linear=0
shrinkage=0.05


Tree=6
num_leaves=12
num_cat=0
split_feature=4 2 3 7 43 8 21 35 57 32 9
split_gain=69.3125 23.6444 15.9337 7.48621 9.24494 4.4247 1.9957 2.24239 0.000188496 1.20371e-06 1.24739e-10
threshold=1.0000000180025095e-35 0.64094656799075334 0.35422619047621134 1.0000000180025095e-35 -0.0048273432873130852 0.00074252241434421141 0.00059477475597744932 -0.000952737048935559 0.46875000000000006 0.00070889289963021031 0.00077062685803819264
decision_type=2 2 2 2 2 2 2 2 2 2 2
left_child=1 -1 5 4 -4 -3 -5 -8 -2 -10 -11
right_child=8 2 3 6 -6 -7 7 -9 9 10 -12
leaf_value=-0.037559562570569756 -0.066597025537511984 0.030392511745598025 0.072855735670430785 0.096560743911304828 -0.0034271563117720923 -0.033397101868872202 0.089485323459377805 0.053158881304490251 -0.066169923786638357 -0.066203469187858605 -0.066203844138624068
leaf_weight=7.2947742938995352 3.7412741333246258 6.5321645587682706 9.99795910716057 15.801176354289053 6.5896416604518881 4.656223252415657 8.7662162184715235 8.2427299469709432 3.6930491328239432 3.6969750523567182 5.5455276519060135
leaf_count=29 20 22 25 33 24 19 19 21 20 20 30
internal_value=0.0250461 0.047484 0.0577235 0.0699267 0.0425514 0.00384546 0.0837667 0.0718811 -0.0662845 -0.0661941 -0.0662037
internal_weight=84.5577 67.8809 60.5861 49.3977 16.5876 11.1884 32.8101 17.0089 16.6768 12.9356 9.2425
internal_count=282 192 163 122 49 41 73 40 90 70 50
is_linear=0
shrinkage=0.05


Tree=7
num_leaves=13
num_cat=0
split_feature=0 7 13 34 18 16 35 57 16 0 58 9
split_gain=73.294 18.5285 21.3327 5.72522 5.47227 3.81783 2.77115 2.38965 1.71364 0.0394722 2.44807e-09 6.23057e-11
threshold=-0.00029335130816982019 1.0000000180025095e-35 1.0000000180025095e-35 -0.0079142759489415921 -0.012184475583946511 10.500000000000002 -0.0080434945239247751 0.40625000000000006 6.5000000000000009 0.00039738933853561425 0.51562500000000011 0.0028328879684137447
decision_type=2 2 2 2 2 2 2 2 2 2 2 2
left_child=1 2 5 -4 6 -1 -3 -2 -6 -9 -11 -12
right_child=7 4 3 -5 8 -7 -8 9 -10 10 11 -13
leaf_value=-0.071883809922988345 -0.02510314295602983 0.070365855028407573 0.07955728973486581 0.020587632635035651 0.075037444573204104 -0.0080064361971160739 0.028534769214854219 -0.070810273529726686 0.10325186993373972 -0.065164352869804348 -0.065165661535182703 -0.065165953346791858
leaf_weight=5.0096236914396304 4.4061401486396816 8.4806920737028104 8.8927495777606982 7.6626365482807151 10.495350286364557 4.3881603330373764 7.4258350133895865 4.1568223387002972 11.045315325260161 4.8210036009550077 3.7498425543308258 3.5713151842355728
leaf_count=24 20 20 21 24 24 17 21 21 22 27 21 20
internal_value=0.0239037 0.0505775 0.0181093 0.0522633 0.07308 -0.0420572 0.0508373 -0.0577732 0.0895048 -0.0666049 -0.0651652 -0.0651658
internal_weight=84.1055 63.4004 25.9532 16.5554 37.4472 9.39778 15.9065 20.7051 21.5407 16.299 12.1422 7.32116
internal_count=282 173 86 45 87 41 41 109 46 89 68 41
is_linear=0
shrinkage=0.05


Tree=8
num_leaves=13
num_cat=0
split_feature=0 7 13 11 18 16 57 2 16 0 58 3
split_gain=66.8322 16.6391 19.2638 5.41626 4.96158 3.62966 2.34497 2.03538 1.55003 0.0328959 2.00934e-09 5.37064e-11
threshold=-0.00029335130816982019 1.0000000180025095e-35 1.0000000180025095e-35 5.5000000000000009 -0.012184475583946511 10.500000000000002 0.40625000000000006 0.80890464785574767 6.5000000000000009 0.00039738933853561425 0.51562500000000011 0.46424078815540842
decision_type=2 2 2 2 2 2 2 2 2 2 2 2
left_child=1 2 5 -4 7 -1 -2 -3 -6 -8 -11 -12
right_child=6 4 3 -5 8 -7 9 -9 -10 10 11 -13
leaf_value=-0.070384466683402355 -0.024110914683833778 0.029005364222812937 0.075897684108600594 0.018711612142941685 0.071238765580722604 -0.0076259793507488863 -0.069445505190654566 0.0648328556995654 0.098066957099538068 -0.064207685298962411 -0.064209158003081301 -0.064208882214232155
leaf_weight=4.864209324121477 4.3593077361583736 7.4002609699964514 8.9235773384571093 7.7249453365802756 10.501945525407793 4.3770216107368469 4.0298094004392615 8.5376379638910276 11.047515809535978 4.6524645090103132 3.6187928020954132 3.4464319795370102
leaf_count=24 20 21 21 24 24 17 21 20 22 27 21 20
internal_value=0.0228602 0.0480582 0.01723 0.0493632 0.0693489 -0.0406595 -0.0565646 0.0481975 0.0849925 -0.0655487 -0.0642085 -0.064209
internal_weight=83.4839 63.3771 25.8898 16.6485 37.4874 9.24123 20.1068 15.9379 21.5495 15.7475 11.7177 7.06522
internal_count=282 173 86 45 87 41 109 41 46 89 68 41
is_linear=0
shrinkage=0.05


Tree=9
num_leaves=12
num_cat=0
split_feature=0 2 1 1 9 16 42 1 0 9 1
split_gain=61.0673 15.3078 10.0165 8.39807 4.62618 4.34932 2.36735 0.467683 0.0184947 0.000545858 6.50859e-06
threshold=-0.00029335130816982019 0.65413643380584074 1050.0000000000002 547.50000000000011 -0.0053938714879204755 5.5000000000000009 0.0021657930931492891 787.50000000000011 0.00046428515687590993 -0.00061444688699419092 427.50000000000006
decision_type=2 2 2 2 2 2 2 2 2 2 2
left_child=1 -1 3 -3 -5 -6 -2 -7 -8 -10 -11
right_child=6 2 -4 4 5 7 8 -9 9 10 -12
leaf_value=-0.019473671292167007 -0.022389409584102005 0.016473027084273364 -0.00032482566855210337 0.038511515251235917 0.051973482657851948 0.084846902531162033 -0.067594616234188082 0.099162580391817162 -0.064117048492410275 -0.063415953382246426 -0.063324424454843417
leaf_weight=7.8710319101810446 4.2451242953538921 8.011551231145857 7.1166322231292716 8.0035916864871961 9.2202252894639951 10.505771666765215 3.8554324358701697 12.485325485467909 3.4264987409114838 3.3344818353652936 4.6519386917352676
leaf_count=29 20 29 24 21 23 22 21 25 20 20 28
internal_value=0.0219019 0.0457695 0.0550486 0.0632199 0.0725327 0.080986 -0.0554176 0.092621 -0.0646006 -0.0635891 -0.0633626
internal_weight=82.7276 63.2141 55.3431 48.2265 40.2149 32.2113 19.5135 22.9911 15.2684 11.4129 7.98642
internal_count=282 173 144 120 91 70 109 47 89 68 48
is_linear=0
shrinkage=0.05


Tree=10
num_leaves=11
num_cat=0
split_feature=0 3 17 2 46 7 37 57 42 32
split_gain=55.4417 21.5709 11.6652 11.06 4.9563 9.11233 1.2824 0.000980349 6.69791e-05 2.17462e-06
threshold=-5.3587524007525637e-05 0.38538203637215213 0.00038725509057331526 0.67450544715324667 -0.00017658868461694637 1.0000000180025095e-35 0.0089516867467961479 0.46875000000000006 0.0039047764794675594 0.0013768004197087555
decision_type=2 2 2 2 2 2 2 2 2 2
left_child=1 2 -1 -3 6 -6 -5 -2 -9 -10
right_child=7 3 -4 4 5 -7 -8 8 9 -11
leaf_value=0.027484141816789154 -0.063454341079460394 -0.0049870061390750453 -0.060460035572485665 0.094504553984016609 0.0091280158743014036 0.075799905721500457 0.070747414830528654 -0.062749496319955661 -0.062450701324700687 -0.062505117999295104
leaf_weight=9.2329189181327802 4.3319385051727286 5.9879192262887946 6.373640462756156 12.397842347621916 8.3071692287921941 13.378193467855453 10.483756735920904 3.3986466526985151 3.1922855228185654 4.3210607469081879
leaf_count=31 26 20 28 25 28 29 24 21 20 27
internal_value=0.0231459 0.0429524 -0.00843182 0.058815 0.0673873 0.0502594 0.0836196 -0.062818 -0.0625653 -0.062482
internal_weight=81.4054 66.1614 15.6066 50.5549 44.567 21.6854 22.8816 15.2439 10.912 7.51335
internal_count=279 185 59 126 106 57 49 94 68 47
is_linear=0
shrinkage=0.05


Tree=11
num_leaves=11
num_cat=0
split_feature=0 2 8 38 10 12 30 67 42 50
split_gain=50.9781 15.1329 12.1843 13.1854 9.91115 3.84217 1.04219 0.000715913 8.50046e-05 5.96412e-06
threshold=-5.3587524007525637e-05 0.65413643380584074 0.00057809879776372323 -0.016527795268348258 0.62913987778555724 0.086579882439546188 1.0000000180025095e-35 0.43750000000000006 0.0039047764794675594 0.0025052707096743488
decision_type=2 2 2 2 2 2 2 2 2 2
left_child=1 -1 4 -4 -3 6 -6 -2 -9 -10
right_child=7 2 3 -5 5 -7 -8 8 9 -11
leaf_value=-0.026812620591524061 -0.062623130654547748 -0.0012525407204938945 0.04975803496918782 -0.034756867865214557 0.07146475833302747 0.047705636694867715 0.092892986309334957 -0.062049434822927574 -0.061697878124815975 -0.061785955530665494
leaf_weight=7.3118053823709479 3.8534902334213248 4.8555285781621924 11.9734493046999 7.5092336833477011 8.7588121294975299 9.3196732401847822 16.112938940525055 3.1256427168846113 3.9947728216648102 3.7042569220066071
leaf_count=28 24 18 31 29 20 25 34 20 26 24
internal_value=0.0222228 0.0410072 0.0494796 0.0171834 0.065594 0.0750869 0.0853468 -0.0620379 -0.0618295 -0.0617403
internal_weight=80.5196 65.8414 58.5296 19.4827 39.047 34.1914 24.8718 14.6782 10.8247 7.69903
internal_count=279 185 157 60 97 79 54 94 70 50
is_linear=0
shrinkage=0.05


Tree=12
num_leaves=11
num_cat=0
split_feature=0 3 17 2 46 3 37 57 42 32
split_gain=46.8865 18.8184 10.3693 9.26335 4.49099 3.79788 1.25068 0.000685368 4.523e-05 1.50144e-06
threshold=-5.3587524007525637e-05 0.38538203637215213 0.00038725509057331526 0.67450544715324667 -0.00017658868461694637 0.5504332266929044 0.0089516867467961479 0.46875000000000006 0.0039047764794675594 0.0013768004197087555
decision_type=2 2 2 2 2 2 2 2 2 2
left_child=1 2 -1 -3 6 -6 -5 -2 -9 -10
right_child=7 3 -4 4 5 -7 -8 8 9 -11
leaf_value=0.024547933178656153 -0.061866391319582749 -0.0044118263051733898 -0.058711032649023588 0.08841208535103906 0.015045416422959793 0.060083608060332194 0.064810986703725718 -0.061251688812690878 -0.060996239154306742 -0.061043231299228395
leaf_weight=9.3085784465074521 4.0188120454549781 5.9650865793228141 6.2508511841297141 12.18465146422386 6.9002551287412706 14.552466586232184 10.40842345356941 3.1478113532066327 2.9554244577884674 4.0008735954761505
leaf_count=31 26 20 28 25 21 36 24 21 20 27
internal_value=0.0213229 0.0391218 -0.00890056 0.0540625 0.0619817 0.0455971 0.0775393 -0.0613141 -0.0610944 -0.0610233
internal_weight=79.6932 65.5703 15.5594 50.0109 44.0458 21.4527 22.5931 14.1229 10.1041 6.9563
internal_count=279 185 59 126 106 57 49 94 68 47
is_linear=0
shrinkage=0.05


Tree=13
num_leaves=12
num_cat=0
split_feature=5 3 31 7 27 21 16 9 57 42 3
split_gain=41.4209 18.4067 9.76968 7.06232 11.0164 5.4258 3.77937 2.60688 0.00046168 2.64398e-05 1.26627e-06
threshold=1.0000000180025095e-35 0.38538203637215213 0.0093350055650762327 1.0000000180025095e-35 0.0044735362390303053 0.00045109997729695202 10.500000000000002 -0.0022255765168682769 0.46875000000000006 0.0039047764794675594 0.45458651390680066
decision_type=2 2 2 2 2 2 2 2 2 2 2
left_child=8 2 -2 4 -3 -5 -4 -7 -1 -10 -11
right_child=1 3 6 5 -6 7 -8 -9 9 10 -12
leaf_value=-0.061092482471264524 0.035850602589031853 -0.019985364821830096 -0.073628345475328857 0.085073946617567939 0.064944843039859854 0.02591128578176018 -0.0095174548486970673 0.06397179813059771 -0.060551980466007772 -0.060345391712618157 -0.060389408514901079
leaf_weight=3.5565465986728659 6.7123880684375754 7.4705581068992597 4.8808254897594434 16.401711761951447 7.8096478432416916 8.8230607509612984 4.3453362137079239 9.1798679381609016 2.8770862817764264 2.8407967984676361 3.8459442555904388
leaf_count=24 21 28 24 34 19 24 17 21 20 20 27
internal_value=0.0204952 0.0367101 -0.0100436 0.0517084 0.0234221 0.0642712 -0.0434334 0.0453187 -0.0606061 -0.0604252 -0.0603707
internal_weight=78.7438 65.6234 15.9385 49.6848 15.2802 34.4046 9.22616 18.0029 13.1204 9.56383 6.68674
internal_count=279 188 62 126 47 79 41 45 91 67 47
is_linear=0
shrinkage=0.05


Tree=14
num_leaves=12
num_cat=0
split_feature=0 3 17 2 43 45 9 53 57 42 27
split_gain=39.8797 15.6497 9.16714 6.08156 4.19771 7.01029 2.52372 0.854271 0.000464109 2.9348e-05 1.06091e-06
threshold=-5.3587524007525637e-05 0.38538203637215213 0.00038725509057331526 0.68289028284823816 -0.0048273432873130852 0.0054883561178902017 -0.0050755909767011822 0.57345999380600809 0.46875000000000006 0.0039047764794675594 0.0026818043970804274
decision_type=2 2 2 2 2 2 2 2 2 2 2
left_child=1 2 -1 -3 6 -6 -5 -8 -2 -10 -11
right_child=8 3 -4 4 5 -7 7 -9 9 10 -12
leaf_value=0.022860587799402452 -0.060483646094553693 0.0061789234330312205 -0.056136330369405463 0.043955873876411339 0.062334508103751574 -0.0077867173810830933 0.087964843300271656 0.067078867758614755 -0.05995462372727052 -0.059739505948214346 -0.059780612762022005
leaf_weight=9.3505905717611295 3.7145122140645972 6.9323175847530356 6.0476222336292258 7.5891982913017229 9.3361651897430473 5.7654254585504523 10.172562062740328 9.4382410794496518 2.9068254977464658 2.7289448529481888 3.6946990638971329
leaf_count=31 26 22 28 19 23 19 21 22 21 20 27
internal_value=0.0197337 0.0358289 -0.00816532 0.0495884 0.0567023 0.0355639 0.0684384 0.0779129 -0.060011 -0.0598228 -0.0597631
internal_weight=77.6771 64.6321 15.3982 49.2339 42.3016 15.1016 27.2 19.6108 13.045 9.33047 6.42364
internal_count=279 185 59 126 104 42 62 43 94 68 47
is_linear=0
shrinkage=0.05


Tree=15
num_leaves=10
num_cat=0
split_feature=0 2 1 1 12 12 57 42 0
split_gain=36.7418 15.2852 11.398 6.12787 3.40502 2.11666 0.000401389 2.81353e-05 2.16028e-06
threshold=-5.3587524007525637e-05 0.64094656799075334 1050.0000000000002 472.50000000000006 0.039187176078187259 0.088763904084619275 0.46875000000000006 0.0039047764794675594 0.001161464610382801
decision_type=2 2 2 2 2 2 2 2 2
left_child=1 -1 3 -3 -5 -6 -2 -8 -9
right_child=6 2 -4 4 5 -7 7 8 -10
leaf_value=-0.036221559680608612 -0.059891217142733912 0.0074350400747706423 -0.018203102642907195 0.037790655207829676 0.080271269926981859 0.051756063538168529 -0.059382975698638089 -0.059156454730146149 -0.059213363790272235
leaf_weight=7.0508690625429145 3.1624671667814246 6.96395020186901 6.859920233488082 13.55889283120632 15.800115197896959 11.065679237246512 2.6597235351800901 2.6163626909255981 4.5985058397054672
leaf_count=29 23 27 24 36 34 28 20 20 35
internal_value=0.0168223 0.0330333 0.0420346 0.0507545 0.0582172 0.0685262 -0.059401 -0.059244 -0.0591927
internal_weight=74.3365 61.2994 54.2486 47.3886 40.4247 26.8658 13.0371 9.87459 7.21487
internal_count=276 178 149 125 98 62 98 75 55
is_linear=0
shrinkage=0.05


Tree=16
num_leaves=10
num_cat=0
split_feature=0 1 1 3 16 38 59 42 3
split_gain=33.9968 12.5957 7.90583 5.28636 6.29491 8.40805 0.000336196 2.35592e-05 1.82449e-06
threshold=-5.3587524007525637e-05 1050.0000000000002 472.50000000000006 0.70786280310066585 11.500000000000002 -0.011239759784292985 0.53125000000000011 0.0039047764794675594 0.36398780901292299
decision_type=2 2 2 2 2 2 2 2 2
left_child=1 2 -1 4 5 -4 7 -2 -9
right_child=6 -3 3 -5 -6 -7 -8 8 -10
leaf_value=-0.0043418712078805051 -0.058842088269042726 -0.02628482343897684 -0.016661833064227059 0.073866817612529223 0.06158175312717027 0.056042956694152192 -0.059316802561327688 -0.058630349492585193 -0.058683739705481845
leaf_weight=8.259571358561514 2.552672900259493 8.1304609924554807 8.9343415796756691 14.375189006328581 13.953249618411062 7.166141092777262 3.0366228818893424 2.5104868486523628 4.4127486646175385
leaf_count=34 20 30 30 32 34 18 23 20 35
internal_value=0.016198 0.0316397 0.0405782 0.048929 0.0370009 0.0156982 -0.058859 -0.0587123 -0.0586644
internal_weight=73.3315 60.819 52.6885 44.4289 30.0537 16.1005 12.5125 9.47591 6.92324
internal_count=276 178 148 114 82 48 98 75 55
is_linear=0
shrinkage=0.05


Tree=17
num_leaves=10
num_cat=0
split_feature=0 14 1 8 16 50 57 49 3
split_gain=31.4766 11.7554 15.1952 6.84367 7.46586 3.70274 0.000282043 1.29858e-05 8.82826e-07
threshold=-5.3587524007525637e-05 0.60398967689046268 1050.0000000000002 0.00057809879776372323 11.500000000000002 0.0019548547681692402 0.46875000000000006 0.0012349791439685289 0.39802140379510148
decision_type=2 2 2 2 2 2 2 2 2
left_child=1 -1 3 5 -5 -3 -2 -8 -9
right_child=6 2 -4 4 -6 -7 7 8 -10
leaf_value=-0.043909995075075529 -0.058780759048511037 0.079490376188164305 -0.031078485602289149 -0.0066595029456363091 0.056428568530835069 0.04404683514027892 -0.058297098948141446 -0.05814841900762472 -0.058187729492738177
leaf_weight=4.9024210572242728 2.9141975715756407 14.918164804577829 7.1654124855995169 9.8494950383901614 8.9513540714979154 14.560831502079962 3.1725083738565427 2.409761480987072 3.5064572542905807
leaf_count=21 23 34 27 34 23 39 26 20 29
internal_value=0.0155959 0.0303039 0.0368659 0.0469498 0.0233776 0.0619834 -0.0583527 -0.0582155 -0.0581717
internal_weight=72.3506 60.3477 55.4453 48.2798 18.8008 29.479 12.0029 9.08873 5.91622
internal_count=276 178 157 130 57 73 98 75 49
is_linear=0
shrinkage=0.05


Tree=18
num_leaves=11
num_cat=0
split_feature=0 2 3 5 30 47 35 57 49 3
split_gain=29.1624 13.6539 7.48806 13.2652 9.1273 2.39851 2.45681 0.000236966 1.09095e-05 7.40748e-07
threshold=-5.3587524007525637e-05 0.64094656799075334 0.52341572623018073 2.5000000000000004 0.27083333333333343 -0.030945229229727724 -0.00017212203105720911 0.46875000000000006 0.0012349791439685289 0.39802140379510148
decision_type=2 2 2 2 2 2 2 2 2 2
left_child=1 -1 3 4 -3 -4 -7 -2 -9 -10
right_child=7 2 5 -5 -6 6 -8 8 9 -11
leaf_value=-0.036624086576161778 -0.058279971370197671 0.016568617786147845 0.076853620042879947 0.051123648995501383 -0.078475404016773442 0.060844883927704853 0.027645782459990817 -0.057827289947833177 -0.057688122937532504 -0.05772490007490564
leaf_weight=6.9946046620607367 2.7952856048941603 5.5976117849349993 8.2245766818523389 12.073741465806959 4.6032902598381042 11.884414821863176 10.492602139711382 3.0416786149144155 2.3100618496537209 3.3615097776055336
leaf_count=29 23 18 18 32 22 29 30 26 20 29
internal_value=0.0150148 0.0290267 0.0377112 0.015657 -0.0263212 0.0537642 0.0452778 -0.0578794 -0.0577509 -0.0577099
internal_weight=71.3794 59.8708 52.8762 22.2746 10.2009 30.6016 22.377 11.5085 8.71325 5.67157
internal_count=276 178 149 72 40 77 59 98 75 49
is_linear=0
shrinkage=0.05


Tree=19
num_leaves=11
num_cat=0
split_feature=0 1 1 3 36 9 35 57 42 0
split_gain=27.0636 10.2071 6.51352 6.03242 5.80435 7.32869 3.26331 0.000199372 1.41895e-05 1.11632e-06
threshold=-5.3587524007525637e-05 1072.5000000000002 472.50000000000006 0.70786280310066585 1.0000000180025095e-35 -0.0014615499280150044 0.0013991010158308506 0.46875000000000006 0.0039047764794675594 0.001161464610382801
decision_type=2 2 2 2 2 2 2 2 2 2
left_child=1 2 -1 4 5 -4 -7 -2 -9 -10
right_child=7 -3 3 -5 -6 6 -8 8 9 -11
leaf_value=-0.0055458976705086323 -0.057811632842299281 -0.029258622727531564 -0.023987502562886016 0.069924697139120251 0.067997021145026135 0.058400688638206799 0.01185098523317752 -0.057423284114703793 -0.057248018451426123 -0.057292513487557734
leaf_weight=8.1924789696931821 2.6799518242478362 6.9089283645153037 7.2181981503963462 14.139259755611418 7.6244034916162482 8.2704775929451042 6.9112228751182547 2.2502348721027357 2.2114230617880821 3.8879393711686134
leaf_count=34 23 26 25 33 18 21 21 20 20 35
internal_value=0.0144791 0.027863 0.0354008 0.0429965 0.0303153 0.0174894 0.0372097 -0.0574364 -0.057316 -0.0572764
internal_weight=70.2945 59.265 52.356 44.1636 30.0243 22.3999 15.1817 11.0295 8.3496 6.09936
internal_count=276 178 152 118 85 67 42 98 75 55
is_linear=0
shrinkage=0.05


Tree=20
num_leaves=11
num_cat=0
split_feature=0 16 22 10 45 16 3 12 57 46
split_gain=27.488 8.88906 9.2567 8.48416 9.3882 3.3008 5.45691 0.0119291 0.000132921 2.31666e-06
threshold=-7.3588160488247109e-05 19.500000000000004 10.500000000000002 0.96784189711240787 0.010768709135083482 11.500000000000002 0.61834175177580863 0.0032573635515526105 0.46875000000000006 -3.6761829952832103e-05
decision_type=2 2 2 2 2 2 2 2 2 2
left_child=1 2 -1 4 -4 6 -5 -2 -9 -10
right_child=7 -3 3 5 -6 -7 -8 8 9 -11
leaf_value=-0.014396575997066147 -0.061037306658257844 -0.027539679786802662 0.044584006959819927 0.017557101863267699 -0.034121719611997198 0.083220689653224156 0.073674998052208271 -0.057333337283374121 -0.056939775882445226 -0.05687375721942324
leaf_weight=7.7188453674316397 2.4072246178984633 6.1127507239580146 10.570574879646303 7.9677144885063234 5.9056685268878928 10.813305005431173 9.4934295266866666 2.556434437632559 2.1397780999541274 3.5062542334198961
leaf_count=28 20 23 31 25 24 24 22 23 20 33
internal_value=0.0161111 0.0295227 0.0361705 0.0448926 0.0163731 0.0615117 0.0480678 -0.0579425 -0.0570342 -0.0568988
internal_weight=69.192 58.5823 52.4695 44.7507 16.4762 28.2744 17.4611 10.6097 8.20247 5.64603
internal_count=273 177 154 126 55 71 47 96 76 53
is_linear=0
shrinkage=0.05


Tree=21
num_leaves=11
num_cat=0
split_feature=0 14 17 8 55 62 2 12 57 42
split_gain=25.4675 10.2507 10.4368 6.56966 5.14393 4.25676 2.84379 0.0104856 0.000112169 1.96457e-06
threshold=-7.3588160488247109e-05 0.94685006785809989 0.00043870393198924867 0.00057809879776372323 2.5000000000000004 1.0000000180025095e-35 0.78763345325442502 0.0032573635515526105 0.46875000000000006 0.0055168736518567824
decision_type=2 2 2 2 2 2 2 2 2 2
left_child=1 2 5 6 -5 -1 -3 -2 -9 -10
right_child=7 3 -4 4 -6 -7 -8 8 9 -11
leaf_value=-0.0068613688829046761 -0.060476194202930093 0.03435068429953074 -0.05796731736554106 0.05141118328174861 -0.0044947181366698499 0.049233842501819204 0.073094699283579201 -0.056925126692339449 -0.056555800489127485 -0.056493670979373106
leaf_weight=6.4773061871528643 2.3105296790599805 6.8854909539222744 5.749296396970748 7.2078537195920971 9.587370812892912 7.0770263671875 15.172785520553587 2.4487516731023788 2.0489178076386452 3.3570936545729637
leaf_count=23 20 19 27 20 32 20 36 23 20 33
internal_value=0.0155015 0.0282641 -0.00151709 0.0430603 0.0194979 0.0224272 0.0610008 -0.0575153 -0.0566444 -0.0565172
internal_weight=68.3224 58.1571 19.3036 38.8535 16.7952 13.5543 22.0583 10.1653 7.85476 5.40601
internal_count=273 177 70 107 52 43 55 96 76 53
is_linear=0
shrinkage=0.05


Tree=22
num_leaves=11
num_cat=0
split_feature=0 14 17 22 11 62 39 12 57 42
split_gain=23.6372 9.37455 9.58363 7.82094 4.63117 3.86163 1.63528 0.00921411 9.47628e-05 1.65925e-06
threshold=-7.3588160488247109e-05 0.94685006785809989 0.00043870393198924867 21.500000000000004 9.5000000000000018 1.0000000180025095e-35 -0.00095514140341262921 0.0032573635515526105 0.46875000000000006 0.0055168736518567824
decision_type=2 2 2 2 2 2 2 2 2 2
left_child=1 2 5 -3 6 -1 -5 -2 -9 -10
right_child=7 3 -4 4 -6 -7 -8 8 9 -11
leaf_value=-0.0065225423502591629 -0.059946705347656087 -0.0049143230896053014 -0.056287191498988511 0.043491087748589174 0.018478125500187619 0.046966313029186149 0.07212985911710125 -0.056542288548202715 -0.056195352967417969 -0.056136991098138911
leaf_weight=6.4732016175985354 2.2167645469307882 7.3789748400449744 5.6279665827751151 7.187611103057864 7.6175023466348639 7.0484924465417862 16.262163162231449 2.3446962833404541 1.9611753076314924 3.2131419032812119
leaf_count=23 20 25 27 20 23 20 39 23 20 33
internal_value=0.014942 0.027122 -0.00146021 0.0413585 0.052349 0.0213597 0.0633518 -0.0571138 -0.0562786 -0.0561591
internal_weight=67.3317 57.5959 19.1497 38.4463 31.0673 13.5217 23.4498 9.73578 7.51901 5.17432
internal_count=273 177 70 107 82 43 59 96 76 53
is_linear=0
shrinkage=0.05


Tree=23
num_leaves=11
num_cat=0
split_feature=0 14 40 8 17 20 37 29 57 42
split_gain=21.9553 8.57768 10.0221 6.17396 5.74817 5.19183 2.91471 0.0081026 9.50473e-05 3.11142e-06
threshold=-7.3588160488247109e-05 0.94685006785809989 0.0042914474506922 0.00057809879776372323 0.00043870393198924867 -0.0012806429311682706 0.0087538338856813711 77.99100000000017 0.46875000000000006 0.0060027676966998749
decision_type=2 2 2 2 2 2 2 2 2 2
left_child=1 2 4 6 -1 -5 -3 -2 -9 -10
right_child=7 3 -4 5 -6 -7 -8 8 9 -11
leaf_value=-0.0018467455086695504 -0.059447879471435532 0.072404975969285162 0.055108748196857897 0.042288667432805099 -0.071435262881263714 -0.013753574712941511 0.034565946060598172 -0.05623126081837191 -0.055874768163496458 -0.055794411139138203
leaf_weight=9.0162221640348452 2.1261269077658635 12.966405704617502 5.5515569895505896 9.1418118029832858 4.4234083890914908 7.542182281613349 8.3773384243249875 1.9636904448270796 1.8809070959687231 3.3503318205475807
leaf_count=31 20 32 16 25 23 27 23 20 20 36
internal_value=0.0144065 0.0260364 -0.00140584 0.0397411 -0.0247505 0.0169542 0.0575533 -0.056736 -0.0559346 -0.0558233
internal_weight=66.34 57.0189 18.9912 38.0277 13.4396 16.684 21.3437 9.32106 7.19493 5.23124
internal_count=273 177 70 107 54 52 55 96 76 56
is_linear=0
shrinkage=0.05


Tree=24
num_leaves=11
num_cat=0
split_feature=5 3 18 3 2 10 45 34 0 17
split_gain=20.5025 12.1132 7.54634 8.67255 4.82096 3.18157 6.5003 1.3037 0.223115 4.29522e-05
threshold=1.5000000000000002 0.48856897107124175 -0.0055017403655802212 0.71277430865301694 0.68289028284823816 1.0702088295640846 0.0098907354984251235 -0.0083985595388228612 -5.3587524007525637e-05 0.00035480259319748759
decision_type=2 2 2 2 2 2 2 2 2 2
left_child=1 8 3 -3 -2 6 -6 -7 -1 -10
right_child=4 2 -4 -5 5 7 -8 -9 9 -11
leaf_value=-0.070506955566091531 -0.0027381548437894992 -0.078226619344267001 0.047063760366845932 0.019171947702342429 0.053579987524094368 0.045748393630684656 -0.016595789572800588 0.072103409056009829 -0.055484820507391702 -0.055789471731049534
leaf_weight=5.2768804728984851 6.4633832201361647 3.9943688139319438 6.6946109160780898 5.3422166630625725 8.5040218085050565 10.204294711351393 5.3923019915819159 8.687035799026491 2.8502630963921547 1.9474674761295316
leaf_count=27 23 28 27 22 23 27 22 21 32 21
internal_value=0.0138904 -0.0204484 0.00655149 -0.022497 0.036729 0.0445092 0.0263491 0.0578675 -0.063412 -0.0556085
internal_weight=65.3568 26.1058 16.0312 9.33659 39.251 32.7877 13.8963 18.8913 10.0746 4.79773
internal_count=273 157 77 50 116 93 45 48 80 53
is_linear=0
shrinkage=0.05


Tree=25
num_leaves=10
num_cat=0
split_feature=0 12 5 8 9 14 3 46 52
split_gain=16.8106 12.4644 9.27318 9.01584 6.5992 5.21474 0.00010399 3.0583e-05 3.48137e-06
threshold=-5.3587524007525637e-05 0.22012069021161021 2.5000000000000004 0.00057809879776372323 -0.0037826866061890225 0.97618122553050635 0.606363955119258 -7.9884893089878523e-05 -0.022501139500921984
decision_type=2 2 2 2 2 2 2 2 2
left_child=1 2 3 5 -4 -1 7 -2 -9
right_child=6 -3 4 -5 -6 -7 -8 8 -10
leaf_value=-0.0029882309044299104 -0.055438776302050775 -0.047441497560815532 0.014483358246306609 -0.032018683622817651 0.071191575770305882 0.04678658222259223 -0.055654686160058031 -0.055140645407478595 -0.055238422461749627
leaf_weight=8.6266748085618072 1.9411590248346327 6.0902225375175467 7.733792498707774 8.9859564453363401 15.239403918385504 13.491393998265265 2.7290845066308975 1.6905524730682371 1.9726369380950912
leaf_count=32 22 25 24 36 38 37 30 20 23
internal_value=0.0111536 0.0203718 0.028009 0.0102147 0.0521011 0.027373 -0.0554016 -0.0552783 -0.0551933
internal_weight=68.5009 60.1674 54.0772 31.104 22.9732 22.1181 8.33343 5.60435 3.66319
internal_count=287 192 167 105 62 69 95 65 43
is_linear=0
shrinkage=0.05


Tree=26
num_leaves=11
num_cat=0
split_feature=1 1 2 0 5 15 9 16 27 0
split_gain=20.0976 23.9614 11.3282 5.922 6.01612 5.23507 3.73604 4.18461 0.82924 0.115092
threshold=1192.5000000000002 442.50000000000006 0.63617911182189724 -0.00029335130816982019 1.5000000000000002 117.59642857142809 -0.0035027925123869426 7.5000000000000009 0.0026150798070500988 -0.00010407199011758238
decision_type=2 2 2 2 2 2 2 2 2 2
left_child=1 9 -3 5 -5 8 -7 -8 -4 -1
right_child=-2 2 3 4 -6 6 7 -9 -10 -11
leaf_value=-0.067573879724983119 -0.076362798181436042 -0.03781754928175568 0.079605213408488903 -0.057294801264439678 0.041811004084622024 0.0021498353921976395 0.015061429597488397 0.063219593364609736 0.056760724628360716 -0.055255805498619193
leaf_weight=4.5850693732500076 6.0291492938995352 5.3509745672345153 7.9464612901210767 3.0223141461610785 3.1039419025182724 7.5543359965085939 7.5591492950916388 11.185749560594557 7.9432937204837799 3.233618199825286
leaf_count=25 37 30 19 33 9 23 23 29 21 38
internal_value=0.010754 0.0192965 0.0312106 0.0388555 -0.00708164 0.045526 0.0318356 0.0437991 0.0681852 -0.0624794
internal_weight=67.5141 61.4849 53.6662 48.3152 6.12626 42.189 26.2992 18.7449 15.8898 7.81869
internal_count=287 250 187 157 42 115 75 52 40 63
is_linear=0
shrinkage=0.05


Tree=27
num_leaves=11
num_cat=0
split_feature=6 6 12 5 21 9 52 8 8 0
split_gain=18.6424 19.9919 11.8081 7.02303 11.3988 3.70507 2.48057 2.40962 1.55782 0.0796708
threshold=19.500000000000004 6.5000000000000009 0.22012069021161021 1.5000000000000002 0.00071936512854307605 -0.0037826866061890225 -0.0087413390249003482 6.1060036083035229e-05 0.00019390635521675625 -0.00010407199011758238
decision_type=2 2 2 2 2 2 2 2 2 2
left_child=1 9 3 4 7 -5 -7 -3 -6 -1
right_child=-2 2 -4 5 8 6 -8 -9 -10 -11
leaf_value=-0.066120577503893427 -0.074785025027328311 0.074018947308715943 -0.04057312002641205 0.024065434077651472 -0.012274964019926777 0.073235827629025335 0.037553046991128096 0.024020275302149376 -0.062602875870502991 -0.055013494538577234
leaf_weight=4.2161327004432678 5.8530066907405844 3.9260172545909899 5.4814877808094016 9.2218603044748289 2.6021172255277625 15.122938990592957 7.1842839717865035 6.2394469082355499 3.7584529593586922 2.6164219826459876
leaf_count=24 37 11 27 27 11 37 21 31 29 32
internal_value=0.0104145 0.0186749 0.0289541 0.0368848 0.010483 0.0507234 0.0617438 0.0433303 -0.0420137 -0.0618673
internal_weight=66.2222 60.3692 53.5366 48.0551 16.526 31.5291 22.3072 10.1655 6.36057 6.83255
internal_count=287 250 194 167 82 85 58 42 40 56
is_linear=0
shrinkage=0.05


Tree=28
num_leaves=11
num_cat=0
split_feature=6 6 12 5 21 17 9 8 5 0
split_gain=17.296 18.543 10.8038 6.49921 10.3966 4.06876 3.52653 2.28012 1.48963 0.0667023
threshold=19.500000000000004 6.5000000000000009 0.22012069021161021 1.5000000000000002 0.00071936512854307605 -0.00013963901466016731 -0.0037826866061890225 6.1060036083035229e-05 2.5000000000000004 -0.00010407199011758238
decision_type=2 2 2 2 2 2 2 2 2 2
left_child=1 9 3 4 7 -6 -5 -3 -8 -1
right_child=-2 2 -4 6 5 -7 8 -9 -10 -11
leaf_value=-0.065121553811858149 -0.07331909885731118 0.071775515769291059 -0.038847173142093516 0.022984441135744067 0.0117124460850337 -0.07148790534928183 0.042518616885402073 0.022832902457040501 0.069717037641053789 -0.054746017255530036
leaf_weight=4.0704644173383713 5.676024764776229 3.8482766821980494 5.4398524463176718 9.1740437597036344 2.3444227278232574 3.9371979162096968 7.8666781336069151 6.2358139231801033 13.981630980968475 2.50066965073347
leaf_count=24 37 11 27 27 12 28 22 31 36 32
internal_value=0.0100688 0.0180371 0.0278899 0.0355509 0.010057 -0.0404359 0.0490001 0.0415103 0.059924 -0.0611731
internal_weight=65.0751 59.3991 52.8279 47.3881 16.3657 6.28162 31.0224 10.0841 21.8483 6.57113
internal_count=287 250 194 167 82 40 85 42 58 56
is_linear=0
shrinkage=0.05


Tree=29
num_leaves=11
num_cat=0
split_feature=1 1 2 5 21 9 8 16 2 0
split_gain=16.0598 19.2132 9.45609 3.62381 6.50686 3.05119 2.49103 1.67169 2.60307 0.068316
threshold=1192.5000000000002 442.50000000000006 0.63617911182189724 1.5000000000000002 0.00071936512854307605 -0.0061299863212004304 6.1060036083035229e-05 11.500000000000002 0.81830397937630373 -0.00010407199011758238
decision_type=2 2 2 2 2 2 2 2 2 2
left_child=1 9 -3 4 6 -5 -4 8 -7 -1
right_child=-2 2 3 5 -6 7 -8 -9 -10 -11
leaf_value=-0.06456173078906717 -0.071955011126909621 -0.03620459307454086 0.072702644185337381 0.015687212509111266 -0.026886902253957873 0.018391477782077115 0.020642064539510303 0.069313734224124582 0.061675692577890212 -0.054487632949029176
leaf_weight=4.1360898166894913 5.4989441037178031 5.1633771657943717 3.67931219935417 6.8649492859840384 5.7294138222932807 6.2497208118438774 6.1191801056265831 9.8401512652635557 7.8193564116954803 2.8372853100299826
leaf_count=25 37 30 10 20 31 19 30 26 21 38
internal_value=0.0097356 0.0174225 0.0279756 0.0351327 0.0154407 0.0450688 0.0401907 0.053505 0.0424481 -0.0604628
internal_weight=63.9378 58.4388 51.4655 46.3021 15.5279 30.7742 9.79849 23.9092 14.0691 6.97338
internal_count=287 250 187 157 71 86 40 66 40 63
is_linear=0
shrinkage=0.05


Tree=30
num_leaves=11
num_cat=0
split_feature=2 1 1 5 8 1 9 43 0 0
split_gain=14.4867 15.3723 10.9642 5.0477 6.2423 6.14283 2.88042 1.76417 0.123751 0.0486317
threshold=0.63617911182189724 427.50000000000006 1132.5000000000002 1.5000000000000002 0.00021243228220282161 787.50000000000011 -0.0053938714879204755 -0.0062383997329031066 -0.00024269140110116935 -5.3587524007525637e-05
decision_type=2 2 2 2 2 2 2 2 2 2
left_child=8 9 3 4 -3 -6 -5 -8 -1 -2
right_child=1 2 -4 6 5 -7 7 -9 -10 -11
leaf_value=-0.070950626324902719 -0.064064208555516436 0.04699570128435554 -0.032854103841563349 0.020108034198525596 -0.064037349862481496 0.02155656330654751 0.071621760468827331 0.043740020027298959 -0.055158062228284878 -0.054186962332161637
leaf_weight=3.6640779227018356 3.5656953230500221 7.3996369466185561 6.5958419404923907 6.9496243149042085 3.717357896268366 4.8063863962888718 10.733072146773337 12.034782931208619 1.8753571957349766 1.9157465696334828
leaf_count=19 22 25 39 20 27 23 26 36 24 27
internal_value=0.0116322 0.0190449 0.0274037 0.0361119 0.0133961 -0.0157725 0.0482836 0.0568838 -0.0656041 -0.0606121
internal_weight=63.2576 57.7181 52.2367 45.6409 15.9234 8.52374 29.7175 22.7679 5.53944 5.48144
internal_count=288 245 196 157 75 50 82 62 43 49
is_linear=0
shrinkage=0.05


Tree=31
num_leaves=12
num_cat=0
split_feature=1 1 11 5 8 46 30 39 53 53 0
split_gain=13.8457 16.1922 11.3445 6.47603 9.00661 7.02364 2.3522 2.55369 1.46296 0.612079 0.0448406
threshold=1192.5000000000002 427.50000000000006 14.500000000000002 1.5000000000000002 0.00020026593428581753 0.00015225774957929343 0.18750000000000003 0.0082439584173501518 0.44695624561609121 0.41094770297264466 -0.00010407199011758238
decision_type=2 2 2 2 2 2 2 2 2 2 2
left_child=1 10 3 4 -3 8 9 -8 -6 -5 -1
right_child=-2 2 -4 6 5 -7 7 -9 -10 -11 -12
leaf_value=-0.062987694785942641 -0.067947954534689783 0.051455279812910676 -0.043899633524476379 0.053075752333883279 -0.031894371273457414 0.031567047723369157 0.012073780813520148 0.054945295419907371 -0.082231843081009628 0.073386415333705934 -0.054052156565819548
leaf_weight=3.7125091701745987 5.0666037537157527 7.6282281205058124 5.0270361155271521 7.1914691030979174 3.0095208138227445 3.7856899797916412 6.5053462684154493 7.4530961364507675 2.7737434655427933 7.6608208566904068 2.2579142674803725
leaf_count=24 36 25 31 20 20 17 21 20 21 20 33
internal_value=0.0112619 0.0183021 0.0274166 0.0352089 0.0109285 -0.0213789 0.0497019 0.034965 -0.056037 0.063552 -0.0596084
internal_weight=62.072 57.0054 51.035 46.0079 17.1972 9.56895 28.8107 13.9584 5.78326 14.8523 5.97042
internal_count=288 252 195 164 83 58 81 41 41 40 57
is_linear=0
shrinkage=0.05


Tree=32
num_leaves=12
num_cat=0
split_feature=2 1 1 0 33 33 16 15 2 0 0
split_gain=12.9312 13.3293 9.30013 4.5119 8.5326 4.18296 2.85715 2.91167 0.918891 0.0957751 0.034428
threshold=0.63617911182189724 427.50000000000006 1132.5000000000002 -0.0003759515763520071 0.00017201795744303808 -0.0061299863212004304 8.5000000000000018 160.57142857142858 0.83637599803670704 -0.00024269140110116935 -5.3587524007525637e-05
decision_type=2 2 2 2 2 2 2 2 2 2 2
left_child=9 10 3 5 -5 -3 7 -7 -8 -1 -2
right_child=1 2 -4 4 -6 6 8 -9 -10 -11 -12
leaf_value=-0.06907267473917543 -0.062434384957711732 0.0057103948500406045 -0.030821494388747952 -0.065445816654951569 0.046535587587577025 0.052880355651334469 0.071625068492475685 0.0050461318671290402 0.048518199013648615 -0.054692488351087309 -0.053757761096143421
leaf_weight=3.4915787056088448 3.3090452402830124 6.9523452073335603 6.3607188314199439 3.0676449909806243 3.8186593130230904 6.8681957423687034 10.094796508550646 5.9263505488634109 7.4984181076288214 1.7323705106973637 1.7467889897525299
leaf_count=19 22 21 39 30 17 20 26 20 23 24 27
internal_value=0.010911 0.0179724 0.0257089 0.0338392 -0.00334882 0.0406975 0.0487021 0.0307239 0.0617767 -0.0643039 -0.0594366
internal_weight=60.8669 55.643 50.5871 44.2264 6.8863 37.3401 30.3878 12.7945 17.5932 5.22395 5.05583
internal_count=288 245 196 157 47 110 89 40 49 43 49
is_linear=0
shrinkage=0.05


Tree=33
num_leaves=10
num_cat=0
split_feature=1 1 2 5 3 1 25 10 19
split_gain=12.3802 14.0613 12.3419 4.70964 7.4187 2.72972 2.28569 1.31951 0.0293055
threshold=1192.5000000000002 427.50000000000006 0.64094656799075334 1.5000000000000002 0.5504332266929044 817.50000000000011 10.500000000000002 1.2057976603230374 1.0000000180025095e-35
decision_type=2 2 2 2 2 2 2 2 2
left_child=1 8 -3 4 -4 -6 -5 -8 -1
right_child=-2 2 3 6 5 -7 7 -9 -10
leaf_value=-0.061208997681341484 -0.066459898332583298 -0.054009951260806537 -0.039861832557839566 0.022100444711154896 0.0098022968055976028 0.060337950502760779 0.040329319562430396 0.065117538660647858 -0.053533542157705574
leaf_weight=3.5930519104003897 4.79523842036724 4.4142638370394698 4.8603667914867392 7.7568667531013515 5.4367589093744737 5.254974752664566 9.9243277162313479 11.695158258080481 1.9018527120351789
leaf_count=26 36 32 35 25 25 18 28 32 31
internal_value=0.0105816 0.0173184 0.0257676 0.0336058 0.0113569 0.0346405 0.0453845 0.0537386 -0.0585524
internal_weight=59.6329 54.8376 49.3427 44.9285 15.5521 10.6917 29.3764 21.6195 5.4949
internal_count=288 252 195 163 78 43 85 60 57
is_linear=0
shrinkage=0.05


Tree=34
num_leaves=10
num_cat=0
split_feature=1 1 2 32 61 16 49 56 4
split_gain=11.5431 13.0937 11.3656 3.50284 6.55093 5.23288 1.78661 1.34557 0.0247717
threshold=1192.5000000000002 427.50000000000006 0.64094656799075334 0.0047438564540665104 -0.0038805010408202718 5.5000000000000009 0.0046258340484035551 -0.56249999999999989 1.0000000180025095e-35
decision_type=2 2 2 2 2 2 2 2 2
left_child=1 8 -3 4 -4 -6 7 -7 -1
right_child=-2 2 3 -5 5 6 -8 -9 -10
leaf_value=-0.060564108516408088 -0.065546112202006609 -0.052600570023487114 -0.028374100757718592 0.061587813328499733 -0.0053866008137177495 0.036168876413970867 0.018916435587446975 0.063064382178567496 -0.053349480638260977
leaf_weight=3.4532847069203845 4.6233444921672335 4.3086239323019973 4.848654523491855 8.3736465796828252 6.5947360992431703 7.9555801860988167 5.2299466058611861 11.193285737186672 1.8151820749044416
leaf_count=26 36 32 17 23 33 30 22 38 31
internal_value=0.0102665 0.0167848 0.0249163 0.0324734 0.0256677 0.0341275 0.0448165 0.0518904 -0.0580784
internal_weight=58.3963 53.7729 48.5045 44.1958 35.8222 30.9735 24.3788 19.1489 5.26847
internal_count=288 252 195 163 140 123 90 68 57
is_linear=0
shrinkage=0.05


Tree=35
num_leaves=11
num_cat=0
split_feature=5 14 9 51 7 2 28 7 13 3
split_gain=10.2599 6.47774 6.17117 5.69575 4.29363 3.12168 2.67435 0.000610882 0.000255644 1.03876e-05
threshold=1.0000000180025095e-35 1.3915299631148847 -0.0037826866061890225 0.0040412894860081166 1.0000000180025095e-35 0.76228162499644991 0.011646908142182257 1.0000000180025095e-35 1.0000000180025095e-35 0.48302122106177175
decision_type=2 2 2 2 2 2 2 2 2 2
left_child=7 2 -2 4 -4 -5 -3 8 9 -1
right_child=1 6 3 5 -6 -7 -8 -9 -10 -11
leaf_value=-0.053021320278197517 -0.045274512518927897 0.068210715799595464 -0.050581726693207464 0.0050328415480844838 0.018209346144741793 0.046804685175008937 0.022891997576595623 -0.054526841218132276 -0.054040596817301313 -0.053238375428445686
leaf_weight=1.0717120207846158 4.9533211067318872 7.1890950947999936 4.6872081197798305 7.2323986589908626 4.3953755646944046 11.72111516445875 5.9494472667574883 2.1620006151497364 1.1964316815137865 1.1349326111376283
leaf_count=20 22 20 27 30 15 39 22 30 18 20
internal_value=0.010262 0.0179991 0.0061745 0.0152643 -0.0172914 0.0308651 0.0476893 -0.0538696 -0.0534521 -0.053133
internal_weight=51.693 46.128 32.9894 28.0361 9.08258 18.9535 13.1385 5.56508 3.40308 2.20664
internal_count=263 175 133 111 42 69 42 88 58 40
is_linear=0
shrinkage=0.05


Tree=36
num_leaves=11
num_cat=0
split_feature=0 14 33 51 7 2 28 7 13 35
split_gain=10.0005 5.90268 5.70347 5.26218 3.93893 2.71159 2.60578 0.000487872 0.000284844 8.33204e-06
threshold=-5.3587524007525637e-05 1.3915299631148847 -0.0037826866061890225 0.0040412894860081166 1.0000000180025095e-35 0.76228162499644991 0.011646908142182257 1.0000000180025095e-35 1.0000000180025095e-35 -0.00017212203105720911
decision_type=2 2 2 2 2 2 2 2 2 2
left_child=1 2 -1 4 -4 -5 -3 8 9 -2
right_child=7 6 3 5 -6 -7 -8 -9 -10 -11
leaf_value=-0.043240363729744394 -0.052878705786584101 0.067081277891560126 -0.049148260000485749 0.0059651842143644551 0.017404627355515841 0.045268450145700745 0.021911876385140149 -0.054288917036014933 -0.053927718491537616 -0.053072694104113832
leaf_weight=4.9276826456189111 1.076700553297997 6.9506769776344282 4.5263388082385116 7.0894974991679218 4.3693494498729706 11.518178232014177 5.9059241116046906 2.0653435848653316 1.2282588593661787 1.1391755789518343
leaf_count=22 21 20 26 28 15 39 22 30 19 21
internal_value=0.00992428 0.0176622 0.00629676 0.0151722 -0.0164591 0.030294 0.0463319 -0.0536813 -0.053317 -0.0529784
internal_weight=50.7971 45.2876 32.431 27.5034 8.89569 18.6077 12.8566 5.50948 3.44413 2.21588
internal_count=263 172 130 108 41 67 42 91 61 42
is_linear=0
shrinkage=0.05


Tree=37
num_leaves=9
num_cat=0
split_feature=0 10 7 26 29 7 13 35
split_gain=9.35867 5.34721 4.75675 7.57893 5.37186 0.000416523 0.000243289 7.10954e-06
threshold=-5.3587524007525637e-05 1.6299115017779056 1.0000000180025095e-35 0.0019989406840978329 136.83299999999977 1.0000000180025095e-35 1.0000000180025095e-35 -0.00017212203105720911
decision_type=2 2 2 2 2 2 2 2
left_child=1 2 3 -1 -4 6 7 -2
right_child=5 -3 4 -5 -6 -7 -8 -9
leaf_value=-0.05486747894313676 -0.052730506504029287 0.051137012902347678 0.04655796417705213 0.015984940806284594 -0.0063268562066834946 -0.054064360834032765 -0.053722829989266391 -0.052913976374359628
leaf_weight=6.2753096893429747 1.026995010674 9.1387270167469961 11.554886266589167 9.4702553153038007 8.2160931527614576 1.9725692495703695 1.1726991906762125 1.0867855511605728
leaf_count=37 21 28 38 38 31 30 19 21
internal_value=0.00959808 0.017028 0.00825139 -0.0122529 0.024581 -0.05349 -0.0531453 -0.0528248
internal_weight=49.9143 44.6553 35.5165 15.7456 19.771 5.25905 3.28648 2.11378
internal_count=263 172 144 75 69 91 61 42
is_linear=0
shrinkage=0.05


Tree=38
num_leaves=10
num_cat=0
split_feature=0 10 3 5 7 10 7 13 35
split_gain=8.75895 4.99255 4.73056 6.9377 4.31212 3.32249 0.000355766 0.000207882 6.06918e-06
threshold=-5.3587524007525637e-05 1.6299115017779056 0.5504332266929044 2.5000000000000004 1.0000000180025095e-35 0.98352200870142747 1.0000000180025095e-35 1.0000000180025095e-35 -0.00017212203105720911
decision_type=2 2 2 2 2 2 2 2 2
left_child=1 2 3 5 -4 -1 7 8 -2
right_child=6 -3 4 -5 -6 -7 -8 -9 -10
leaf_value=-0.072583927997668038 -0.052590317207120665 0.049813841020491079 -0.0095560663606913815 0.020114623617074768 0.044644385164312912 -0.011395573449219416 -0.053852330750384904 -0.05352929130333807 -0.052763891027773728
leaf_weight=4.3500577509403247 0.97944620624184642 8.9180548712611181 5.4228829443454751 9.4900442883372289 11.35056959092617 4.52763382345438 1.8835668005049226 1.1194371879100802 1.0366486534476269
leaf_count=28 21 28 24 33 39 20 30 19 21
internal_value=0.00927386 0.0164031 0.00792424 -0.00960655 0.0271213 -0.0413778 -0.0533092 -0.0529829 -0.0526796
internal_weight=49.0783 44.0592 35.1412 18.3677 16.7735 8.87769 5.0191 3.13553 2.01609
internal_count=263 172 144 81 63 48 91 61 42
is_linear=0
shrinkage=0.05


Tree=39
num_leaves=10
num_cat=0
split_feature=0 14 9 51 42 2 53 7 9
split_gain=8.20694 4.85071 4.82303 4.23529 4.2074 2.98165 2.15394 0.000303997 8.87234e-05
threshold=-5.3587524007525637e-05 1.3712945246158061 -0.0037826866061890225 0.0040412894860081166 0.0020542742610350291 0.76228162499644991 0.44695624561609121 1.0000000180025095e-35 0.00077062685803819264
decision_type=2 2 2 2 2 2 2 2 2
left_child=1 2 -1 4 -4 -5 -3 8 -2
right_child=7 6 3 5 -6 -7 -8 -9 -10
leaf_value=-0.041515879864288591 -0.053123304177545107 0.06062587940553596 0.018146965843851472 0.00091891300838542684 -0.052407658335837985 0.043429542926210409 0.019093542651686515 -0.053652050924921563 -0.052577085109650791
leaf_weight=4.6962468847632399 1.3817597664892667 6.9402581304311735 4.4275595992803627 6.5955211445689228 4.0420563369989395 11.010921061038969 5.6739329919219017 1.7982234023511408 1.6092983521521089
leaf_count=21 26 22 18 27 23 39 22 30 35
internal_value=0.00897554 0.0158321 0.00512809 0.0135286 -0.0155247 0.0275047 0.0419444 -0.0531383 -0.0528294
internal_weight=48.1758 43.3865 30.7723 26.0761 8.46962 17.6064 12.6142 4.78928 2.99106
internal_count=263 172 128 107 41 66 44 91 61
is_linear=0
shrinkage=0.05


Tree=40
num_leaves=11
num_cat=0
split_feature=6 2 0 5 15 0 9 24 5 6
split_gain=10.308 10.9617 6.7369 7.64792 5.65508 4.68813 4.94873 0.569248 0.133575 0.000304601
threshold=19.500000000000004 0.63617911182189724 -0.00022015086862620101 2.5000000000000004 121.86071428571451 -0.0013427070197325473 -0.004876819866324932 0.0047394022495064001 1.0000000180025095e-35 7.5000000000000009
decision_type=2 2 2 2 2 2 2 2 2 2
left_child=1 -1 4 8 7 6 -6 -3 9 -4
right_child=-2 2 3 -5 5 -7 -8 -9 -10 -11
leaf_value=-0.063250294656707312 -0.067497067947749803 0.048083946633594277 -0.052488635985768334 0.066166368192895245 -0.0043218439056551487 -0.021661965782776075 0.05272046819221167 0.068816490460088489 -0.07189403828531557 -0.05350260254302755
leaf_weight=3.9011397548019877 3.9381442181766024 6.5036861374974233 1.2986606657505029 1.6925662010908125 6.1360729634761801 5.71894393116236 9.9967792779207247 6.7439676895737648 1.3687357828021047 1.7238232828676698
leaf_count=39 32 25 29 4 21 26 33 20 9 29
internal_value=0.0100787 0.016855 0.0244431 -0.0241309 0.0328624 0.0172358 0.0310246 0.0586382 -0.0589353 -0.0530669
internal_weight=49.0225 45.0844 41.1832 6.08379 35.0994 21.8518 16.1329 13.2477 4.39122 3.02248
internal_count=267 235 196 71 125 80 54 45 67 58
is_linear=0
shrinkage=0.05


Tree=41
num_leaves=13
num_cat=0
split_feature=2 0 5 54 8 7 48 22 0 15 7 43
split_gain=9.03445 5.48194 7.29298 5.22721 2.93239 4.69283 5.03994 3.61603 0.126164 0.0203992 0.000214424 4.59273e-05
threshold=0.63617911182189724 -0.00022015086862620101 2.5000000000000004 2.5000000000000004 0.00015299021495377693 1.0000000180025095e-35 0.0030710188334071372 64.500000000000014 -5.3587524007525637e-05 99.4392857142861 1.0000000180025095e-35 -0.0034545530416375037
decision_type=2 2 2 2 2 2 2 2 2 2 2 2
left_child=9 3 8 4 -2 6 -6 -7 -3 -1 11 -10
right_child=1 2 -4 -5 5 7 -8 -9 10 -11 -12 -13
leaf_value=-0.06684235751288313 0.059435978928880764 -0.071004694693239306 0.063252851822726261 -0.013828163593585239 -0.041298501302723251 0.064468648281652538 0.036309785414893263 0.013135174418163593 -0.052776028558349744 -0.059477321902298153 -0.053353193498367035 -0.052322376218158488
leaf_weight=1.5187681727111333 7.750213377177718 1.3162520900368688 1.6822573095560072 7.4565849602222434 4.5609984993934631 7.6997648924589157 3.8643600940704346 6.1873763501644135 1.0069634541869161 2.4678051173686981 1.1938193179666998 1.2510663978755467
leaf_count=12 26 8 4 30 27 24 13 22 21 29 21 30
internal_value=0.00979023 0.0163249 -0.0262542 0.0236451 0.0329398 0.0237364 -0.00570282 0.0415972 -0.0578336 -0.0622832 -0.0528112 -0.0525247
internal_weight=47.9562 43.9697 6.45036 37.5193 30.0627 22.3125 8.42536 13.8871 4.7681 3.98657 3.45185 2.25803
internal_count=267 226 84 142 112 86 40 46 80 41 72 51
is_linear=0
shrinkage=0.05


Tree=42
num_leaves=9
num_cat=0
split_feature=1 1 2 15 0 9 11 0
split_gain=9.38242 9.17439 10.5438 3.6036 4.81804 4.7113 1.51209 0.019026
threshold=1192.5000000000002 427.50000000000006 0.63617911182189724 124.26428571428578 -0.0012612570036945046 -0.0050755909767011822 3.5000000000000004 -0.00010407199011758238
decision_type=2 2 2 2 2 2 2 2
left_child=1 7 -3 6 5 -5 -4 -1
right_child=-2 2 3 4 -6 -7 -8 -9
leaf_value=-0.059680608190689627 -0.066473867951185622 -0.062764725935202478 0.065443717460530945 -0.0058730594565472548 -0.020985192599432104 0.051481238138027741 0.032776078969197292 -0.052258932929002057
leaf_weight=2.5948625653982167 3.7416439652442923 3.2649056725203982 7.7889367677271348 5.3757902830839148 5.7521733976900604 10.721744716167452 6.4969953410327435 1.2942577898502339
leaf_count=21 32 32 27 18 38 37 30 32
internal_value=0.00948787 0.0160534 0.0232852 0.0310599 0.0182925 0.0323277 0.050587 -0.0572108
internal_weight=47.0313 43.2897 39.4005 36.1356 21.8497 16.0975 14.2859 3.88912
internal_count=267 235 182 150 93 55 57 53
is_linear=0
shrinkage=0.05


Tree=43
num_leaves=10
num_cat=0
split_feature=1 12 1 11 0 29 35 24 12
split_gain=8.75685 7.83922 7.20952 4.88094 3.4598 3.89219 2.33317 1.39838 0.702546
threshold=1192.5000000000002 0.22012069021161021 442.50000000000006 3.5000000000000004 -0.00083302163404608265 51.830000000000041 -0.0054844660218053001 0.0035933796214045678 0.007528811638016936
decision_type=2 2 2 2 2 2 2 2 2
left_child=1 2 8 7 -5 -6 -7 -4 -1
right_child=-2 -3 3 4 5 6 -8 -9 -10
leaf_value=-0.011556324669797545 -0.065558967769012835 -0.045951284085023004 0.035313477194383963 0.028911411504819795 0.040790593717436284 -0.00037318273123600047 -0.074385371193906979 0.064863158445607375 -0.056623513668617058
leaf_weight=1.3020918332040303 3.6075677759945384 4.611656676977872 7.7784192524850395 11.485466510057448 1.9985335730016256 1.8305712752044181 2.5455544218421 8.2501703724265081 2.5746606141328812
leaf_count=14 32 36 30 39 9 17 25 29 36
internal_value=0.00922282 0.015589 0.0231039 0.0304928 0.0125166 -0.0170227 -0.0434254 0.0505232 -0.0414867
internal_weight=45.9847 42.3771 37.7655 33.8887 17.8601 6.37466 4.37613 16.0286 3.87675
internal_count=267 235 199 149 90 51 42 59 50
is_linear=0
shrinkage=0.05


Tree=44
num_leaves=12
num_cat=0
split_feature=1 2 1 22 31 50 23 3 9 41 12
split_gain=8.17389 8.27275 4.44764 3.25119 2.82788 2.26946 3.46687 3.58411 3.03353 0.349764 0.00309057
threshold=1192.5000000000002 0.64094656799075334 457.50000000000006 90.500000000000014 0.0062493379199717548 0.0010865011021851791 1.5000000000000002 0.63872299171636404 -0.0038805010408202718 -0.0004210677570657139 0.044446273559758255
decision_type=2 2 2 2 2 2 2 2 2 2 2
left_child=1 9 4 5 -3 -4 7 -7 -8 -1 -6
right_child=-2 2 3 -5 10 6 8 -9 -10 -11 -12
leaf_value=-0.033769992450346321 -0.064700604225184227 0.028724654142716695 0.069959284296650756 -0.0076269779324780367 -0.055118173140608823 -0.045775453997327603 0.016047350108397449 0.03183071991477527 0.057732679451789816 -0.064162391353038806 -0.058565838147595077
leaf_weight=1.5109434388577936 3.475993348285555 1.5197224430739869 4.04897612333298 5.2244134917855254 1.6236708238720896 2.7257832624018219 7.4495388716459301 3.275569923222065 10.538366436958311 2.5346714928746215 1.0839877612888811
leaf_count=14 32 8 12 26 27 28 24 18 36 28 14
internal_value=0.00895283 0.0151167 0.0224469 0.0285864 -0.0258611 0.0353341 0.02949 -0.0034176 0.0404691 -0.0528115 -0.0564984
internal_weight=45.0116 41.5356 37.49 33.2626 4.22738 28.0382 23.9893 6.00135 17.9879 4.04561 2.70766
internal_count=267 235 193 144 49 118 106 46 60 42 41
is_linear=0
shrinkage=0.05


Tree=45
num_leaves=10
num_cat=0
split_feature=10 11 5 8 3 55 7 21 0
split_gain=9.73081 9.74156 5.62352 7.01232 4.33252 2.91392 2.17004 1.07099 0.106746
threshold=0.57979404717663663 14.500000000000002 1.5000000000000002 0.00019390635521675625 0.5504332266929044 3.5000000000000004 1.0000000180025095e-35 0.00099884824048181186 -0.0013778945780165139
decision_type=2 2 2 2 2 2 2 2 2
left_child=-1 2 3 -2 8 -3 -4 -8 -5
right_child=1 5 6 4 -6 -7 7 -9 -10
leaf_value=-0.064469207044282412 0.039931216306513244 -0.0093463351766003306 0.021358303838520349 -0.076746977665520202 0.0060151234761864902 -0.091557877957890055 0.064012103020175473 0.0357653484542476 -0.059644422080734442
leaf_weight=3.9712804313749066 6.7802941501140586 2.0014522410929194 8.5839667655527592 1.3783928379416419 4.4259444773197174 2.335637180134654 8.7675193548202497 5.4365767389535913 2.6985957901924875
leaf_count=36 29 25 37 8 27 19 33 19 38
internal_value=0.0103721 0.0173805 0.0254688 0.00200379 -0.0282398 -0.0536194 0.0412061 0.0532007 -0.0654266
internal_weight=46.3797 42.4084 38.0713 15.2832 8.50293 4.33709 22.7881 14.2041 4.07699
internal_count=271 235 191 102 73 44 89 52 46
is_linear=0
shrinkage=0.05


Tree=46
num_leaves=11
num_cat=0
split_feature=1 1 11 55 56 23 23 16 54 23
split_gain=7.63609 7.80736 4.07279 4.90808 8.70492 4.96325 4.97151 3.27581 0.652571 0.0104866
threshold=1170.0000000000002 427.50000000000006 3.5000000000000004 3.5000000000000004 0.81250000000000011 2.5000000000000004 1.5000000000000002 6.5000000000000009 1.0000000180025095e-35 1.5000000000000002
decision_type=2 2 2 2 2 2 2 2 2 2
left_child=1 9 7 5 -5 6 -4 -3 -9 -1
right_child=-2 2 3 4 -6 -7 -8 8 -10 -11
leaf_value=-0.054045758109117936 -0.062794606829553998 0.012626500695039828 -0.040705076821670752 -0.065243363335693805 0.033100922792867631 0.068713227889178219 0.041370653540692401 0.069009239549568932 0.044495495820925317 -0.059602044651887398
leaf_weight=1.8630756139755242 3.334761217236518 6.7648573666811016 3.4767835959792155 4.9343409370630962 4.1363594885915518 4.6594253182411194 3.9311291426420212 5.5185592770576459 5.3437197804450989 1.5604427084326742
leaf_count=38 35 28 36 33 20 15 13 20 20 13
internal_value=0.0100427 0.0158 0.022192 0.00739232 -0.0203971 0.0282809 0.00284974 0.0399395 0.0569497 -0.0565783
internal_weight=45.5235 42.1887 38.7652 21.138 9.0707 12.0673 7.40791 17.6271 10.8623 3.42352
internal_count=271 236 185 117 53 64 49 68 40 51
is_linear=0
shrinkage=0.05


Tree=47
num_leaves=11
num_cat=0
split_feature=10 11 5 8 9 15 14 55 58 22
split_gain=8.65289 8.48179 4.84225 6.24376 4.36084 3.51166 4.02469 2.60542 2.05656 0.707141
threshold=0.57979404717663663 14.500000000000002 1.5000000000000002 0.00019390635521675625 0.0020068094216790793 165.60000000000039 1.0881287464813918 3.5000000000000004 0.51562500000000011 60.500000000000007
decision_type=2 2 2 2 2 2 2 2 2 2
left_child=-1 2 3 -2 8 9 -7 -3 -5 -4
right_child=1 7 5 4 -6 6 -8 -9 -10 -11
leaf_value=-0.062712804963483734 0.038202449044270947 -0.0084430158299004677 0.04572806292755717 -0.075468249486589145 0.027933498092548376 -0.017203008186000721 0.048834827119442807 -0.087551181084893182 -0.014013990412599681 0.069597836430261781
leaf_weight=3.7714784052222958 6.6292866058647624 1.9360528364777554 6.9688746780157107 3.4497360680252296 2.5053163897246122 4.6259409412741643 4.6029584258794785 2.2508946228772402 2.2488312497735023 5.5929146111011505
leaf_count=36 29 25 28 30 18 25 16 19 25 20
internal_value=0.00974769 0.016444 0.0241512 0.0021153 -0.0270455 0.0391512 0.0157337 -0.0509714 -0.0512165 0.0563557
internal_weight=44.5823 40.8108 36.6239 14.8332 8.20388 21.7907 9.2289 4.18695 5.69857 12.5618
internal_count=271 235 191 102 73 89 41 44 55 48
is_linear=0
shrinkage=0.05


Tree=48
num_leaves=9
num_cat=0
split_feature=1 1 0 56 31 12 34 0
split_gain=6.92146 7.07101 3.93943 4.38659 2.80128 3.09042 3.8059 0.0112255
threshold=1170.0000000000002 427.50000000000006 -0.00032759017619127245 0.93750000000000011 0.0064611843172707878 0.039187176078187259 -0.0081528073975302897 -0.00047204079629087342
decision_type=2 2 2 2 2 2 2 2
left_child=1 7 4 -4 -3 -6 -7 -1
right_child=-2 2 3 -5 5 6 -8 -9
leaf_value=-0.058950351345203017 -0.06193252112084166 0.057851291193964073 -0.066295229616802051 0.022956651899896031 -0.010613456126826385 0.04974590139982956 0.0052228673057979173 -0.053025400356246623
leaf_weight=1.7177274003624918 3.1518452502787104 6.2624857723712912 2.5322796069085625 3.0167259927839041 6.0707538127899197 10.955269739031795 8.5426644533872569 1.4953493457287539
leaf_count=15 35 24 38 22 25 39 37 36
internal_value=0.00944289 0.0149848 0.021103 -0.0177733 0.0278802 0.0205394 0.0302389 -0.0561929
internal_weight=43.7451 40.5933 37.3802 5.54901 31.8312 25.5687 19.4979 3.21308
internal_count=271 236 185 60 125 101 76 51
is_linear=0
shrinkage=0.05


Tree=49
num_leaves=11
num_cat=0
split_feature=10 11 5 8 33 15 15 1 64 14
split_gain=8.98898 7.67587 4.55251 5.48231 4.02252 3.25483 3.93921 2.54031 1.94931 0.626098
threshold=0.55494481233387938 14.500000000000002 1.5000000000000002 0.00019390635521675625 0.0020068094216790793 165.60000000000039 291.35357142856975 697.50000000000011 0.48437500000000006 1.2849125851068157
decision_type=2 2 2 2 2 2 2 2 2 2
left_child=-1 2 3 -2 8 9 -7 -3 -5 -4
right_child=1 7 5 4 -6 6 -8 -9 -10 -11
leaf_value=-0.071583625461340089 0.035511009685258631 -0.0057569416571068583 0.062728490855720381 -0.013773420181616836 0.026661560201954676 -0.017479719939637647 0.048624078521582244 -0.084940672425161109 -0.074731863353084113 0.039142367798326805
leaf_weight=3.193414455279707 6.4482426196336728 1.8434532526880492 7.9680333435535449 2.1808719374239445 2.4498290605843067 4.6056441552937013 4.4132645726203918 2.2480474635958672 3.2896760739386082 4.3495328947901726
leaf_count=32 30 23 29 25 18 24 17 22 30 21
internal_value=0.00912812 0.0156047 0.0230381 0.00128183 -0.0265853 0.0376894 0.0148672 -0.0492639 -0.0504304 0.0543998
internal_weight=42.99 39.7966 35.7051 14.3686 7.92038 21.3365 9.01891 4.0915 5.47055 12.3176
internal_count=271 239 194 103 73 91 41 45 55 50
is_linear=0
shrinkage=0.05


Tree=50
num_leaves=12
num_cat=0
split_feature=1 11 22 31 14 14 21 34 41 5 5
split_gain=6.03432 4.64665 3.91437 4.94283 4.59161 8.63683 3.66917 1.51887 0.878205 0.00482144 0.00296508
threshold=442.50000000000006 14.500000000000002 21.500000000000004 0.019192330793844064 0.97618122553050635 0.79915973584496935 0.00047499928221457981 -0.0058916683456607735 -0.00012588576495219418 1.5000000000000002 1.0000000180025095e-35
decision_type=2 2 2 2 2 2 2 2 2 2 2
left_child=9 2 3 -2 5 6 -4 -6 -9 10 -1
right_child=1 -3 4 -5 7 -7 -8 8 -10 -11 -12
leaf_value=-0.051663164262211882 0.02626784409550012 -0.037959433033235152 -0.0019769664037784544 -0.06024234129137504 0.057525154895997223 -0.054554278374237625 0.062500407770905028 0.010632634280708255 0.044439857269755793 -0.057514336871254679 -0.05559013866925714
leaf_weight=0.91565843485295695 3.4206066224724045 3.9139710515737525 4.1154270526021737 3.191824447363615 9.4023020938038826 4.1838970165699712 4.7566960249096155 3.8369734920561314 3.8468566462397584 1.4865914564579723 1.0118874311447144
leaf_count=30 22 33 24 18 37 28 19 19 23 15 12
internal_value=0.00847202 0.013832 0.0193472 -0.0154907 0.0269898 0.00466527 0.0325919 0.0440486 0.027558 -0.0553748 -0.0537247
internal_weight=44.0827 40.6686 36.7546 6.61243 30.1422 13.056 8.87212 17.0861 7.68383 3.41414 1.92755
internal_count=280 223 190 40 150 71 43 79 42 57 42
is_linear=0
shrinkage=0.05


Tree=51
num_leaves=12
num_cat=0
split_feature=1 5 26 8 0 9 2 1 0 0 3
split_gain=5.64905 3.66517 4.71592 3.88694 3.66287 3.16203 2.62181 1.20279 0.0414923 0.00577938 9.25488e-05
threshold=442.50000000000006 1.5000000000000002 0.0028716921427514477 8.4631672679163711e-05 -0.00074972551555430023 -0.0038805010408202718 0.71003900350361726 712.50000000000011 -1.0000000180025095e-35 -0.00042877726833223656 0.56004410143332806
decision_type=2 2 2 2 2 2 2 2 2 2 2
left_child=9 2 3 -2 -5 -3 -7 -8 -6 -1 -10
right_child=1 5 -4 4 8 6 7 -9 10 -11 -12
leaf_value=-0.056990921437476853 0.045497765832363819 -0.0017573535074551887 -0.060623291820314965 0.013532533761133548 -0.064350141107976391 0.0036131102893447267 0.063588663841162227 0.033145168323860406 -0.051949175830089081 -0.052761085537192366 -0.052745930022023491
leaf_weight=1.7977814897894862 4.4095769692212325 7.6492037400603321 3.1444648522883645 4.7185501530766452 1.3900170624256101 4.4335377290844944 6.3968308568000776 6.5835942551493645 0.81164798885584566 1.4661504477262486 0.66153012774884701
leaf_count=18 21 31 26 22 10 18 27 28 25 39 15
internal_value=0.00816997 0.0133064 -0.00612147 0.00817046 -0.0135393 0.025039 0.0368095 0.0481479 -0.0581537 -0.0550909 -0.052307
internal_weight=43.4629 40.199 15.1358 11.9913 7.58175 25.0632 17.414 12.9804 2.8632 3.26393 1.47318
internal_count=280 223 119 93 72 104 73 55 50 57 40
is_linear=0
shrinkage=0.05


Tree=52
num_leaves=10
num_cat=0
split_feature=1 11 20 2 12 31 17 47 0
split_gain=5.29372 4.23219 5.48288 3.06725 2.95607 2.61747 1.39756 1.15611 0.00490294
threshold=442.50000000000006 3.5000000000000004 0.0004627992335342075 0.64094656799075334 0.028280234697951701 0.012769262094784331 0.0011639239094989012 -0.01051501539371597 -0.00042877726833223656
decision_type=2 2 2 2 2 2 2 2 2
left_child=8 5 3 -3 -5 7 -6 -2 -1
right_child=1 2 -4 4 6 -7 -8 -9 -10
leaf_value=-0.05661082186051189 0.034543988096738545 -0.034740047388051983 -0.055974597589465103 -0.015503380854247293 0.017099988920601904 0.0084503229610684207 0.052776688639058239 0.06950404652702484 -0.052624876970771541
leaf_weight=1.7212937735021117 6.0298766270279893 3.2138053849339547 3.8163888286799184 4.4623263012617818 6.3008907996118051 7.0759319905191651 4.8640276156365871 3.8906489294022331 1.3981640692800272
leaf_count=18 30 27 37 27 36 32 17 17 39
internal_value=0.00789011 0.0128237 -0.00132395 0.00974593 0.0188946 0.0316834 0.0326426 0.0482547 -0.0548243
internal_weight=42.7734 39.6539 22.6574 18.8411 15.6272 16.9965 11.1649 9.92053 3.11946
internal_count=280 223 144 107 80 79 53 47 57
is_linear=0
shrinkage=0.05


Tree=53
num_leaves=12
num_cat=0
split_feature=1 11 22 14 14 31 21 34 48 23 23
split_gain=4.96123 3.98797 3.53166 4.34679 7.72015 4.24471 3.10334 1.50213 0.890576 0.00299398 0.00183379
threshold=442.50000000000006 14.500000000000002 21.500000000000004 0.97618122553050635 0.79915973584496935 0.019192330793844064 0.00047499928221457981 -0.0058916683456607735 0.0014880870819649224 1.5000000000000002 1.0000000180025095e-35
decision_type=2 2 2 2 2 2 2 2 2 2 2
left_child=9 2 5 4 6 -2 -4 -5 -9 10 -1
right_child=1 -3 3 7 -6 -7 -8 8 -10 -11 -12
leaf_value=-0.051421742238187386 0.023975086012232239 -0.036563959910010907 -0.0023110074587309776 0.056024234895053288 -0.05326533541902026 -0.057222747744288364 0.057743567596692906 0.042244640679283893 0.007336620667861532 -0.056365885610850236 -0.054737005094860729
leaf_weight=0.78994907438754969 3.2742312327027312 3.7670337166637173 4.0018582642078417 8.8753471206873655 4.1082509681582442 3.1657238397747278 4.6516648754477501 3.7921398673206577 3.5259183701127768 1.306947750970721 0.8837573267519474
leaf_count=30 22 33 24 37 28 18 19 23 19 15 12
internal_value=0.00761167 0.0123446 0.0175498 0.0249982 0.00317574 -0.0159398 0.0299711 0.0421962 0.0254256 -0.0545726 -0.0531723
internal_weight=42.1428 39.1622 35.3951 28.9552 12.7618 6.43996 8.65352 16.1934 7.31806 2.98065 1.67371
internal_count=280 223 190 150 71 40 43 79 42 57 42
is_linear=0
shrinkage=0.05


Tree=54
num_leaves=11
num_cat=0
split_feature=5 5 8 12 52 2 42 52 21 9
split_gain=4.65126 7.06464 3.95167 3.71537 4.18966 3.99949 2.66837 2.11973 1.759 1.19185
threshold=3.5000000000000004 2.5000000000000004 3.4708797512195641e-06 0.044446273559758255 -0.0069026572734543221 0.78107184938297414 0.0058560968790886741 -0.022975823188779065 0.0014068537234887496 0.00053061140856125466
decision_type=2 2 2 2 2 2 2 2 2 2
left_child=1 2 -1 5 7 -4 -7 -5 -3 -9
right_child=-2 8 3 4 -6 6 -8 9 -10 -11
leaf_value=0.04221578531035914 -0.052474852009674271 0.056186276559587328 -0.08832122241540695 -0.014864985826877637 -0.042082282502808779 0.017884309742835277 -0.05453295096764757 0.016376910543759175 0.018898942269444535 0.058048717544676137
leaf_weight=3.9834446404129293 3.0143621414899817 8.0644932352006418 2.7206138446927097 2.9018237721174955 3.6042250432074043 2.9392421022057533 2.2425856962800026 3.627784064039588 5.2038347274065009 3.2557101789861917
leaf_count=20 15 36 28 31 34 26 26 28 21 15
internal_value=0.00733966 0.0120175 -0.00349193 -0.0120432 0.00400253 -0.0392305 -0.0134564 0.0209769 0.0415622 0.0360866
internal_weight=41.5581 38.5438 25.2754 21.292 13.3895 7.90244 5.18183 9.78532 13.2683 6.88349
internal_count=280 265 208 188 108 80 52 74 57 43
is_linear=0
shrinkage=0.05


Tree=55
num_leaves=13
num_cat=0
split_feature=5 26 2 0 8 9 31 42 17 0 47 42
split_gain=5.58495 5.3718 4.2463 4.25149 2.86162 2.24023 2.15292 1.97763 0.734267 0.122535 0.00024665 2.84307e-05
threshold=2.5000000000000004 0.003020328282584619 0.65413643380584074 -0.0004092540799442434 6.1060036083035229e-05 -0.0038805010408202718 0.014879553336530403 0.0018026530438602724 0.00011229356844011955 -5.3587524007525637e-05 -0.0075293423012113576 0.0060027676966998749
decision_type=2 2 2 2 2 2 2 2 2 2 2 2
left_child=1 2 -1 4 -4 -2 -6 -5 -7 -9 11 -11
right_child=5 -3 3 7 6 8 -8 9 -10 10 -12 -13
leaf_value=-0.062904836669478589 0.010036856244217629 -0.068512573734414661 0.061998909912678361 0.011832670786583028 -0.0081213696769719887 0.059264807910126838 0.041249700993458427 -0.07529423464736977 0.031751409638942504 -0.051840435775942939 -0.052813834314906917 -0.051337976202024287
leaf_weight=2.1964173540473046 7.4084440954029587 3.0732161682099095 3.7175692394375863 1.5493471473455382 5.943257097154854 5.2309327870607358 3.5135010704398155 0.82630427181721366 4.5206672437489033 0.61009090952575806 0.67884607799349983 0.52276295609772205
leaf_count=29 31 31 14 13 36 21 16 6 24 20 15 21
internal_value=0.00925161 -0.00705973 0.00259652 0.0108831 0.0248323 0.0307636 0.0102216 -0.0330043 0.0465101 -0.0593378 -0.0520602 -0.0516086
internal_weight=39.7914 22.6313 19.5581 17.3617 13.1743 17.16 9.45676 4.18735 9.7516 2.638 1.8117 1.13285
internal_count=277 201 170 141 66 76 52 75 45 62 56 41
is_linear=0
shrinkage=0.05


Tree=56
num_leaves=11
num_cat=0
split_feature=23 21 0 18 24 3 9 17 7 59
split_gain=5.11586 3.95224 3.59436 3.62479 2.64097 2.3802 2.12017 0.714146 0.000731247 4.2465e-05
threshold=2.5000000000000004 0.0017872371395079903 -7.3588160488247109e-05 -0.0085200010579255785 0.0043241633160631702 0.61834175177580863 -0.0038805010408202718 0.00011229356844011955 1.0000000180025095e-35 0.40625000000000006
decision_type=2 2 2 2 2 2 2 2 2 2
left_child=1 2 3 5 -5 -1 -2 -8 9 -4
right_child=6 -3 8 4 -6 -7 7 -9 -10 -11
leaf_value=-0.047633389161311469 0.0095552615793710483 -0.060448579396676833 -0.051874560630416622 0.0055070276217067818 0.058310202614697909 0.010506872750437608 0.05805486848830145 0.03062376117276118 -0.053199680675151934 -0.05131519967421895
leaf_weight=3.3407203927636209 7.3931460455060032 2.977144554257392 0.57427144236862571 5.0447428971529025 4.4628976285457611 3.7211835831403732 5.0768935233354551 4.4544928073883057 1.2708142828196287 0.82926279865205288
leaf_count=21 31 30 19 31 17 19 21 24 29 35
internal_value=0.00893747 -0.00683734 0.00145664 0.010138 0.0302929 -0.0169971 0.029649 0.0452349 -0.0523308 -0.0515441
internal_weight=39.1456 22.221 19.2439 16.5695 9.50764 7.0619 16.9245 9.53139 2.67435 1.40353
internal_count=277 201 171 88 48 40 76 45 83 54
is_linear=0
shrinkage=0.05


Tree=57
num_leaves=12
num_cat=0
split_feature=11 3 3 14 54 21 7 21 8 3 42
split_gain=4.62559 4.35703 5.23337 2.81823 3.30967 2.24832 2.23895 1.74399 2.76288 1.168 0.750011
threshold=14.500000000000002 0.135760268562404 0.48856897107124175 0.60398967689046268 1.5000000000000002 0.0001017541099762007 1.0000000180025095e-35 0.00045109997729695202 0.00026841108245431256 0.44015780869453208 0.0018919762049826702
decision_type=2 2 2 2 2 2 2 2 2 2 2
left_child=1 -1 3 -3 6 -4 -5 10 -9 -2 -7
right_child=9 2 5 4 -6 7 -8 8 -10 -11 -12
leaf_value=0.0724059428657544 -0.013583005190478094 -0.070930667568746428 -0.019277347592233929 -0.0236083027458006 -0.053765196808029381 0.064295506507698649 0.034164895284197853 0.042982070136037547 -0.0097442029845693379 -0.070033258587836614 0.033052130520594601
leaf_weight=2.9482554476708165 1.6705828197300427 2.0481775980442789 2.5795978885144022 2.7531129419803602 2.6728328783065081 3.8214609846472767 4.2903941813856363 5.0172379519790393 4.9218706283718348 2.0295399855822325 3.8621200956404209
leaf_count=15 21 18 25 32 19 15 25 23 28 28 28
internal_value=0.00861223 0.0142457 0.00888166 -0.0176292 -0.00639344 0.0243199 0.0115829 0.0307016 0.0168719 -0.0445463 0.0485912
internal_weight=38.6152 34.9151 31.9668 11.7645 9.71634 20.2023 7.04351 17.6227 9.93911 3.70012 7.68358
internal_count=277 228 213 94 76 119 57 94 51 49 43
is_linear=0
shrinkage=0.05


Tree=58
num_leaves=11
num_cat=0
split_feature=5 26 3 41 24 9 9 22 26 0
split_gain=4.57715 4.69996 3.57367 3.07239 2.14552 4.05151 1.96245 1.94946 0.706737 0.694461
threshold=2.5000000000000004 0.003020328282584619 0.48856897107124175 0.00032784821578898184 0.0042121863255723795 0.00042412442706263326 -0.0038805010408202718 81.500000000000014 0.0019989406840978329 -0.0025040107195857804
decision_type=2 2 2 2 2 2 2 2 2 2
left_child=1 2 3 7 5 -4 -2 -1 -8 -6
right_child=6 -3 4 -5 9 -7 8 -9 -10 -11
leaf_value=-0.040772080369416909 0.0088022514462385484 -0.065674691921163264 -0.052359666291605184 -0.08144817626433877 0.054674610092080134 0.033476831685119057 0.031328199024126473 0.023853077405969068 0.059318197668855349 0.022081701013240938
leaf_weight=2.1501867808401647 7.2688124068081406 2.9310709070414296 2.4530208520591241 1.8713716287165878 3.1845769733190572 3.1273264810442924 5.1460347026586515 2.5519368406385183 4.0146389603614807 3.3573367111384833
leaf_count=26 31 31 21 29 14 23 28 23 17 34
internal_value=0.00830692 -0.00680674 0.00242242 -0.0272634 0.01852 -0.00425536 0.0282017 -0.00569871 0.0435947 0.0379478
internal_weight=38.0563 21.6268 18.6958 6.5735 12.1223 5.58035 16.4295 4.70212 9.16067 6.54191
internal_count=277 201 170 78 92 44 76 49 45 48
is_linear=0
shrinkage=0.05


Tree=59
num_leaves=13
num_cat=0
split_feature=36 9 5 3 26 34 18 51 12 37 5 5
split_gain=4.23877 6.00088 4.54526 4.34573 5.81623 1.91038 1.5473 1.11928 0.363954 0.0770239 0.0183124 0.00701836
threshold=1.0000000180025095e-35 -0.0053938714879204755 2.5000000000000004 0.5504332266929044 0.0011541541577080084 -0.0051324867675582499 -0.012184475583946511 0.0030473836699739247 0.014353304140611971 0.0035969290835629803 1.5000000000000002 1.0000000180025095e-35
decision_type=2 2 2 2 2 2 2 2 2 2 2 2
left_child=1 -1 3 4 -3 -2 -5 -8 -6 -10 11 -11
right_child=5 2 -4 6 8 -7 7 -9 9 10 -12 -13
leaf_value=-0.057088607750672128 0.069802223963599849 0.017475754924562482 0.040619761883851614 -0.014809370426474323 -0.094004375347386537 0.017918165573556306 0.0029053136229832441 0.04230848877939105 -0.076260038788226625 -0.051570651046722905 -0.063079135121804145 -0.057888771800711329
leaf_weight=4.0120040625333813 3.4050930067896843 3.3114420361816945 7.7857498675584784 2.9646197371184826 1.1379751842468975 3.7041136287152758 2.8658764753490669 4.8560917787253857 0.69537513330578837 0.92325793858617566 0.98921187967061985 0.83894132077693939
leaf_count=24 13 21 36 23 12 27 30 29 6 37 9 10
internal_value=0.00801378 -0.000119134 0.00854884 -0.00488812 -0.0330173 0.042769 0.0158962 0.0276847 -0.0694869 -0.0613923 -0.0576348 -0.0545786
internal_weight=37.4898 30.3805 26.3685 18.5828 7.8962 7.10921 10.6866 7.72197 4.58476 3.44679 2.75141 1.7622
internal_count=277 237 213 177 95 40 82 59 74 62 56 47
is_linear=0
shrinkage=0.05


Tree=60
num_leaves=12
num_cat=0
split_feature=5 22 14 5 3 8 13 39 56 34 29
split_gain=3.8392 3.51983 4.02726 3.36775 4.42056 5.11728 1.6148 1.52286 1.37572 0.306004 0.0409215
threshold=3.5000000000000004 90.500000000000014 0.99268035632294482 2.5000000000000004 0.48856897107124175 0.00033625246642932739 1.0000000180025095e-35 0.018394300967660041 -1.0000000180025095e-35 -0.012508162227467909 49.416999999999867
decision_type=2 2 2 2 2 2 2 2 2 2 2
left_child=1 3 -3 4 5 -1 -5 8 -6 -7 -11
right_child=-2 2 -4 6 7 9 -8 -9 -10 10 -12
leaf_value=0.02774633629362044 -0.048460210487633937 -0.08160159668773348 0.010023177686725088 0.018530609851060045 0.0049857739507503879 -0.092898597086152016 0.05827269218892564 -0.0071393534682898706 0.046113398077995027 -0.068817188459702625 -0.055061978277880508
leaf_weight=2.1520475978031781 2.9210483729839316 2.0325635857880107 2.9253696333616972 4.5606184750795382 3.0765747837722301 1.0888162059709432 5.8149082809686661 3.3830601982772341 5.996116938069461 0.90550048276782069 1.3421240597963331
leaf_count=23 14 24 23 28 32 10 21 21 32 7 33
internal_value=0.00650032 0.0113246 -0.0275395 0.0181286 0.00501752 -0.0323681 0.0408038 0.0214911 0.0321669 -0.0711427 -0.0606035
internal_weight=36.1987 33.2777 4.95793 28.3198 17.9442 5.48849 10.3755 12.4558 9.07269 3.33644 2.24762
internal_count=268 254 47 207 158 73 49 85 64 50 40
is_linear=0
shrinkage=0.05


Tree=61
num_leaves=11
num_cat=0
split_feature=5 0 3 0 47 15 20 0 7 3
split_gain=3.51885 3.47068 3.41641 3.37123 1.61151 2.25157 2.0135 0.630702 0.000357861 4.31075e-05
threshold=3.5000000000000004 -7.3588160488247109e-05 0.38538203637215213 -0.0005595086342992105 -0.030945229229727724 152.21071428571449 -0.0011093815807810467 0.00014769435893935426 1.0000000180025095e-35 0.54978149260095288
decision_type=2 2 2 2 2 2 2 2 2 2
left_child=1 2 3 -1 -4 6 -6 -3 9 -9
right_child=-2 7 4 -5 5 -7 -8 8 -10 -11
leaf_value=-0.05282046852934244 -0.046710336654851546 0.0063661427505974678 0.049013495363278196 0.013375976824564692 0.05807053006658635 -0.0044502079341472173 0.011444527124994636 -0.051034933715148126 -0.052621138684693605 -0.051603842751910767
leaf_weight=3.0697879046201706 2.880011022090911 0.57626745477318708 5.8223000243306187 5.150120075792076 4.4867220893502235 6.4556660316884509 4.7846472747623903 0.54716113954782508 0.99678821489214886 0.85059927217662334
leaf_count=22 14 10 23 28 23 31 29 29 27 32
internal_value=0.00627619 0.0109372 0.0160799 -0.0113456 0.0265413 0.0182218 0.0340084 -0.0405956 -0.0518973 -0.0513811
internal_weight=35.6201 32.7401 29.7692 8.21991 21.5493 15.727 9.27137 2.97082 2.39455 1.39776
internal_count=268 254 156 50 106 83 52 98 88 61
is_linear=0
shrinkage=0.05


Tree=62
num_leaves=12
num_cat=0
split_feature=11 34 10 15 55 62 15 8 5 14 5
split_gain=4.28374 3.2725 2.43551 2.33209 4.41172 4.14817 2.70821 1.81285 2.87622 1.76178 0.196023
threshold=14.500000000000002 -0.013726687169358525 0.5943275766321815 117.59642857142809 2.5000000000000004 1.0000000180025095e-35 188.207142857143 0.00037465951681074329 2.5000000000000004 1.1035645396436393 1.5000000000000002
decision_type=2 2 2 2 2 2 2 2 2 2 2
left_child=2 -2 -1 7 9 6 -6 -4 -9 -5 -3
right_child=1 10 3 4 5 -7 -8 8 -10 -11 -12
leaf_value=-0.032221283095597762 0.037779461120646243 -0.058261578960833706 0.051454533470431045 0.0044271390982818818 -0.042543406457353543 -0.070386835947401305 0.028587821540287741 -0.024888776602089061 0.048904889640494727 0.051072443549621753 -0.08500816249587595
leaf_weight=2.8313016761094358 0.89477400667965445 1.3035343056544655 6.4039826020598429 3.5890669114887732 2.0653139259666187 2.804528146982193 3.800577349960804 2.6497532557696104 2.6321214661002159 4.6431301310658455 1.4437521025538442
leaf_count=27 6 36 38 25 23 17 27 28 14 20 7
internal_value=0.00606345 -0.045269 0.0120137 0.0163946 0.00452049 -0.0203701 0.00354332 0.0335695 0.0118849 0.0307361 -0.0723174
internal_weight=35.0618 3.64206 31.4198 28.5885 16.9026 8.67042 5.86589 11.6859 5.28187 8.2322 2.74729
internal_count=268 49 219 192 112 67 50 80 42 45 43
is_linear=0
shrinkage=0.05


Tree=63
num_leaves=12
num_cat=0
split_feature=11 27 25 27 49 21 17 3 38 5 5
split_gain=3.95966 2.67207 3.65935 3.38318 2.61969 2.56488 2.51662 2.5448 0.885709 0.457837 0.150599
threshold=14.500000000000002 0.010423407091384567 5.5000000000000009 0.0071212066482397056 -0.020133793184433476 0.00016458208735124077 0.00037721602495797426 0.5504332266929044 -0.0085851485761832807 1.5000000000000002 1.5000000000000002
decision_type=2 2 2 2 2 2 2 2 2 2 2
left_child=1 2 -1 5 -2 -4 8 -8 9 -7 -6
right_child=4 -3 3 -5 10 6 7 -9 -10 -11 -12
leaf_value=-0.04071493889565167 0.028044104091305255 0.051337251030396019 -0.019377741684317391 -0.039217471052051582 -0.057664671134188175 0.036625603674245701 -0.038291718236491981 0.028671512735452005 0.023788963761510198 0.062377128550303231 -0.081636459101436909
leaf_weight=3.6125445310026469 0.92733047902584109 3.7189018577337256 3.438203549012548 2.7141448184847823 1.300882060080766 2.8678873945027696 2.4110423969104877 3.4475378580391407 4.4691304117441089 4.3350197076797485 1.3199837654829023
leaf_count=28 4 13 31 14 38 30 29 22 29 23 7
internal_value=0.00585265 0.0115769 0.00615971 0.0133099 -0.0441823 0.0201088 0.0278532 0.00111344 0.0412747 0.052124 -0.0697379
internal_weight=34.5626 31.0144 27.2955 23.683 3.5482 20.9688 17.5306 5.85858 11.672 7.20291 2.62087
internal_count=268 219 206 178 49 164 133 51 82 53 45
is_linear=0
shrinkage=0.05


Tree=64
num_leaves=11
num_cat=0
split_feature=27 9 0 42 21 12 12 43 31 1
split_gain=3.06715 3.71839 3.24555 2.22823 2.44316 2.33869 1.86191 0.622063 0.0121853 0.000107044
threshold=0.010423407091384567 -0.0053938714879204755 -7.3588160488247109e-05 0.00028049244248300528 0.00016458208735124077 0.039187176078187259 0.1110788113695524 -0.00099990340479054842 0.005876301531230939 577.50000000000011
decision_type=2 2 2 2 2 2 2 2 2 2
left_child=1 -1 3 -3 -5 -6 -7 8 -4 -10
right_child=-2 2 7 4 5 6 -8 -9 9 -11
leaf_value=-0.038763867170461201 0.048778087092003257 0.055827920826576671 -0.059595539765329698 -0.035960624190936256 -0.010644309338556623 0.049933925108087772 0.0093376207588758593 0.0033432355948108381 -0.05111368581854913 -0.0519433616120911
leaf_weight=5.0471083270385888 3.6769789308309546 2.8607985563576284 0.67763349041342813 2.6599223949015167 5.6681049391627338 5.3997064754366857 5.9219795390963554 0.59859768766909738 0.68979075364768483 0.89082941226661205
leaf_count=29 14 17 15 19 36 28 31 13 35 31
internal_value=0.00564511 0.000430522 0.00822867 0.0146 0.00859759 0.0155736 0.0286994 -0.0419739 -0.0539861 -0.0515813
internal_weight=34.0915 30.4145 25.3674 22.5105 19.6497 16.9898 11.3217 2.85685 2.25825 1.58062
internal_count=268 254 225 131 114 95 59 94 81 66
is_linear=0
shrinkage=0.05


Tree=65
num_leaves=9
num_cat=0
split_feature=6 5 2 22 12 38 51 63
split_gain=4.67933 4.1692 3.15855 2.73671 3.04692 1.82874 1.57803 0.344423
threshold=19.500000000000004 3.5000000000000004 0.65413643380584074 90.500000000000014 0.0032573635515526105 -0.021360382798637698 0.002751791959988844 1.0000000180025095e-35
decision_type=2 2 2 2 2 2 2 2
left_child=1 2 -1 4 -4 -6 -7 -8
right_child=-2 -3 3 -5 5 6 7 -9
leaf_value=-0.034058385122317125 -0.060624765930235004 -0.047730552221246086 -0.02209971337969184 -0.016962335780878288 0.010931256752322786 0.012055211201223485 0.045932840267432849 0.065060647690554071
leaf_weight=3.2022932525724199 2.7688268432393661 3.140394151210784 2.8863869002088967 4.5118268914520732 6.2910680584609588 2.9935211027041015 5.9365804176777583 3.8991781119257212
leaf_count=36 33 17 28 36 39 25 38 16
internal_value=0.00179868 0.00705837 0.0128475 0.0185117 0.0257846 0.0330132 0.0438415 0.0535157
internal_weight=35.6301 32.8612 29.7209 26.5186 22.0067 19.1203 12.8293 9.83576
internal_count=268 235 218 182 146 118 79 54
is_linear=0
shrinkage=0.05


Tree=66
num_leaves=9
num_cat=0
split_feature=1 1 14 14 41 8 25 5
split_gain=4.39314 4.07767 2.14827 3.8909 3.63325 1.70571 1.28134 0.00319027
threshold=1192.5000000000002 427.50000000000006 0.79354376576062136 0.98850022454401854 0.00039175073529800749 0.001132732023171303 38.500000000000007 1.5000000000000002
decision_type=2 2 2 2 2 2 2 2
left_child=1 7 -3 -4 5 6 -5 -1
right_child=-2 2 3 4 -6 -7 -8 -9
leaf_value=-0.052469824177278204 -0.060077820405097695 0.036277642493044319 -0.032839812805338035 0.055366630219756845 -0.022423407223223196 0.0013998023799803184 0.016869427802381692 -0.056036642477239121
leaf_weight=1.1868473673239344 2.6571596954017869 6.9531901823356774 5.339885274879637 5.7743019843474048 4.5893302187323561 3.8672852665185919 3.454572981223464 1.3288090536370871
leaf_count=39 33 39 38 35 29 18 20 17
internal_value=0.00173529 0.00678995 0.0119208 0.00456559 0.0158596 0.0292753 0.0409563 -0.0543539
internal_weight=35.1514 32.4942 29.9786 23.0254 17.6855 13.0962 9.22887 2.51566
internal_count=268 235 179 140 102 73 55 56
is_linear=0
shrinkage=0.05


Tree=67
num_leaves=10
num_cat=0
split_feature=1 1 27 9 8 14 20 46 5
split_gain=4.12655 3.82292 2.08805 6.33253 2.05172 2.59729 2.35103 5.97399 0.00272248
threshold=1192.5000000000002 427.50000000000006 0.010423407091384567 -0.0037826866061890225 4.6007802174643912e-05 0.82005502653776252 -0.0015827591534717583 4.7940815331421937e-05 1.5000000000000002
decision_type=2 2 2 2 2 2 2 2 2
left_child=1 8 3 -3 -5 -6 -7 -8 -1
right_child=-2 2 -4 4 5 6 7 -9 -10
leaf_value=-0.052347376777274461 -0.059560924284101174 -0.038378571529662044 0.046982353723003717 0.04690344741887089 0.041968485576256792 0.027395743432917327 -0.079105038910853354 0.018875883957347111 -0.05571930804781014
leaf_weight=1.1315382672473782 2.5489480029791585 6.0405358877033022 3.627803372219204 5.2422166373580756 4.5437561832368365 3.8555652461946046 2.6708237864077038 3.725956017151475 1.2710188347846267
leaf_count=39 33 33 15 26 29 25 21 30 17
internal_value=0.00167344 0.00653445 0.0114408 0.00649671 0.0200243 0.0105011 -0.00344495 -0.0220337 -0.0541312
internal_weight=34.6582 32.1092 29.7067 26.0789 20.0383 14.7961 10.2523 6.39678 2.40256
internal_count=268 235 179 164 131 105 76 51 56
is_linear=0
shrinkage=0.05


Tree=68
num_leaves=11
num_cat=0
split_feature=1 5 1 5 58 28 42 42 42 5
split_gain=3.87864 3.59871 2.54579 2.51206 3.50224 2.20877 1.86173 3.23365 0.63676 0.00156746
threshold=1192.5000000000002 3.5000000000000004 442.50000000000006 1.5000000000000002 0.51562500000000011 0.015966376384358171 0.0019751350148911203 0.0045492586709413637 0.0018919762049826702 1.5000000000000002
decision_type=2 2 2 2 2 2 2 2 2 2
left_child=1 2 8 4 5 -4 -5 -8 -1 -10
right_child=-2 -3 3 6 -6 -7 7 -9 9 -11
leaf_value=0.0035564000925252786 -0.059072198339570614 -0.045306524705107341 0.0014472862103736264 0.049876362375079974 0.028162598413272729 -0.062569073535942432 -0.016959623452801009 0.040833311207244823 -0.052246642145363058 -0.055291570414752758
leaf_weight=0.68057125993073642 2.4441860243678084 3.0525113977491847 2.6795224612578767 6.277379363775256 4.7440558299422264 2.7104142801836133 4.3776854500174505 5.4134013019502163 0.98782524187117793 0.73871884401887655
leaf_count=9 33 17 27 30 38 20 20 27 36 11
internal_value=0.00161477 0.00629956 0.0118057 0.0163264 -0.00316806 -0.0307443 0.028621 0.0149936 -0.0374037 -0.0535494
internal_weight=34.1063 31.6621 28.6096 26.2025 10.134 5.38994 16.0685 9.79109 2.40712 1.72654
internal_count=268 235 218 162 85 47 77 47 56 47
is_linear=0
shrinkage=0.05


Tree=69
num_leaves=11
num_cat=0
split_feature=1 16 16 0 18 3 0 20 0 42
split_gain=3.64746 3.11062 3.25537 4.56886 4.44049 3.10414 2.43807 1.66612 0.936215 0.906907
threshold=1192.5000000000002 19.500000000000004 11.500000000000002 -0.004286335756948422 -0.005395028189590376 0.5504332266929044 -0.0033641388316332783 -0.0016750445237225058 -0.0010570409166114623 0.0035583369351211498
decision_type=2 2 2 2 2 2 2 2 2 2
left_child=1 2 3 -1 5 9 -4 -7 -8 -5
right_child=-2 -3 6 4 -6 7 8 -9 -10 -11
leaf_value=0.04487869033161998 -0.058609910864879794 -0.038595021484141713 -0.0065815298396894213 -0.087642065799444446 0.022154607700697812 0.032165257434565345 0.070873709747326485 -0.033253729223247375 0.034399310551574726 -0.043761114051570779
leaf_weight=4.161500893533236 2.3428555643185964 3.4647845309227696 2.6161710172891617 2.1766826212406194 5.0922904293984148 1.7692745421081784 3.0392675697803497 2.1633406933397055 4.1774251041933876 2.5650107515975833
leaf_count=19 33 28 13 20 36 15 15 25 34 30
internal_value=0.00156045 0.00607501 0.0116502 -0.00103002 -0.0149077 -0.0366654 0.0347698 -0.00382188 0.0497603 -0.0639047
internal_weight=33.5686 31.2257 27.761 17.9281 13.7666 8.67431 9.83286 3.93262 7.21669 4.74169
internal_count=268 235 207 145 126 90 62 40 49 50
is_linear=0
shrinkage=0.05


Tree=70
num_leaves=12
num_cat=0
split_feature=1 28 23 30 17 0 3 33 45 22 6
split_gain=3.55164 2.94112 3.85696 2.71022 1.98527 3.38076 2.05924 1.862 2.01573 0.697093 0.00785829
threshold=1170.0000000000002 0.015966376384358171 2.5000000000000004 -0.56249999999999989 -0.00029821376590320091 -0.0026997743206318976 0.5504332266929044 -0.0096104463122563804 0.012135360828373293 82.500000000000014 20.500000000000004
decision_type=2 2 2 2 2 2 2 2 2 2 2
left_child=1 3 4 -1 -3 -6 -7 -5 9 -9 -2
right_child=10 2 -4 7 5 6 -8 8 -10 -11 -12
leaf_value=-0.016898830146945345 -0.060789830032983772 0.0090130170165831063 0.022493235021775838 0.070302725289887 -0.11118829974422151 -0.063425845880274001 0.016134360706392462 0.046791240165060172 -0.0067325228367042488 0.015855304028614983 -0.054977968890853525
leaf_weight=4.2174009298905792 1.1163605218753212 1.6644440339878199 4.3212157413363457 2.2632652353495422 1.7025281935930245 1.6508566169068206 1.6030725724995134 5.1345379780977911 4.2803509989753366 2.821700681000948 1.2142198998481033
leaf_count=38 12 23 23 9 8 31 16 32 30 25 28
internal_value=0.00167099 0.00634111 -0.0142517 0.0183797 -0.0382338 -0.0540999 -0.0242299 0.0286407 0.020935 0.0358197 -0.0577619
internal_weight=31.99 29.6594 10.9421 18.7173 6.6209 4.95646 3.25393 14.4999 12.2366 7.95624 2.33058
internal_count=275 235 101 134 78 55 47 96 87 57 40
is_linear=0
shrinkage=0.05


Tree=71
num_leaves=11
num_cat=0
split_feature=1 5 5 28 47 8 52 12 8 6
split_gain=3.34059 2.9206 5.66901 4.0997 2.92469 2.62776 1.5466 1.46907 0.916969 0.00668696
threshold=1170.0000000000002 3.5000000000000004 2.5000000000000004 0.015966376384358171 -0.021629152451616281 0.00019390635521675625 -0.014573471518785732 0.039187176078187259 0.00088363729103763577 20.500000000000004
decision_type=2 2 2 2 2 2 2 2 2 2
left_child=1 2 3 5 -5 -1 -7 -6 -4 -2
right_child=9 -3 8 4 7 6 -8 -9 -10 -11
leaf_value=0.040356544162309473 -0.060205821610506915 -0.042360935366995811 0.057175036425264385 -0.084413827760776175 -0.049313377020692606 0.013259616653424089 -0.038153170706413664 0.0099523614435335136 0.025231075991548321 -0.054728135126982103
leaf_weight=4.920523028820762 1.071954348124563 2.8121230937540522 5.1193222217261809 2.1584935477003455 1.7214955547824491 3.3757345350459298 2.5812974143773237 2.6632930021733046 4.0033999159932137 1.1601410210132597
leaf_count=33 12 16 30 27 21 30 29 30 19 28
internal_value=0.00160857 0.00609223 0.0112255 -0.00549582 -0.0367695 0.0133166 -0.00901854 -0.0133157 0.0431568 -0.0573588
internal_weight=31.5878 29.3557 26.5436 17.4208 6.54328 10.8776 5.95703 4.38479 9.12272 2.2321
internal_count=275 235 219 170 78 92 59 51 49 40
is_linear=0
shrinkage=0.05


Tree=72
num_leaves=11
num_cat=0
split_feature=35 36 41 31 45 9 45 35 41 49
split_gain=2.63304 2.9185 2.86993 2.97368 2.46297 2.07563 1.39004 2.88497 1.45256 1.01595
threshold=0.0010763513520800629 1.0000000180025095e-35 0.00020032563458300854 0.0076798882950561429 0.0098907354984251235 0.00014337150799148549 0.012135360828373293 -0.015570630021218666 -0.00033726681551099366 0.0019949960553324879
decision_type=2 2 2 2 2 2 2 2 2 2
left_child=1 2 6 -4 5 -2 8 -8 -1 -7
right_child=4 -3 3 -5 -6 9 7 -9 -10 -11
leaf_value=0.056796593463380896 -0.034864155829630816 0.049663104725653509 0.012644919514227144 -0.085037128961813008 -0.050581485917184768 0.044400379580654577 0.030393984834669791 -0.03662063160000379 0.0068607842653959569 -0.0018698798686175595
leaf_weight=2.8431609692052007 2.869241211563347 4.1945361234247676 1.4438639432191842 1.6923040803521869 3.7715628258883953 2.1526091303676367 3.2718427572399396 3.1542707225307804 2.9854928022250586 2.6428648959845304
leaf_count=17 34 27 12 30 32 14 19 33 28 29
internal_value=0.00155988 0.012691 0.00261495 -0.0400652 -0.0175031 -0.00122625 0.0135374 -0.00250027 0.031219 0.0189001
internal_weight=31.0217 19.5855 15.3909 3.13617 11.4363 7.66472 12.2548 6.42611 5.82865 4.79547
internal_count=275 166 139 42 109 77 97 52 45 43
is_linear=0
shrinkage=0.05


Tree=73
num_leaves=12
num_cat=0
split_feature=1 5 5 28 47 8 2 12 35 3 14
split_gain=3.07571 2.61851 5.10881 3.49375 2.65243 2.35189 2.22682 1.33532 1.23506 0.920489 0.00556673
threshold=1170.0000000000002 3.5000000000000004 2.5000000000000004 0.015966376384358171 -0.021629152451616281 0.00019390635521675625 0.80890464785574767 0.039187176078187259 -0.0080434945239247751 0.41950203937336999 1.0016088608312996
decision_type=2 2 2 2 2 2 2 2 2 2 2
left_child=1 2 3 5 -5 -1 8 -6 -7 -4 -2
right_child=10 -3 9 4 7 6 -8 -9 -10 -11 -12
leaf_value=0.038580501153689731 -0.0543713753387291 -0.040478499543319883 0.025160200426160989 -0.080153169314707604 -0.046499014074876804 -0.0016443594165991772 0.02576291327347531 0.010235449817591747 -0.063816536986574135 0.057621927567751301 -0.059519640918141006
leaf_weight=4.7623269930482 1.0877416520379477 2.76117044314742 4.2515500746667403 2.1091475253924727 1.6985907545313228 1.4285757699981414 2.5925553310662508 2.663249951787293 1.811967398971311 4.4902127794921398 1.0150548075325785
leaf_count=33 25 16 22 27 21 15 19 30 25 27 15
internal_value=0.00150439 0.00579994 0.0107512 -0.00517015 -0.0341181 0.0125094 -0.00877592 -0.0118581 -0.0364083 0.0418342 -0.0568565
internal_weight=30.6721 28.5693 25.8082 17.0664 6.47099 10.5954 5.8331 4.36184 3.24054 8.74176 2.1028
internal_count=275 235 219 170 78 92 59 51 40 49 40
is_linear=0
shrinkage=0.05


Tree=74
num_leaves=11
num_cat=0
split_feature=1 27 2 9 20 39 39 3 0 14
split_gain=2.89816 2.4475 4.0232 2.21354 2.76156 2.82839 1.62737 1.98056 0.794298 0.00476065
